
\data\
ngram 1=5663
ngram 2=35382
ngram 3=10878

\1-grams:
-0.8874499	</s>
-99	<s>	-0.994101
-1.568729	A	-0.528259
-5.022964	ABACK	-0.2643907
-4.721934	ABANDON	-0.2048079
-4.323994	ABBEY	-0.3834049
-3.909021	ABERDEEN	-0.337569
-5.022964	ABIDING	-0.2655994
-3.680542	ABLE	-1.351424
-4.545843	ABNORMALLY	-0.4813126
-5.022964	ABORTION	-0.2053429
-2.515108	ABOUT	-0.5735099
-3.909021	ABOVE	-0.5270978
-5.022964	ABROAD	-0.2053429
-4.545843	ABSENCE	-0.2615599
-5.022964	ABSENCES	-0.2648284
-4.721934	ABSENT	-0.2041582
-4.721934	ABSENTEE	-0.3930285
-4.068722	ABSOLUTE	-0.4546255
-5.022964	ABSOLUTELY	-0.2607361
-5.022964	ABSTRACT	-0.2053429
-4.545843	ABSURD	-0.4210849
-5.022964	ABUNDANCE	-0.2600106
-4.068722	ABUSE	-0.4109916
-4.545843	ABUSED	-0.4210849
-5.022964	ABUSERS	-0.2053429
-3.876836	ACCEPT	-0.4054623
-4.068722	ACCEPTED	-0.3242136
-4.323994	ACCESS	-0.2322346
-3.560566	ACCIDENT	-1.008702
-5.022964	ACCIDENTS	-0.2053429
-5.022964	ACCOLADE	-0.2053429
-4.068722	ACCORDING	-0.9896959
-5.022964	ACCORDINGLY	-0.2655582
-4.323994	ACCOUNT	-0.3104082
-5.022964	ACCOUNTABLE	-0.2053429
-4.721934	ACCOUNTED	-0.3889477
-5.022964	ACCOUNTING	-0.2655829
-4.721934	ACCOUNTS	-0.1992811
-5.022964	ACCURATE	-0.2053429
-4.721934	ACCUSED	-0.3718322
-5.022964	ACCUSTOMED	-0.2553118
-4.420904	ACHIEVE	-0.2542027
-3.846873	ACHIEVED	-0.3744878
-4.177866	ACHIEVEMENT	-0.4645512
-4.721934	ACHIEVEMENTS	-0.3327638
-5.022964	ACHIEVING	-0.2053429
-5.022964	ACKNOWLEDGE	-0.2444113
-5.022964	ACKNOWLEDGED	-0.2605611
-3.943783	ACROSS	-0.4474322
-3.625024	ACT	-0.7021714
-5.022964	ACTED	-0.2648531
-4.068722	ACTING	-0.2073117
-3.341723	ACTION	-0.5748296
-4.420904	ACTIONS	-0.3524923
-4.323994	ACTIVE	-0.2973886
-4.244813	ACTOR	-0.2945336
-4.119874	ACTORS	-0.213139
-5.022964	ACTS	-0.2600106
-4.244813	ACTUAL	-0.6065949
-3.607991	ACTUALLY	-0.1891533
-4.721934	ACUTE	-0.205272
-4.545843	ADAMANT	-0.2801993
-5.022964	ADAMS	-0.2536128
-4.721934	ADAPT	-0.1934837
-4.545843	ADD	-0.345588
-3.560566	ADDED	-0.3199409
-4.721934	ADDICT	-0.3327638
-5.022964	ADDICTION	-0.2053429
-4.119874	ADDITION	-0.3353869
-5.022964	ADDITIONS	-0.2622955
-4.420904	ADDRESS	-0.233189
-4.721934	ADDRESSED	-0.3327638
-4.545843	ADJUST	-0.1799087
-5.022964	ADJUSTED	-0.2615269
-5.022964	ADJUSTING	-0.2553118
-4.545843	ADJUSTMENTS	-0.1883319
-5.022964	ADMIRERS	-0.2053429
-4.721934	ADMISSION	-0.3810336
-5.022964	ADMITS	-0.2603443
-3.876836	ADMITTED	-0.2200046
-5.022964	ADMONISHED	-0.2053429
-5.022964	ADOPT	-0.2444113
-4.545843	ADOPTED	-0.2615599
-5.022964	ADOPTION	-0.2574535
-5.022964	ADULT	-0.2053429
-4.420904	ADULTS	-0.5640465
-4.420904	ADVANCE	-0.3424904
-4.721934	ADVANCED	-0.3929502
-5.022964	ADVANCES	-0.2444113
-4.244813	ADVANTAGE	-0.3878015
-4.323994	ADVENTURE	-0.4509588
-5.022964	ADVERSE	-0.2655376
-4.721934	ADVERTISED	-0.3327638
-5.022964	ADVERTS	-0.2053429
-3.909021	ADVICE	-0.3123062
-4.721934	ADVISED	-0.2593216
-5.022964	ADVISER	-0.2574535
-5.022964	ADVISERS	-0.2639237
-4.022964	AFFAIR	-0.3127551
-4.545843	AFFAIRS	-0.2809996
-4.545843	AFFECT	-0.3242055
-3.876836	AFFECTED	-0.4174711
-5.022964	AFFECTION	-0.2615269
-5.022964	AFFLICTED	-0.2643907
-4.323994	AFFORD	-0.359564
-4.721934	AFGHAN	-0.2053146
-5.022964	AFGHANISTAN	-0.2629259
-4.022964	AFRAID	-0.4542822
-4.177866	AFRICA	-0.419958
-4.721934	AFRICAN	-0.2655706
-3.147903	AFTER	-0.4793967
-4.119874	AFTERNOON	-0.5579932
-4.721934	AFTERWARDS	-0.1995306
-3.063923	AGAIN	-0.6326704
-3.379512	AGAINST	-0.2354489
-3.981571	AGE	-0.3437913
-4.545843	AGENCIES	-0.1818263
-4.545843	AGENCY	-0.2859881
-3.943783	AGENDA	-0.7994654
-5.022964	AGENT	-0.2053429
-4.721934	AGENTS	-0.2022511
-4.721934	AGES	-0.2053004
-5.022964	AGGRESSION	-0.2651996
-5.022964	AGGRESSIVE	-0.2053429
-5.022964	AGHAST	-0.2053429
-3.5916	AGO	-0.7384698
-4.022964	AGREE	-0.4506263
-3.818844	AGREED	-0.339424
-3.943783	AGREEMENT	-0.331413
-5.022964	AGREES	-0.2636631
-3.721934	AHEAD	-0.495364
-4.721934	AID	-0.2655665
-4.721934	AIDE	-0.3848744
-5.022964	AIDS	-0.2053429
-4.323994	AIM	-0.2780463
-4.545843	AIMED	-0.4797649
-5.022964	AIMING	-0.2615269
-5.022964	AIMS	-0.2553118
-4.068722	AIR	-0.2571013
-4.545843	AIRCRAFT	-0.2434457
-4.420904	AIRPORT	-0.1791956
-4.721934	ALAIN	-0.2053335
-5.022964	ALAN	-0.2656118
-5.022964	ALARM	-0.2053429
-5.022964	ALARMING	-0.2655829
-4.721934	ALASTAIR	-0.2655994
-4.323994	ALBUM	-0.2881984
-4.721934	ALBUMS	-0.3327638
-4.244813	ALCOHOL	-0.183437
-5.022964	ALERT	-0.2053429
-4.244813	ALEX	-0.289388
-4.721934	ALI	-0.1959522
-5.022964	ALIBI	-0.2536128
-5.022964	ALICE	-0.2444113
-5.022964	ALIEN	-0.2053429
-5.022964	ALIGHT	-0.2053429
-5.022964	ALISON	-0.2574535
-5.022964	ALISTAIR	-0.2656077
-4.022964	ALIVE	-0.5662254
-2.492764	ALL	-0.3104691
-4.420904	ALLAN	-0.2859975
-5.022964	ALLEGATIONS	-0.2636962
-4.721934	ALLEN	-0.3810336
-4.721934	ALLIANCE	-0.2647913
-4.545843	ALLIES	-0.205253
-5.022964	ALLISON	-0.2536128
-5.022964	ALLOCATION	-0.2053429
-4.545843	ALLOW	-0.2268998
-3.792515	ALLOWED	-0.6835523
-5.022964	ALLOWS	-0.2650017
-3.560566	ALMOST	-0.2109486
-3.767692	ALONE	-0.849887
-4.420904	ALONG	-0.3305196
-4.721934	ALONGSIDE	-0.2428992
-3.237634	ALREADY	-0.2970203
-5.022964	ALRIGHT	-0.254146
-2.760513	ALSO	-0.1658035
-4.721934	ALTER	-0.2443465
-4.545843	ALTERED	-0.2615599
-5.022964	ALTERNATIVE	-0.2651996
-4.545843	ALTHOUGH	-0.2303268
-5.022964	ALTMAN	-0.2631041
-3.036192	ALWAYS	-0.4885724
-2.753451	AM	-0.5448358
-4.721934	AMATEUR	-0.2595263
-4.420904	AMAZED	-0.4099157
-3.625024	AMAZING	-0.4079111
-4.177866	AMBITION	-0.3455483
-4.545843	AMBITIONS	-0.1950857
-4.420904	AMBITIOUS	-0.3537128
-5.022964	AMBULANCE	-0.2053429
-5.022964	AMBUSH	-0.2053429
-5.022964	AMENDED	-0.2053429
-5.022964	AMENDMENT	-0.2631041
-5.022964	AMISS	-0.2053429
-4.545843	AMNESTY	-0.2796282
-3.981571	AMONG	-0.3936535
-5.022964	AMONGST	-0.2444113
-3.792515	AMOUNT	-0.5128819
-5.022964	AMPLE	-0.2655047
-4.545843	AMUSED	-0.4210849
-2.524654	AN	-0.5150728
-5.022964	ANALYSIS	-0.2536128
-4.721934	ANALYST	-0.3327638
-4.068722	ANALYSTS	-0.2220051
-2.209383	AND	-0.254305
-4.323994	ANDERSON	-0.1695546
-4.721934	ANDREW	-0.2655747
-4.721934	ANDY	-0.1959522
-5.022964	ANGEL	-0.2053429
-4.323994	ANGER	-0.2480806
-5.022964	ANGINA	-0.2053429
-5.022964	ANGOLA	-0.2574535
-4.721934	ANGRILY	-0.3327638
-4.119874	ANGRY	-0.3914962
-4.545843	ANIMAL	-0.4210849
-4.721934	ANIMALS	-0.3327638
-5.022964	ANKLES	-0.2629259
-4.721934	ANN	-0.3327638
-5.022964	ANNABELLE	-0.2053429
-3.876836	ANNOUNCED	-0.256326
-3.792515	ANNOUNCEMENT	-0.3705546
-5.022964	ANNOUNCEMENTS	-0.2053429
-5.022964	ANNOYED	-0.2053429
-4.545843	ANNOYING	-0.1984308
-4.545843	ANNUAL	-0.2654552
-3.210051	ANOTHER	-0.2383268
-3.454762	ANSWER	-0.7423508
-5.022964	ANSWERED	-0.2053429
-4.420904	ANSWERS	-0.3524923
-5.022964	ANTHRAX	-0.2053429
-5.022964	ANTI	-0.2656077
-4.721934	ANXIOUS	-0.252557
-2.883085	ANY	-0.2851471
-4.545843	ANYMORE	-0.285936
-3.466662	ANYONE	-0.5176282
-3.223624	ANYTHING	-0.3013194
-3.818844	ANYWAY	-0.7498715
-3.943783	ANYWHERE	-0.4181763
-4.068722	APART	-0.4116333
-5.022964	APARTMENT	-0.2655047
-4.545843	APPALLED	-0.3434621
-4.323994	APPALLING	-0.2005749
-4.244813	APPARENTLY	-0.5471984
-3.607991	APPEAL	-0.4933369
-4.177866	APPEALED	-0.4613712
-4.177866	APPEALING	-0.4190277
-3.818844	APPEAR	-0.3706207
-4.721934	APPEARANCE	-0.2627145
-4.068722	APPEARED	-0.3036394
-4.068722	APPEARS	-0.6032569
-5.022964	APPLAUDED	-0.2643907
-4.721934	APPLICANTS	-0.3327638
-4.721934	APPLIED	-0.3889477
-4.420904	APPLY	-0.2477057
-5.022964	APPLYING	-0.2053429
-4.323994	APPOINTED	-0.2028941
-5.022964	APPOINTING	-0.2655541
-3.909021	APPOINTMENT	-0.3564625
-5.022964	APPOINTMENTS	-0.2648284
-3.767692	APPROACH	-0.6186928
-5.022964	APPROACHED	-0.2053429
-5.022964	APPROACHING	-0.2655912
-4.323994	APPROPRIATE	-0.2476268
-4.420904	APPROVAL	-0.2398149
-5.022964	APPROVALS	-0.2641676
-4.721934	APPROVE	-0.2419389
-4.545843	APPROVED	-0.4210849
-4.721934	APRIL	-0.3327638
-5.022964	ARABIA	-0.2053429
-5.022964	ARABS	-0.2053429
-4.721934	ARAFAT	-0.3327638
-5.022964	ARC	-0.2636631
-4.323994	ARCH	-0.5203956
-4.721934	ARCHAIC	-0.3327638
-4.721934	ARCHER	-0.3810336
-5.022964	ARCHITECT	-0.2053429
-5.022964	ARCHITECTS	-0.2053429
-2.118249	ARE	-0.4918272
-3.680542	AREA	-1.130839
-4.022964	AREAS	-0.3525058
-4.721934	AREN'T	-0.2045756
-4.420904	ARGUE	-0.354065
-4.721934	ARGUED	-0.1995306
-5.022964	ARGUES	-0.2605611
-5.022964	ARGUING	-0.2656118
-4.177866	ARGUMENT	-0.4729162
-4.721934	ARGUMENTS	-0.2031367
-5.022964	ARISE	-0.2645848
-4.721934	ARISES	-0.2654387
-4.420904	ARISTOTLE	-0.6239815
-4.721934	ARM	-0.1959522
-3.981571	ARMY	-0.411335
-3.744211	AROUND	-0.2776344
-4.721934	ARRANGED	-0.3327638
-5.022964	ARRANGEMENT	-0.2624531
-5.022964	ARREST	-0.2053429
-4.244813	ARRESTED	-0.2942172
-4.244813	ARRIVAL	-0.2905911
-4.068722	ARRIVED	-0.3586107
-4.420904	ARROGANCE	-0.3263179
-5.022964	ARROGANT	-0.2053429
-4.721934	ARROW	-0.1959522
-4.545843	ARSENAL	-0.2610609
-3.943783	ART	-0.4082969
-4.545843	ARTICLE	-0.2721929
-4.545843	ARTIST	-0.2829199
-4.545843	ARTISTS	-0.252213
-4.420904	ARTS	-0.2641934
-2.569646	AS	-0.5188292
-4.323994	ASHAMED	-0.3771293
-5.022964	ASIDE	-0.2053429
-3.909021	ASK	-0.2317801
-3.531603	ASKED	-0.4793417
-4.420904	ASKING	-0.2983005
-4.545843	ASPECT	-0.33241
-4.721934	ASPECTS	-0.3874315
-5.022964	ASSASSIN	-0.2053429
-5.022964	ASSAULT	-0.2600648
-4.721934	ASSAULTED	-0.2053288
-5.022964	ASSAULTS	-0.2053429
-4.721934	ASSEMBLY	-0.2649398
-5.022964	ASSERTION	-0.2053429
-5.022964	ASSESS	-0.2444113
-4.721934	ASSESSMENT	-0.1915241
-4.721934	ASSET	-0.2052767
-4.545843	ASSETS	-0.2830295
-5.022964	ASSIGNMENT	-0.2053429
-4.721934	ASSISTANCE	-0.1992811
-4.721934	ASSUMED	-0.3327638
-4.721934	ASSUMPTION	-0.1995306
-5.022964	ASSURE	-0.2637334
-4.721934	ASSURED	-0.1995306
-5.022964	ASTON	-0.2656118
-4.420904	ASTONISHED	-0.300501
-5.022964	ASTOUNDING	-0.2053429
-4.323994	ASYLUM	-0.3697729
-2.436377	AT	-0.6336321
-6.5804	ATALL
-5.022964	ATHENS	-0.2053429
-4.721934	ATHLETE	-0.3327638
-4.545843	ATHLETES	-0.2796282
-4.420904	ATHLETICS	-0.318945
-4.119874	ATMOSPHERE	-0.3141189
-5.022964	ATROCIOUS	-0.2053429
-4.721934	ATTACHMENT	-0.3928431
-3.744211	ATTACK	-0.6221544
-4.721934	ATTACKED	-0.2022511
-4.545843	ATTACKER	-0.343661
-5.022964	ATTACKING	-0.2654387
-4.721934	ATTACKS	-0.2023607
-4.244813	ATTEMPT	-0.2753057
-5.022964	ATTEMPTED	-0.2655829
-4.721934	ATTEMPTING	-0.3827326
-5.022964	ATTEMPTS	-0.2640229
-4.420904	ATTEND	-0.233189
-4.721934	ATTENDANCE	-0.2519751
-4.721934	ATTENDED	-0.2638741
-5.022964	ATTENDING	-0.2444113
-3.981571	ATTENTION	-0.4123107
-3.943783	ATTITUDE	-0.2687804
-4.545843	ATTITUDES	-0.2741525
-5.022964	ATTORNEY	-0.2630212
-4.177866	ATTRACTED	-0.1877458
-5.022964	ATTRACTING	-0.2655953
-4.420904	ATTRACTION	-0.3516082
-4.721934	ATTRACTIVE	-0.2655253
-5.022964	ATTRITION	-0.2536128
-4.420904	AUCTION	-0.2578501
-5.022964	AUDACIOUS	-0.2655294
-5.022964	AUDIBLE	-0.2053429
-3.846873	AUDIENCE	-0.3096776
-4.244813	AUDIENCES	-0.2258254
-5.022964	AUDIO	-0.2656118
-5.022964	AUDIT	-0.2655994
-4.545843	AUDITION	-0.198017
-5.022964	AUDITORS	-0.2624531
-4.323994	AUGUST	-0.4641146
-5.022964	AUGUSTA	-0.2654676
-4.545843	AUSTRALIA	-0.2721929
-4.721934	AUSTRIA	-0.3327638
-5.022964	AUTHORITIES	-0.2612565
-4.721934	AUTHORITY	-0.3327638
-5.022964	AUTHORS	-0.2053429
-4.177866	AUTUMN	-0.46049
-4.545843	AVAIL	-0.4210849
-4.721934	AVAILABLE	-0.2006419
-5.022964	AVALANCHE	-0.2536128
-4.244813	AVERAGE	-0.2765001
-4.721934	AVERTED	-0.2602901
-4.244813	AVOID	-0.2995512
-4.545843	AVOIDED	-0.2801993
-5.022964	AWAIT	-0.2537313
-4.420904	AWAITING	-0.2519623
-5.022964	AWAITS	-0.2053429
-4.022964	AWARD	-0.3157325
-5.022964	AWARDED	-0.2537313
-4.177866	AWARDS	-0.3043093
-4.068722	AWARE	-0.6080118
-4.721934	AWARENESS	-0.1989594
-3.274776	AWAY	-0.9342187
-4.177866	AWESOME	-0.6525176
-3.846873	AWFUL	-1.141358
-5.022964	AWFULLY	-0.2648325
-5.022964	AXIS	-0.2655376
-5.022964	AYE	-0.2633568
-4.545843	AYR	-0.2859975
-4.420904	AYRSHIRE	-0.5640465
-5.022964	B	-0.2053429
-4.721934	BA	-0.2044002
-4.177866	BABY	-0.2624132
-2.89263	BACK	-0.6393785
-5.022964	BACKED	-0.2643907
-5.022964	BACKFIRE	-0.2053429
-4.177866	BACKGROUND	-0.3531255
-4.323994	BACKING	-0.2531424
-4.721934	BACKWARDS	-0.3327638
-5.022964	BACKYARD	-0.2053429
-5.022964	BACTERIUM	-0.2053429
-3.379512	BAD	-0.5974814
-3.943783	BADLY	-0.3157605
-5.022964	BADMINTON	-0.2053429
-4.420904	BAGS	-0.3532174
-3.876836	BALANCE	-0.7626655
-4.545843	BALANCED	-0.4210849
-5.022964	BALANCING	-0.2655129
-4.721934	BALKANS	-0.3327638
-3.909021	BALL	-0.292651
-4.420904	BALLET	-0.5640465
-5.022964	BALLOT	-0.2053429
-5.022964	BALLOTED	-0.2630212
-4.545843	BAN	-0.2830295
-3.909021	BAND	-0.3710636
-5.022964	BANDS	-0.2655623
-3.818844	BANK	-0.3268652
-5.022964	BANKER	-0.2053429
-5.022964	BANKERS	-0.2603443
-4.177866	BANKING	-0.2363161
-4.545843	BANKS	-0.1964693
-4.420904	BANNED	-0.3551245
-4.721934	BAR	-0.3327638
-5.022964	BARBER	-0.2631041
-5.022964	BARE	-0.2053429
-5.022964	BARELY	-0.2537313
-5.022964	BARGAIN	-0.2053429
-4.721934	BARNETT	-0.3930162
-5.022964	BARRIER	-0.2553118
-4.721934	BARRIERS	-0.3327638
-4.323994	BARRY	-0.2482191
-4.545843	BASE	-0.1924172
-4.177866	BASED	-0.5490435
-5.022964	BASIC	-0.2655582
-4.420904	BASICALLY	-0.2344933
-5.022964	BASICS	-0.2600106
-4.323994	BASIS	-0.2344868
-5.022964	BASKETBALL	-0.2053429
-5.022964	BASS	-0.2629259
-4.721934	BASTARD	-0.3327638
-4.721934	BASTARDS	-0.3327638
-5.022964	BATH	-0.2629259
-5.022964	BATON	-0.2536128
-3.792515	BATTLE	-0.2268686
-4.721934	BAXTER	-0.2646757
-2.013088	BE	-0.2983155
-5.022964	BEACH	-0.2655788
-4.721934	BEAR	-0.1808912
-3.981571	BEAT	-0.2419426
-3.943783	BEATEN	-0.3659052
-5.022964	BEATING	-0.2647954
-3.818844	BEAUTIFUL	-0.2830628
-4.545843	BEAUTY	-0.1868578
-3.767692	BECAME	-0.5896189
-3.443181	BECAUSE	-0.4762999
-3.661236	BECOME	-0.5531836
-4.545843	BECOMES	-0.3125923
-4.244813	BECOMING	-0.5947585
-4.545843	BED	-0.4210849
-5.022964	BEDROOM	-0.2053429
-4.721934	BEDSIDE	-0.2051252
-4.721934	BEEF	-0.3810336
-2.306961	BEEN	-0.3382356
-5.022964	BEETHOVEN	-0.2053429
-3.216784	BEFORE	-0.6256061
-4.022964	BEGAN	-0.3096314
-3.767692	BEGIN	-0.3344741
-5.022964	BEGINNERS	-0.2053429
-3.680542	BEGINNING	-0.8630337
-4.244813	BEGINS	-0.231617
-4.177866	BEGUN	-0.4657165
-4.721934	BEHALF	-0.198897
-4.721934	BEHAVED	-0.1989594
-4.022964	BEHAVIOUR	-0.2901929
-3.680542	BEHIND	-0.4222498
-6.5804	BEI
-3.142151	BEING	-0.2267306
-4.721934	BEINGS	-0.201526
-6.5804	BEIT
-5.022964	BELFAST	-0.2655664
-5.022964	BELGIUM	-0.2053429
-4.323994	BELIEF	-0.6648241
-5.022964	BELIEFS	-0.2053429
-3.098685	BELIEVE	-0.6422006
-3.575806	BELIEVED	-0.4617634
-4.721934	BELIEVER	-0.2051252
-4.177866	BELIEVES	-0.3062595
-4.721934	BELIEVING	-0.3874857
-5.022964	BELLY	-0.2053429
-5.022964	BELONGS	-0.2553118
-5.022964	BELOVED	-0.265587
-5.022964	BEMUSED	-0.2053429
-5.022964	BENCH	-0.2053429
-4.721934	BENCHES	-0.3327638
-4.068722	BENEFIT	-0.2857741
-4.323994	BENEFITS	-0.223496
-4.721934	BEREAVEMENT	-0.3327638
-4.721934	BERLIN	-0.3327638
-5.022964	BESIDE	-0.2655541
-3.545843	BEST	-0.4042336
-4.545843	BET	-0.2830295
-4.721934	BETRAYAL	-0.198897
-5.022964	BETRAYED	-0.2053429
-3.369752	BETTER	-0.6489006
-3.680542	BETWEEN	-0.4058681
-5.022964	BEVAN	-0.2053429
-5.022964	BEWILDERED	-0.2629259
-3.721934	BEYOND	-0.6724468
-4.068722	BID	-0.2961153
-4.721934	BIDDER	-0.1915241
-3.098685	BIG	-0.3043168
-4.244813	BIGGER	-0.3032471
-3.981571	BIGGEST	-0.3124366
-5.022964	BIGOT	-0.2053429
-4.721934	BIGOTRY	-0.3327638
-5.022964	BIKE	-0.2053429
-4.068722	BILL	-0.240002
-5.022964	BILLIE	-0.2574535
-5.022964	BILLS	-0.2053429
-4.420904	BILLY	-0.2654469
-4.244813	BIN	-0.547256
-5.022964	BINDING	-0.2053429
-5.022964	BIRDIE	-0.2655088
-5.022964	BIRTH	-0.2053429
-4.420904	BIRTHDAY	-0.2524466
-5.022964	BIRTHDAYS	-0.2622955
-5.022964	BISCUIT	-0.2053429
-5.022964	BISCUITS	-0.2053429
-3.282602	BIT	-0.6525885
-5.022964	BITS	-0.2629259
-4.545843	BITTER	-0.4210849
-4.721934	BITTERLY	-0.2655912
-5.022964	BITTERNESS	-0.2642874
-4.420904	BIZARRE	-0.5640465
-4.323994	BLACK	-0.3090779
-5.022964	BLACKBURN	-0.2053429
-5.022964	BLACKENED	-0.2053429
-5.022964	BLACKOUT	-0.2650965
-3.700745	BLAIR	-0.2505437
-4.545843	BLAIR'S	-0.2654263
-4.022964	BLAME	-0.3891861
-4.244813	BLAMED	-0.253393
-4.721934	BLAMING	-0.393012
-5.022964	BLAST	-0.2053429
-5.022964	BLESSING	-0.2053429
-5.022964	BLEW	-0.2649315
-5.022964	BLIND	-0.2053429
-5.022964	BLOCK	-0.2600106
-5.022964	BLOCKS	-0.2053429
-4.022964	BLOOD	-0.3250774
-5.022964	BLOODY	-0.2656077
-4.323994	BLOW	-0.6648241
-4.420904	BLOWN	-0.6237135
-4.119874	BLUE	-0.4792779
-5.022964	BLUEPRINT	-0.2615269
-5.022964	BLUNT	-0.2656118
-3.517814	BOARD	-0.5868396
-4.721934	BOARDING	-0.3929296
-4.420904	BOAT	-0.2518465
-5.022964	BOATS	-0.2629259
-4.420904	BOB	-0.3327638
-4.420904	BOBBY	-0.3930162
-4.177866	BODIES	-0.3040563
-3.744211	BODY	-0.3164746
-4.545843	BOILING	-0.481329
-4.721934	BOMB	-0.3327638
-5.022964	BOMBARDMENT	-0.2574535
-4.721934	BOMBER	-0.3848744
-5.022964	BOMBERS	-0.2053429
-4.323994	BOMBING	-0.1885091
-5.022964	BOMBSHELL	-0.2053429
-5.022964	BONNIE	-0.2053429
-4.323994	BONUS	-0.2967874
-3.981571	BOOK	-0.9304333
-5.022964	BOOKED	-0.2615269
-5.022964	BOOKIES	-0.2612565
-5.022964	BOOKING	-0.2053429
-5.022964	BOOKINGS	-0.2053429
-4.545843	BOOKS	-0.2796282
-5.022964	BOOKSHOPS	-0.2053429
-4.022964	BOOST	-0.6601229
-5.022964	BORDER	-0.2053429
-5.022964	BORDERER	-0.2053429
-4.244813	BORDERS	-0.3433299
-4.119874	BORN	-0.3655482
-5.022964	BORROWING	-0.2655582
-5.022964	BOSNIA	-0.2053429
-4.545843	BOSS	-0.4210849
-3.252112	BOTH	-0.3491917
-4.244813	BOTHER	-0.4568849
-5.022964	BOTTLE	-0.2053429
-5.022964	BOTTLING	-0.2536128
-4.244813	BOTTOM	-0.4666486
-4.420904	BOUGHT	-0.2254573
-4.323994	BOUND	-0.7147929
-5.022964	BOUNDARIES	-0.2053429
-5.022964	BOUT	-0.2600106
-4.068722	BOW	-0.4783777
-4.323994	BOWS	-0.6648241
-4.545843	BOX	-0.1988297
-5.022964	BOXER	-0.2607361
-4.545843	BOXING	-0.2052672
-4.119874	BOY	-0.2649404
-4.068722	BOYS	-0.3929061
-5.022964	BRADY	-0.2654511
-5.022964	BRANCH	-0.2600648
-5.022964	BRANCHES	-0.2655047
-4.323994	BRAND	-0.2945919
-5.022964	BRAVADO	-0.2053429
-4.244813	BRAVE	-0.4210092
-5.022964	BRAZIL	-0.2053429
-4.721934	BREACH	-0.3874315
-5.022964	BREACHING	-0.2605611
-5.022964	BREADWINNER	-0.2653852
-3.876836	BREAK	-0.3822608
-5.022964	BREAKAWAY	-0.2053429
-4.721934	BREAKDOWN	-0.1959522
-4.420904	BREAKING	-0.2431248
-4.420904	BREAKTHROUGH	-0.5640465
-4.420904	BREATH	-0.2610381
-5.022964	BREATHTAKING	-0.2653769
-5.022964	BREEDING	-0.2656077
-4.323994	BRIAN	-0.5168421
-4.244813	BRIDGE	-0.5851389
-5.022964	BRIEFLY	-0.2655335
-5.022964	BRIGADES	-0.2655788
-5.022964	BRIGHT	-0.2629259
-4.721934	BRIGHTER	-0.2655912
-5.022964	BRIGHTON	-0.2650388
-4.323994	BRILLIANT	-0.4616858
-3.943783	BRING	-0.2015737
-5.022964	BRINGING	-0.2647541
-4.323994	BRINGS	-0.5242837
-4.545843	BRINK	-0.2795658
-3.607991	BRITAIN	-0.616574
-4.721934	BRITAIN'S	-0.2654594
-3.531603	BRITISH	-0.2471952
-4.721934	BRITON	-0.2614021
-5.022964	BRITTLE	-0.2629259
-5.022964	BRITTON	-0.2053429
-5.022964	BROADCAST	-0.2053429
-5.022964	BROADCASTING	-0.2624531
-4.721934	BROADLY	-0.2654758
-5.022964	BROCHURE	-0.2053429
-4.420904	BROKE	-0.1796778
-4.022964	BROKEN	-0.202556
-5.022964	BRONZE	-0.2053429
-4.721934	BROOMFIELD	-0.2469516
-3.981571	BROTHER	-0.3801928
-5.022964	BROTHER'S	-0.2655994
-4.721934	BROTHERS	-0.2022511
-3.876836	BROUGHT	-0.3247294
-3.981571	BROWN	-0.3020268
-5.022964	BRUCE	-0.2536128
-5.022964	BRUNT	-0.2600106
-4.721934	BRUSSELS	-0.3327638
-5.022964	BUBBLES	-0.2053429
-5.022964	BUCKET	-0.2053429
-5.022964	BUCKINGHAM	-0.2656035
-4.177866	BUDGET	-0.2382286
-5.022964	BUG	-0.2053429
-4.068722	BUILD	-0.2639055
-3.943783	BUILDING	-0.1627747
-4.545843	BUILDINGS	-0.1950857
-4.323994	BUILT	-0.2367226
-5.022964	BULK	-0.2600106
-5.022964	BULLY	-0.2053429
-4.721934	BUNCH	-0.3874315
-5.022964	BUNKER	-0.2053429
-5.022964	BUNKERS	-0.2053429
-5.022964	BUOYANT	-0.2053429
-5.022964	BURGER	-0.2655994
-5.022964	BURIAL	-0.2655211
-4.420904	BURIED	-0.2611668
-5.022964	BURNING	-0.265587
-5.022964	BURRELL	-0.2574535
-4.244813	BUS	-0.2859972
-5.022964	BUSES	-0.2053429
-4.177866	BUSH	-0.1818722
-3.274776	BUSINESS	-0.5105315
-4.323994	BUSINESSES	-0.2249991
-5.022964	BUSINESSLIKE	-0.2053429
-4.177866	BUSY	-0.3524999
-2.284977	BUT	-0.6463604
-4.721934	BUTCHER	-0.2510304
-3.909021	BUY	-0.2030871
-4.545843	BUYER	-0.2795658
-5.022964	BUYING	-0.2646922
-5.022964	BUZZ	-0.2053429
-2.550208	BY	-0.3814378
-4.721934	BYERS	-0.3327638
-5.022964	BYSTANDERS	-0.2636962
-6.5804	C
-4.177866	CABINET	-0.2173762
-5.022964	CABLE	-0.2656118
-5.022964	CAFE	-0.2053429
-5.022964	CAKE	-0.2053429
-4.721934	CALDERWOOD	-0.2559777
-5.022964	CALIBRE	-0.2053429
-3.818844	CALL	-0.5430264
-3.700745	CALLED	-0.204769
-5.022964	CALLING	-0.2615269
-5.022964	CALLOUS	-0.2053429
-4.323994	CALLS	-0.3146946
-4.721934	CALM	-0.3926782
-4.721934	CALVIN	-0.3848744
-3.274776	CAME	-0.3650805
-4.545843	CAMERA	-0.4210849
-5.022964	CAMERON	-0.2574535
-3.876836	CAMPAIGN	-0.374253
-5.022964	CAMPAIGNERS	-0.2655294
-4.721934	CAMPAIGNING	-0.257126
-4.545843	CAMPBELL	-0.2548264
-2.60136	CAN	-0.5336349
-3.171706	CAN'T	-0.4888355
-5.022964	CANADA	-0.2053429
-5.022964	CANCELLED	-0.2053429
-4.420904	CANCER	-0.3562477
-5.022964	CANDID	-0.2053429
-4.545843	CANDIDATE	-0.2813107
-4.721934	CANDIDATES	-0.2621003
-4.545843	CANNABIS	-0.4210849
-5.022964	CANNES	-0.2053429
-3.478896	CANNOT	-0.32009
-5.022964	CAP	-0.2053429
-4.177866	CAPABLE	-0.4713714
-5.022964	CAPACITY	-0.2053429
-4.323994	CAPITAL	-0.2033174
-3.981571	CAPTAIN	-0.3746325
-5.022964	CAPTAINCY	-0.2624531
-5.022964	CAPTORS	-0.2053429
-5.022964	CAPTURE	-0.2629259
-3.981571	CAR	-0.3159945
-4.721934	CARCASSES	-0.3327638
-4.545843	CARD	-0.276621
-4.721934	CARDS	-0.3327638
-3.909021	CARE	-0.285329
-3.575806	CAREER	-0.8989902
-4.244813	CAREFUL	-0.4070273
-4.420904	CAREFULLY	-0.2643023
-4.721934	CARES	-0.2038164
-5.022964	CARLO	-0.2053429
-5.022964	CARLTON	-0.2648614
-5.022964	CARNIVAL	-0.2053429
-5.022964	CAROLINE	-0.2053429
-5.022964	CARPET	-0.2053429
-4.068722	CARRIED	-0.3595068
-5.022964	CARRIES	-0.2537313
-4.177866	CARRY	-0.3179735
-5.022964	CARRYING	-0.2650099
-5.022964	CARS	-0.2622955
-3.153733	CASE	-0.4377455
-4.022964	CASES	-0.207281
-4.177866	CASH	-0.2441732
-5.022964	CASINO	-0.2053429
-5.022964	CASSETTE	-0.2053429
-5.022964	CAST	-0.2653852
-4.545843	CASTING	-0.1848681
-5.022964	CASTLE	-0.2053429
-4.022964	CASUALTIES	-0.3763939
-5.022964	CASUALTY	-0.2653151
-5.022964	CATALOGUE	-0.2600106
-5.022964	CATALYST	-0.2615269
-5.022964	CATASTROPHE	-0.2615269
-4.545843	CATCH	-0.2852776
-5.022964	CATCHING	-0.2649769
-4.420904	CATHOLIC	-0.4164504
-5.022964	CATTLE	-0.2053429
-5.022964	CATWALK	-0.2053429
-4.119874	CAUGHT	-0.336387
-3.792515	CAUSE	-0.3746229
-4.119874	CAUSED	-0.3483952
-3.943783	CAUSES	-0.9986931
-5.022964	CAUSING	-0.2656035
-4.721934	CAUTION	-0.3327638
-4.323994	CAUTIOUS	-0.3174938
-5.022964	CAVEAT	-0.2053429
-5.022964	CEILIDH	-0.2053429
-4.721934	CEILING	-0.3327638
-4.323994	CELEBRATE	-0.2729053
-5.022964	CELL	-0.2053429
-5.022964	CELLARS	-0.2053429
-3.767692	CELTIC	-0.2616484
-4.244813	CENTRAL	-0.2928131
-3.981571	CENTRE	-0.3083998
-4.721934	CENTRES	-0.2031367
-4.721934	CENTURIES	-0.392175
-4.420904	CENTURY	-0.353327
-3.981571	CERTAIN	-0.4073893
-3.171706	CERTAINLY	-0.1895473
-4.022964	CHAIRMAN	-0.2306619
-3.607991	CHALLENGE	-0.8251226
-4.721934	CHALLENGED	-0.2039351
-5.022964	CHALLENGER	-0.265245
-4.721934	CHALLENGES	-0.2052483
-4.323994	CHALLENGING	-0.1994922
-5.022964	CHAMBER	-0.2053429
-5.022964	CHAMBERS	-0.2647954
-4.721934	CHAMPAGNE	-0.2572856
-4.545843	CHAMPION	-0.2721929
-4.244813	CHAMPIONS	-0.4724644
-4.244813	CHAMPIONSHIP	-0.4072661
-4.545843	CHAMPIONSHIPS	-0.2823762
-3.443181	CHANCE	-0.826842
-4.323994	CHANCELLOR	-0.2313472
-5.022964	CHANCELLOR'S	-0.2655912
-3.792515	CHANCES	-0.7230617
-3.083445	CHANGE	-0.5128152
-3.399715	CHANGED	-0.4755571
-3.661236	CHANGES	-0.4454553
-3.981571	CHANGING	-0.2924299
-5.022964	CHANNEL	-0.2536128
-4.545843	CHAOS	-0.4210849
-4.721934	CHAOTIC	-0.2022511
-4.721934	CHAPTER	-0.3903468
-4.022964	CHARACTER	-0.4475976
-4.244813	CHARACTERS	-0.2352135
-3.981571	CHARGE	-0.7601268
-4.022964	CHARGED	-0.5447218
-4.177866	CHARGES	-0.2723145
-4.420904	CHARITY	-0.2620255
-4.420904	CHARLES	-0.3246039
-5.022964	CHARLIE	-0.2655664
-5.022964	CHARM	-0.2053429
-4.721934	CHAT	-0.3327638
-5.022964	CHEAP	-0.2053429
-5.022964	CHECHENS	-0.2053429
-4.420904	CHECK	-0.1956474
-4.721934	CHEESE	-0.3903468
-5.022964	CHELSEA	-0.2574535
-5.022964	CHEMISTRY	-0.2053429
-4.323994	CHIEF	-0.3120756
-5.022964	CHIEFS	-0.2636962
-3.792515	CHILD	-0.5276878
-5.022964	CHILDBIRTH	-0.2053429
-4.244813	CHILDHOOD	-0.4661368
-3.389496	CHILDREN	-0.7159911
-5.022964	CHILL	-0.2053429
-4.545843	CHILLING	-0.2052861
-5.022964	CHINA	-0.2053429
-5.022964	CHIRAC	-0.2444113
-5.022964	CHISHOLM	-0.2647954
-3.625024	CHOICE	-0.6863655
-5.022964	CHOICES	-0.2655994
-5.022964	CHOIR	-0.2053429
-4.721934	CHOOSE	-0.3327638
-4.244813	CHOSE	-0.500825
-4.119874	CHOSEN	-0.2127765
-4.323994	CHRIS	-0.3523238
-5.022964	CHRISTIANS	-0.2600648
-4.721934	CHRISTINA	-0.3327638
-4.244813	CHRISTMAS	-0.5325979
-4.244813	CHURCH	-0.2700576
-5.022964	CIGARETTE	-0.2053429
-4.420904	CINEMA	-0.250539
-4.420904	CIRCLE	-0.3544787
-5.022964	CIRCUMSTANCES	-0.2612565
-5.022964	CITIES	-0.2053429
-4.545843	CITIZENS	-0.2859408
-3.545843	CITY	-0.5612893
-5.022964	CIVIC	-0.2655829
-4.323994	CIVIL	-0.2626647
-5.022964	CIVILIANS	-0.2053429
-4.545843	CIVILISED	-0.2859502
-4.119874	CLAIM	-0.2951552
-4.177866	CLAIMED	-0.2310237
-4.721934	CLAIMING	-0.2655582
-4.323994	CLAIMS	-0.319415
-4.545843	CLARIFY	-0.3242055
-4.545843	CLARITY	-0.1848681
-4.545843	CLARK	-0.3258882
-5.022964	CLARKE	-0.2536128
-4.119874	CLASS	-0.4124447
-4.545843	CLASSES	-0.2010435
-4.545843	CLASSIC	-0.2859266
-4.420904	CLASSICAL	-0.2051725
-4.420904	CLEAN	-0.2643496
-5.022964	CLEANER	-0.2053429
-5.022964	CLEANING	-0.265587
-3.399715	CLEAR	-0.6730011
-4.721934	CLEARED	-0.2046088
-5.022964	CLEARER	-0.2053429
-3.466662	CLEARLY	-0.2530322
-5.022964	CLERK	-0.2536128
-4.323994	CLEVER	-0.2424001
-5.022964	CLIENTS	-0.2053429
-4.545843	CLIMATE	-0.2566174
-5.022964	CLIMAX	-0.2600106
-5.022964	CLIMB	-0.2053429
-5.022964	CLINIC	-0.2053429
-5.022964	CLINICAL	-0.2656118
-4.545843	CLINTON	-0.2448004
-3.545843	CLOSE	-0.5448798
-3.846873	CLOSED	-0.3552697
-4.545843	CLOSELY	-0.2030844
-4.545843	CLOSING	-0.2849646
-4.721934	CLOSURE	-0.2478494
-3.369752	CLUB	-0.6179846
-4.721934	CLUBHOUSE	-0.1959522
-4.323994	CLUBS	-0.1944553
-4.420904	CLUE	-0.5640465
-5.022964	CLUTCHING	-0.2656077
-4.545843	CLYDESDALE	-0.4812919
-4.119874	COACH	-0.2553199
-4.420904	COACHES	-0.355831
-4.721934	COACHING	-0.2053051
-5.022964	COALITION	-0.2053429
-4.721934	COAST	-0.2052625
-5.022964	CODE	-0.2053429
-5.022964	COE	-0.2536128
-5.022964	COFFINS	-0.2053429
-5.022964	COHESION	-0.2053429
-4.323994	COLD	-0.4646262
-4.420904	COLIN	-0.2527437
-5.022964	COLLABORATION	-0.2536128
-5.022964	COLLAPSE	-0.2053429
-4.545843	COLLAPSED	-0.2829199
-5.022964	COLLAPSING	-0.2053429
-4.244813	COLLEAGUES	-0.4870078
-4.721934	COLLECTING	-0.2043527
-5.022964	COLLECTION	-0.2656077
-5.022964	COLLECTIVE	-0.2655912
-5.022964	COLLEGE	-0.2053429
-5.022964	COLLIES	-0.2053429
-4.545843	COLLISION	-0.344067
-5.022964	COLONEL	-0.2642874
-4.244813	COLORED	-0.6066319
-5.022964	COLORS	-0.2053429
-4.545843	COLOUR	-0.2449171
-4.721934	COLOURFUL	-0.2052625
-5.022964	COLOURS	-0.2622955
-5.022964	COMA	-0.2053429
-5.022964	COMBAT	-0.2053429
-5.022964	COMBINATION	-0.2600106
-2.943783	COME	-0.5965981
-5.022964	COMEDIAN	-0.2053429
-4.545843	COMEDY	-0.1915143
-3.792515	COMES	-0.2051241
-5.022964	COMFORTABLE	-0.2600648
-5.022964	COMFORTED	-0.2643907
-5.022964	COMFORTING	-0.2655994
-3.517814	COMING	-0.3287199
-5.022964	COMMANDING	-0.2053429
-5.022964	COMMENDED	-0.2053429
-3.399715	COMMENT	-0.9568336
-4.721934	COMMENTING	-0.2614188
-4.721934	COMMENTS	-0.2031367
-4.323994	COMMERCIAL	-0.2051631
-3.818844	COMMISSION	-0.3579655
-4.721934	COMMISSIONED	-0.2039351
-4.721934	COMMIT	-0.1934837
-3.721934	COMMITMENT	-0.5231695
-4.545843	COMMITMENTS	-0.4210849
-4.068722	COMMITTED	-0.3888387
-3.981571	COMMITTEE	-0.2605847
-4.545843	COMMITTEE'S	-0.2649604
-5.022964	COMMITTEES	-0.2622955
-5.022964	COMMITTING	-0.2656035
-3.909021	COMMON	-0.3706858
-5.022964	COMMONPLACE	-0.2053429
-4.420904	COMMONS	-0.1909668
-5.022964	COMMONWEALTH	-0.2629259
-4.721934	COMMONWEALTHS	-0.3327638
-5.022964	COMMUNAL	-0.265414
-5.022964	COMMUNIST	-0.2645931
-3.846873	COMPANIES	-0.3343938
-5.022964	COMPANION	-0.2574535
-3.341723	COMPANY	-0.3062511
-4.721934	COMPANY'S	-0.2600231
-4.545843	COMPARE	-0.1683349
-5.022964	COMPARING	-0.2648325
-5.022964	COMPELLED	-0.2553118
-4.545843	COMPELLING	-0.2859928
-4.721934	COMPENSATION	-0.3327638
-4.177866	COMPETE	-0.3176843
-5.022964	COMPETED	-0.2600648
-4.721934	COMPETING	-0.261477
-5.022964	COMPILED	-0.2643907
-4.244813	COMPLACENT	-0.4013816
-5.022964	COMPLAIN	-0.2642874
-4.721934	COMPLAINING	-0.2038164
-4.545843	COMPLAINT	-0.4210849
-4.244813	COMPLAINTS	-0.4077783
-3.943783	COMPLETE	-0.2906595
-4.068722	COMPLETED	-0.2415048
-3.531603	COMPLETELY	-0.2781616
-5.022964	COMPLETING	-0.2654634
-4.721934	COMPLETION	-0.2478494
-4.119874	COMPLEX	-0.4157962
-5.022964	COMPLIANCE	-0.2053429
-4.721934	COMPLICATED	-0.3929956
-5.022964	COMPLIMENT	-0.2536128
-4.545843	COMPLY	-0.2837675
-4.545843	COMPOSER	-0.2568234
-4.721934	COMPOSITE	-0.2655212
-4.721934	COMPOSURE	-0.257441
-4.323994	COMPROMISE	-0.2872154
-4.545843	COMPUTER	-0.2031319
-5.022964	CON	-0.2053429
-5.022964	CONCEDED	-0.2053429
-5.022964	CONCEIVED	-0.2600648
-4.177866	CONCENTRATE	-0.4307945
-4.323994	CONCEPT	-0.2247573
-3.491485	CONCERN	-0.7342243
-3.625024	CONCERNED	-0.337299
-4.068722	CONCERNS	-0.393523
-4.323994	CONCERT	-0.3835279
-4.721934	CONCERTED	-0.2654099
-5.022964	CONCERTO	-0.2053429
-5.022964	CONCERTOS	-0.2053429
-5.022964	CONCESSION	-0.2639237
-5.022964	CONCESSIONS	-0.2639237
-5.022964	CONCLUDE	-0.2053429
-5.022964	CONCLUDING	-0.2444113
-4.119874	CONCLUSION	-0.2767639
-4.721934	CONCLUSIONS	-0.2031367
-4.420904	CONDEMNED	-0.6031149
-3.560566	CONDITION	-0.5152593
-4.119874	CONDITIONS	-0.3777495
-4.420904	CONDUCT	-0.2484182
-4.721934	CONDUCTED	-0.2644155
-5.022964	CONDUCTING	-0.2444113
-5.022964	CONDUCTOR	-0.2648531
-4.721934	CONDUCTORS	-0.2595723
-3.909021	CONFERENCE	-0.3759606
-5.022964	CONFESS	-0.2053429
-4.545843	CONFESSION	-0.2721929
-3.4319	CONFIDENCE	-0.5253806
-3.700745	CONFIDENT	-0.3894998
-4.545843	CONFINED	-0.4710537
-4.420904	CONFIRM	-0.3900684
-3.818844	CONFIRMED	-0.3237242
-4.721934	CONFIRMS	-0.387982
-4.244813	CONFLICT	-0.2284368
-5.022964	CONFLICTS	-0.2600106
-4.721934	CONFORM	-0.3327638
-5.022964	CONFRONTED	-0.2643907
-4.420904	CONFUSED	-0.3532174
-4.119874	CONFUSION	-0.3942672
-4.721934	CONGESTION	-0.1989594
-5.022964	CONNECTED	-0.2053429
-4.420904	CONNECTION	-0.354065
-5.022964	CONNECTIONS	-0.2536128
-5.022964	CONNELL	-0.2574535
-4.721934	CONNERY	-0.2046088
-5.022964	CONSCIENCE	-0.2536128
-4.420904	CONSCIOUS	-0.2607518
-5.022964	CONSCRIPTS	-0.2053429
-4.721934	CONSENSUS	-0.1915241
-5.022964	CONSENT	-0.2536128
-4.721934	CONSEQUENCE	-0.3874315
-5.022964	CONSEQUENCES	-0.2615269
-4.721934	CONSERVATIVE	-0.2654223
-4.068722	CONSIDER	-0.1901289
-4.244813	CONSIDERABLY	-0.547223
-5.022964	CONSIDERATION	-0.2615269
-3.721934	CONSIDERED	-0.5535771
-5.022964	CONSIGNED	-0.2553118
-4.545843	CONSISTENT	-0.2859266
-5.022964	CONSPICUOUS	-0.2643907
-4.721934	CONSTABLE	-0.2510304
-5.022964	CONSTANT	-0.2655294
-4.721934	CONSTANTLY	-0.2613356
-5.022964	CONSTRUCTED	-0.2553118
-4.244813	CONSTRUCTION	-0.248968
-4.545843	CONSTRUCTIVE	-0.2622871
-5.022964	CONSULAR	-0.2655747
-5.022964	CONSULT	-0.2444113
-5.022964	CONSULTANT	-0.2600648
-4.721934	CONSULTANTS	-0.2051584
-4.721934	CONSULTATION	-0.2030987
-4.545843	CONSULTED	-0.2049594
-4.721934	CONSULTING	-0.2635431
-5.022964	CONSUMED	-0.2643907
-4.119874	CONSUMER	-0.2328435
-4.420904	CONSUMERS	-0.1962857
-4.721934	CONSUMING	-0.3327638
-4.721934	CONSUMPTION	-0.3327638
-4.068722	CONTACT	-0.4944411
-4.177866	CONTACTED	-0.2572507
-5.022964	CONTAIN	-0.2444113
-4.545843	CONTAINED	-0.2027941
-5.022964	CONTEMPLATED	-0.2655747
-4.420904	CONTEMPT	-0.3549014
-5.022964	CONTENDER	-0.2053429
-4.721934	CONTENDERS	-0.1934837
-5.022964	CONTENT	-0.2636631
-4.545843	CONTENTION	-0.2047794
-4.721934	CONTENTIOUS	-0.2050779
-4.323994	CONTEST	-0.3105345
-4.721934	CONTESTED	-0.2439786
-3.981571	CONTEXT	-0.8298084
-3.575806	CONTINUE	-0.6673019
-4.022964	CONTINUED	-0.3668652
-3.909021	CONTINUES	-0.4106896
-3.943783	CONTRACT	-0.3319985
-5.022964	CONTRACTOR	-0.2574535
-4.420904	CONTRACTS	-0.3499257
-4.420904	CONTRARY	-0.1873218
-4.721934	CONTRAST	-0.2637583
-5.022964	CONTRASTING	-0.2652738
-4.545843	CONTRIBUTE	-0.2741525
-5.022964	CONTRIBUTION	-0.2053429
-3.625024	CONTROL	-0.6768377
-4.721934	CONTROLLED	-0.2039351
-5.022964	CONTROLLER	-0.2656118
-5.022964	CONTROLLERS	-0.2655253
-5.022964	CONVENED	-0.2053429
-4.721934	CONVERSION	-0.2047463
-5.022964	CONVERTED	-0.2053429
-4.721934	CONVICTED	-0.2604402
-4.721934	CONVICTION	-0.2006419
-5.022964	CONVICTIONS	-0.2053429
-5.022964	CONVINCE	-0.2444113
-4.323994	CONVINCED	-0.4633698
-4.545843	CONVINCING	-0.2859975
-4.545843	COOK	-0.3335568
-4.721934	COOKING	-0.2484155
-4.721934	COOL	-0.3327638
-5.022964	COOPER	-0.2655912
-5.022964	COP	-0.2650099
-4.177866	COPE	-0.4947054
-4.323994	COPY	-0.3771293
-4.420904	CORE	-0.4107432
-4.420904	CORNER	-0.5640465
-4.721934	CORPORATE	-0.2655582
-4.420904	CORRECT	-0.2574559
-4.721934	CORRECTED	-0.3918116
-5.022964	CORRECTION	-0.2656077
-3.818844	COST	-0.2932965
-4.323994	COSTS	-0.2408007
-2.68252	COULD	-0.6808039
-4.721934	COULD'VE	-0.2654346
-3.5916	COULDN'T	-0.2870647
-3.517814	COUNCIL	-0.3448276
-4.721934	COUNCIL'S	-0.2654635
-4.721934	COUNCILLOR	-0.2649893
-4.721934	COUNCILLORS	-0.201526
-5.022964	COUNCILS	-0.2053429
-5.022964	COUNSEL	-0.2053429
-5.022964	COUNSELLING	-0.2624531
-4.420904	COUNT	-0.3177775
-4.721934	COUNTER	-0.2654882
-5.022964	COUNTERPART	-0.26555
-4.323994	COUNTRIES	-0.3002772
-3.575806	COUNTRY	-0.7267642
-4.721934	COUNTRYMEN	-0.1916609
-4.545843	COUNTRYSIDE	-0.2721929
-4.323994	COUNTS	-0.6648241
-3.642753	COUPLE	-0.6791901
-5.022964	COUPLES	-0.2622955
-4.545843	COURAGE	-0.1957587
-3.216784	COURSE	-0.4421208
-4.721934	COURSES	-0.2415864
-3.531603	COURT	-0.330408
-5.022964	COURTENAY	-0.2654222
-5.022964	COURTESY	-0.2053429
-5.022964	COURTROOM	-0.2053429
-5.022964	COURTS	-0.2053429
-4.177866	COVER	-0.4097254
-4.545843	COVERED	-0.3394927
-5.022964	COVERS	-0.2444113
-4.323994	CRACK	-0.3193817
-5.022964	CRACKING	-0.2655623
-4.721934	CRAIG	-0.3810336
-4.177866	CRASH	-0.5322232
-5.022964	CRAWFORD	-0.2536128
-4.545843	CRAZY	-0.2649522
-4.022964	CREATE	-0.323783
-4.022964	CREATED	-0.2081613
-4.545843	CREATING	-0.2305189
-4.721934	CREATION	-0.2052814
-4.177866	CREATIVE	-0.2020079
-5.022964	CREATOR	-0.2600106
-4.721934	CREDIBLE	-0.2654758
-4.177866	CREDIT	-0.3967281
-4.721934	CREDITORS	-0.2003308
-5.022964	CREST	-0.2053429
-4.420904	CREW	-0.2621241
-4.244813	CRIMINAL	-0.2402526
-5.022964	CRIMINALS	-0.2053429
-3.943783	CRISIS	-0.3162224
-4.244813	CRITERIA	-0.2255491
-4.323994	CRITICAL	-0.1847242
-4.721934	CRITICALLY	-0.2655212
-5.022964	CRITICISE	-0.2053429
-4.323994	CRITICISED	-0.379793
-5.022964	CRITICISM	-0.2053429
-5.022964	CRITICS	-0.2053429
-5.022964	CROPS	-0.2053429
-4.545843	CROSS	-0.2389794
-5.022964	CROSSED	-0.2053429
-5.022964	CROSSFIRE	-0.2053429
-4.545843	CROSSROADS	-0.4210849
-4.244813	CROWD	-0.463192
-5.022964	CROWDS	-0.2053429
-5.022964	CROWN	-0.2656035
-5.022964	CROWNING	-0.2653398
-3.767692	CRUCIAL	-0.3755672
-5.022964	CRUELTY	-0.2536128
-4.721934	CRUNCH	-0.3327638
-4.545843	CRY	-0.3411548
-5.022964	CRYSTAL	-0.2053429
-5.022964	CULL	-0.2053429
-5.022964	CULPABLE	-0.2656118
-3.943783	CULTURE	-0.3280532
-4.721934	CULTURES	-0.2599647
-3.767692	CUP	-0.3621022
-5.022964	CURIOUS	-0.2655953
-4.420904	CURRENCY	-0.2495069
-4.323994	CURRENT	-0.3120921
-3.909021	CURRENTLY	-0.2702417
-5.022964	CURSE	-0.2600106
-5.022964	CURVE	-0.2053429
-5.022964	CUSTODY	-0.2600648
-4.545843	CUSTOMER	-0.3461817
-4.244813	CUSTOMERS	-0.2929926
-3.767692	CUT	-0.3132592
-4.323994	CUTS	-0.2421968
-4.545843	CUTTING	-0.2655788
-4.545843	CYCLE	-0.2859502
-4.721934	CYCLES	-0.3327638
-4.721934	CYCLING	-0.3327638
-4.721934	CYNICAL	-0.2629052
-4.545843	DAD	-0.3258882
-4.420904	DAILY	-0.2654675
-4.721934	DAIRY	-0.2654841
-5.022964	DALY	-0.2631041
-6.5804	DAM
-3.943783	DAMAGE	-0.2438953
-5.022964	DAMAGED	-0.2053429
-4.721934	DAMAGES	-0.2605361
-4.420904	DAMAGING	-0.3280628
-5.022964	DANCE	-0.2053429
-4.721934	DANCER	-0.3327638
-4.721934	DANCERS	-0.2049453
-4.545843	DANCING	-0.3348994
-4.068722	DANGER	-0.3563763
-3.909021	DANGEROUS	-0.331483
-4.721934	DANGERS	-0.260361
-5.022964	DANISH	-0.2655912
-4.721934	DANNY	-0.1915241
-4.420904	DARK	-0.264217
-5.022964	DARLING	-0.2653151
-5.022964	DARRELL	-0.2574535
-4.420904	DATA	-0.2460432
-3.943783	DATE	-0.4772481
-6.5804	DATED
-3.876836	DAUGHTER	-0.3143218
-5.022964	DAUNTING	-0.265587
-4.177866	DAVID	-0.2145376
-5.022964	DAVIES	-0.2553118
-5.022964	DAVIS	-0.2536128
-5.022964	DAWSON	-0.2053429
-3.114479	DAY	-0.5277895
-3.306961	DAYS	-0.5268072
-4.721934	DAYTIME	-0.3327638
-5.022964	DE	-0.2655706
-5.022964	DEACON	-0.2631041
-3.545843	DEAD	-0.610719
-4.420904	DEADLINE	-0.4003749
-4.721934	DEADLY	-0.2654717
-3.341723	DEAL	-0.581136
-4.545843	DEALER	-0.2721929
-5.022964	DEALERS	-0.2053429
-4.721934	DEALING	-0.2633237
-5.022964	DEALS	-0.2053429
-4.721934	DEALT	-0.391084
-3.680542	DEATH	-0.5800459
-3.846873	DEBATE	-0.3416298
-5.022964	DEBATED	-0.2630212
-5.022964	DEBBIE	-0.2655994
-4.420904	DEBT	-0.2524793
-4.545843	DEBUT	-0.1989354
-4.721934	DECADE	-0.2039826
-5.022964	DECADES	-0.2600106
-4.721934	DECEIT	-0.2022511
-4.244813	DECEMBER	-0.399246
-4.420904	DECENT	-0.2640276
-4.545843	DECEPTION	-0.2859644
-4.022964	DECIDE	-0.3581207
-3.625024	DECIDED	-0.5350376
-5.022964	DECIDES	-0.2553118
-5.022964	DECIDING	-0.2654387
-2.958506	DECISION	-0.6379995
-3.700745	DECISIONS	-0.599053
-4.545843	DECISIVE	-0.2859313
-5.022964	DECLARE	-0.2537313
-4.721934	DECLARED	-0.3327638
-5.022964	DECLINE	-0.2053429
-3.607991	DECLINED	-1.205443
-4.721934	DECLINING	-0.26548
-4.545843	DEEP	-0.2651419
-5.022964	DEEPER	-0.2656035
-3.792515	DEEPLY	-0.2751567
-5.022964	DEFAULT	-0.2053429
-4.545843	DEFEAT	-0.331959
-4.545843	DEFEATED	-0.4210849
-5.022964	DEFEATS	-0.2053429
-3.981571	DEFENCE	-0.3197778
-5.022964	DEFENCES	-0.2644444
-4.177866	DEFEND	-0.3198847
-4.244813	DEFENDED	-0.385188
-4.323994	DEFENDER	-0.3108418
-4.545843	DEFENDING	-0.242847
-4.420904	DEFENSIVE	-0.1987288
-5.022964	DEFERRED	-0.2615269
-4.721934	DEFIANCE	-0.3327638
-4.721934	DEFIANT	-0.3327638
-5.022964	DEFICIT	-0.2629259
-5.022964	DEFIES	-0.2444113
-5.022964	DEFINED	-0.2643907
-4.420904	DEFINING	-0.3241959
-4.420904	DEFINITE	-0.265451
-5.022964	DEFLECT	-0.2655706
-4.721934	DEGREE	-0.3327638
-5.022964	DEGREES	-0.2600106
-5.022964	DEJA	-0.2656118
-5.022964	DEJECTED	-0.2053429
-4.420904	DELAY	-0.2367895
-5.022964	DELAYING	-0.2444113
-5.022964	DELICATE	-0.2629259
-5.022964	DELICIOUS	-0.2053429
-4.545843	DELIGHT	-0.4787632
-3.282602	DELIGHTED	-0.8719338
-4.545843	DELIGHTFUL	-0.2550248
-3.909021	DELIVER	-0.3327528
-4.420904	DELIVERED	-0.2384556
-3.981571	DEMAND	-0.4874878
-5.022964	DEMANDED	-0.2553118
-4.545843	DEMANDING	-0.2047083
-4.721934	DEMANDS	-0.2612565
-5.022964	DEMEANING	-0.2053429
-5.022964	DEMEANOUR	-0.2053429
-5.022964	DEMENTED	-0.2655994
-5.022964	DEMISE	-0.2600106
-4.721934	DEMOCRAT	-0.3929832
-4.323994	DEMOCRATS	-0.6648241
-5.022964	DEMOLISHED	-0.2053429
-5.022964	DENIAL	-0.2053429
-3.792515	DENIED	-0.5238278
-5.022964	DENNIS	-0.2574535
-5.022964	DENOUNCED	-0.2643907
-4.721934	DENY	-0.2489551
-5.022964	DENYING	-0.2605611
-4.323994	DEPARTMENT	-0.2836384
-4.721934	DEPARTMENTS	-0.3327638
-4.545843	DEPARTURE	-0.2795658
-4.545843	DEPEND	-0.4787632
-4.721934	DEPENDENT	-0.2629633
-3.846873	DEPENDS	-0.9426013
-5.022964	DEPLETED	-0.2053429
-4.721934	DEPLOYED	-0.2574368
-4.721934	DEPORTED	-0.2041582
-5.022964	DEPRESSED	-0.2053429
-4.545843	DEPRESSING	-0.2856851
-4.545843	DEPRESSION	-0.253206
-5.022964	DEPTH	-0.2053429
-4.068722	DEPUTY	-0.3186554
-5.022964	DERAILMENT	-0.2053429
-5.022964	DERBY	-0.2652326
-5.022964	DEREK	-0.2053429
-5.022964	DERIDED	-0.2444113
-5.022964	DESCEND	-0.2553118
-5.022964	DESCENT	-0.2574535
-4.323994	DESCRIBE	-0.294311
-3.846873	DESCRIBED	-0.5557719
-5.022964	DESCRIBES	-0.2655541
-5.022964	DESCRIPTION	-0.2053429
-5.022964	DESERT	-0.2053429
-5.022964	DESERTED	-0.2053429
-4.119874	DESERVE	-0.456453
-3.680542	DESERVED	-0.5413378
-4.244813	DESERVES	-0.2340836
-4.721934	DESIGN	-0.3327638
-4.420904	DESIGNED	-0.34445
-5.022964	DESIGNERS	-0.2629259
-4.420904	DESIRE	-0.1854382
-5.022964	DESIRED	-0.2053429
-4.022964	DESPERATE	-1.019874
-4.721934	DESPERATELY	-0.2648821
-4.177866	DESPITE	-0.3017358
-4.721934	DESPONDENT	-0.3327638
-4.721934	DESTINY	-0.1915241
-5.022964	DESTROY	-0.2444113
-4.420904	DESTROYED	-0.5640465
-4.721934	DESTROYING	-0.2430858
-4.545843	DESTRUCTION	-0.1986279
-4.177866	DETAIL	-0.4322502
-5.022964	DETAILED	-0.2654552
-3.700745	DETAILS	-0.4292328
-5.022964	DETAINED	-0.2643907
-5.022964	DETECT	-0.2053429
-5.022964	DETECTION	-0.2536128
-4.545843	DETECTIVES	-0.2821948
-5.022964	DETERIORATED	-0.2053429
-4.545843	DETERMINE	-0.3411799
-3.981571	DETERMINED	-0.9086975
-5.022964	DETERRED	-0.2053429
-4.323994	DEVELOP	-0.3137704
-4.177866	DEVELOPED	-0.3530113
-5.022964	DEVELOPMENT	-0.2053429
-4.721934	DEVICE	-0.1959522
-4.545843	DEVICES	-0.2615599
-4.323994	DEVIL	-0.3011512
-5.022964	DEVOLVED	-0.2053429
-5.022964	DEVON	-0.2053429
-5.022964	DEVOTED	-0.2553118
-5.022964	DEVOTION	-0.2553118
-4.022964	DEWAR	-0.3496419
-5.022964	DIAGNOSED	-0.2053429
-5.022964	DIAGNOSIS	-0.2536128
-4.420904	DIALOGUE	-0.2482611
-4.323994	DICK	-0.3823241
-5.022964	DICKENS	-0.2053429
-5.022964	DICTATOR	-0.2600106
-2.832633	DID	-0.6869243
-2.922594	DIDN'T	-0.5118045
-4.022964	DIE	-0.9811198
-3.5916	DIED	-0.4681883
-5.022964	DIEGO	-0.2053429
-5.022964	DIFFER	-0.2630212
-5.022964	DIFFERED	-0.2053429
-3.369752	DIFFERENCE	-0.7335569
-5.022964	DIFFERENCES	-0.2053429
-3.036192	DIFFERENT	-0.664601
-5.022964	DIFFERENTLY	-0.2053429
-3.184115	DIFFICULT	-0.713842
-5.022964	DIGITAL	-0.2629259
-5.022964	DIGNITY	-0.2600648
-4.177866	DILEMMA	-0.4307945
-5.022964	DILIGENT	-0.2053429
-5.022964	DIMENSIONS	-0.2053429
-5.022964	DIMINISHED	-0.2600648
-5.022964	DINING	-0.2655706
-4.420904	DINNER	-0.2557358
-5.022964	DIP	-0.2600648
-4.420904	DIRECT	-0.3217726
-5.022964	DIRECTED	-0.2655953
-4.721934	DIRECTING	-0.256937
-4.119874	DIRECTION	-0.3945581
-4.545843	DIRECTIONS	-0.4210849
-3.943783	DIRECTOR	-0.3168074
-5.022964	DIRECTOR'S	-0.2537313
-4.545843	DIRECTORS	-0.199914
-4.721934	DIRTY	-0.2046941
-4.721934	DISABLED	-0.2043527
-4.721934	DISAGREE	-0.2052341
-5.022964	DISAPPEAR	-0.2600648
-5.022964	DISAPPEARED	-0.2653274
-4.721934	DISAPPOINT	-0.3327638
-5.022964	DISAPPOINTED	-0.2053429
-5.022964	DISAPPOINTING	-0.2053429
-5.022964	DISARMING	-0.2053429
-4.721934	DISARRAY	-0.3327638
-3.818844	DISASTER	-0.6578435
-4.420904	DISASTROUS	-0.5640465
-5.022964	DISBAND	-0.2053429
-4.545843	DISBELIEF	-0.2841811
-5.022964	DISCHARGED	-0.2645848
-4.244813	DISCIPLINE	-0.4870078
-4.721934	DISCIPLINED	-0.3327638
-4.721934	DISCIPLINES	-0.3327638
-4.545843	DISCLOSED	-0.4210849
-4.721934	DISCONTENT	-0.2053382
-5.022964	DISCOUNTING	-0.2630212
-5.022964	DISCOURAGE	-0.2655294
-4.545843	DISCOVERED	-0.2268998
-5.022964	DISCRIMINATION	-0.2053429
-4.244813	DISCUSS	-0.4347761
-4.545843	DISCUSSED	-0.1986231
-4.022964	DISCUSSION	-0.2653624
-4.022964	DISCUSSIONS	-0.3620158
-4.545843	DISEASE	-0.2425865
-4.022964	DISGRACE	-1.193484
-4.420904	DISGRACEFUL	-0.2636391
-5.022964	DISGUSTED	-0.2053429
-4.721934	DISGUSTING	-0.3327638
-5.022964	DISMAL	-0.2655088
-5.022964	DISMAYED	-0.2053429
-4.721934	DISMISSAL	-0.3327638
-3.943783	DISMISSED	-0.3263904
-5.022964	DISPERSAL	-0.2600106
-4.420904	DISPLAY	-0.5640465
-5.022964	DISPLAYS	-0.2053429
-5.022964	DISPOSAL	-0.265212
-4.119874	DISPUTE	-0.2728647
-4.545843	DISPUTED	-0.3399904
-5.022964	DISQUIET	-0.2600648
-5.022964	DISREPUTE	-0.2053429
-4.244813	DISRUPTION	-0.2637972
-4.420904	DISSENT	-0.3327118
-5.022964	DISSERVICE	-0.2053429
-5.022964	DISSOLVE	-0.2444113
-4.420904	DISTANCE	-0.3324609
-5.022964	DISTANCES	-0.2053429
-4.721934	DISTANCING	-0.204182
-5.022964	DISTINCTION	-0.2536128
-5.022964	DISTINCTIVE	-0.2053429
-5.022964	DISTORTED	-0.2655912
-5.022964	DISTORTION	-0.2600106
-5.022964	DISTRESSED	-0.2053429
-4.420904	DISTRESSING	-0.3516082
-5.022964	DISTRICT	-0.2053429
-5.022964	DISTRICTS	-0.2053429
-5.022964	DISTURBANCE	-0.2536128
-4.545843	DISTURBED	-0.2846039
-4.420904	DISTURBING	-0.356243
-4.721934	DITHERING	-0.3327638
-5.022964	DIVA	-0.2053429
-4.721934	DIVERSE	-0.2022511
-5.022964	DIVERSIONS	-0.2636962
-5.022964	DIVERT	-0.2053429
-4.420904	DIVIDED	-0.2009144
-4.244813	DIVIDEND	-0.5435297
-4.721934	DIVIDENDS	-0.3327638
-5.022964	DIVING	-0.2536128
-4.119874	DIVISION	-0.3378678
-5.022964	DIVORCE	-0.2053429
-5.022964	DIVORCED	-0.2053429
-5.022964	DIZZY	-0.2053429
-2.461863	DO	-0.8845194
-6.5804	DOAND
-5.022964	DOBSON	-0.265179
-4.177866	DOCTOR	-0.2398493
-4.420904	DOCTORS	-0.1891334
-4.244813	DOCUMENT	-0.2764313
-5.022964	DODDS	-0.2053429
-3.049836	DOES	-0.7098039
-3.267089	DOESN'T	-0.312662
-5.022964	DOG	-0.2053429
-6.5804	DOI
-3.491485	DOING	-0.2790791
-6.5804	DOIT
-5.022964	DOLLAR	-0.2053429
-4.721934	DOLLARS	-0.3327638
-5.022964	DOMAIN	-0.2053429
-5.022964	DOME	-0.2053429
-4.420904	DOMESTIC	-0.3246081
-5.022964	DOMINANT	-0.2053429
-5.022964	DON	-0.2656118
-2.855647	DON'T	-0.6970683
-4.022964	DONALD	-0.3873081
-5.022964	DONATION	-0.2653563
-3.119874	DONE	-0.4645207
-5.022964	DONOVAN	-0.2053429
-6.5804	DOO
-4.068722	DOOR	-0.3317702
-3.943783	DOUBLE	-0.243596
-5.022964	DOUBLED	-0.2600648
-3.767692	DOUBT	-0.3386693
-5.022964	DOUBTFUL	-0.2053429
-5.022964	DOW	-0.2656035
-6.5804	DOWE
-6.5804	DOWELL
-3.083445	DOWN	-0.6162442
-5.022964	DOWNGRADE	-0.2444113
-4.119874	DOWNING	-0.9541725
-5.022964	DOWNSIDE	-0.2053429
-4.721934	DOWNWARD	-0.2654223
-5.022964	DOZEN	-0.2656035
-4.323994	DRAMA	-0.2282797
-4.545843	DRAMATIC	-0.2053098
-4.323994	DRAW	-0.2488439
-5.022964	DRAWBACK	-0.2053429
-4.420904	DRAWING	-0.2638334
-4.244813	DRAWN	-0.2826768
-5.022964	DREADED	-0.2655829
-4.721934	DREADFUL	-0.2648284
-4.119874	DREAM	-0.3622046
-5.022964	DREAMS	-0.2053429
-5.022964	DRESS	-0.2656118
-4.545843	DRESSING	-0.4813126
-4.545843	DRINK	-0.2829199
-5.022964	DRINKING	-0.2603443
-4.420904	DRIVE	-0.3315791
-4.545843	DRIVEN	-0.2741525
-4.068722	DRIVER	-0.2521085
-5.022964	DRIVERS	-0.2639237
-4.420904	DRIVING	-0.2481153
-4.545843	DROP	-0.2593968
-4.177866	DROPPED	-0.3675777
-3.981571	DROPS	-0.5342454
-4.721934	DROVE	-0.2441085
-4.420904	DRUG	-0.2655541
-4.022964	DRUGS	-0.4948834
-4.721934	DUBLIN	-0.3327638
-3.642753	DUE	-0.840822
-5.022964	DUKE	-0.2600106
-5.022964	DUMFRIES	-0.2629259
-4.721934	DUNCAN	-0.3929956
-4.022964	DUNDEE	-0.5531841
-4.323994	DUNFERMLINE	-0.2466746
-4.244813	DURING	-0.3739985
-5.022964	DUSTED	-0.2053429
-4.721934	DUTCH	-0.3928266
-4.545843	DUTCHMAN	-0.4731955
-4.721934	DUTIES	-0.201526
-4.177866	DUTY	-0.2471755
-4.323994	DYING	-0.2459747
-5.022964	DYNAMIC	-0.2053429
-4.721934	DYNAMICS	-0.3874315
-4.721934	E	-0.2053382
-3.661236	EACH	-0.7264854
-4.721934	EARLIER	-0.3927937
-3.545843	EARLY	-0.3260098
-5.022964	EARNED	-0.2444113
-4.022964	EARTH	-0.4212524
-4.545843	EASIER	-0.2813107
-3.981571	EASILY	-0.3569068
-4.721934	EAST	-0.205324
-4.721934	EASTER	-0.2053051
-5.022964	EASTERN	-0.2654923
-3.274776	EASY	-0.5304224
-5.022964	EAT	-0.2600648
-4.721934	EATING	-0.3848744
-5.022964	ECHO	-0.2053429
-4.721934	ECHOED	-0.3918116
-5.022964	ECLIPSED	-0.2053429
-4.721934	ECONOMIC	-0.2656035
-5.022964	ECONOMY	-0.2053429
-5.022964	ECSTATIC	-0.2053429
-5.022964	EDEN	-0.2654882
-4.545843	EDGE	-0.2795658
-5.022964	EDGES	-0.2053429
-3.545843	EDINBURGH	-0.4871951
-5.022964	EDIT	-0.2053429
-4.721934	EDITED	-0.244407
-5.022964	EDITOR	-0.2640229
-5.022964	EDMONTON	-0.2053429
-5.022964	EDUCATION	-0.2536128
-3.625024	EFFECT	-0.569866
-3.981571	EFFECTIVE	-0.3314279
-4.721934	EFFECTS	-0.2596809
-4.119874	EFFORT	-0.416721
-5.022964	EFFORTS	-0.2053429
-5.022964	EGO	-0.2654593
-5.022964	EGYPT	-0.2053429
-3.981571	EIGHT	-0.3060802
-4.721934	EIGHTIES	-0.3327638
-3.607991	EITHER	-0.5226864
-5.022964	ELAN	-0.2053429
-4.721934	ELDERLY	-0.2640726
-4.545843	ELECTED	-0.2632118
-3.767692	ELECTION	-0.2827941
-4.177866	ELECTIONS	-0.197415
-5.022964	ELECTORS	-0.2536128
-4.721934	ELECTRIC	-0.2052246
-5.022964	ELECTRICITY	-0.2592087
-4.119874	ELEMENT	-0.3788212
-4.420904	ELEMENTS	-0.3289469
-5.022964	ELEVEN	-0.2655953
-5.022964	ELGIN	-0.2652037
-5.022964	ELLIOT	-0.2053429
-3.575806	ELSE	-0.4808353
-5.022964	ELSE'S	-0.2053429
-4.323994	ELSEWHERE	-0.2437139
-5.022964	ELUDED	-0.2647954
-4.721934	ELUSIVE	-0.2628845
-5.022964	EMBARGO	-0.2656077
-4.545843	EMBARRASSED	-0.2603526
-5.022964	EMBASSY	-0.2654964
-4.545843	EMERGE	-0.3440794
-4.244813	EMERGED	-0.2857821
-4.721934	EMERGENCY	-0.392975
-4.721934	EMERGES	-0.3327638
-4.420904	EMERGING	-0.3499257
-5.022964	EMILY	-0.2636962
-6.5804	EMOTION
-5.022964	EMOTIONALLY	-0.2656035
-4.420904	EMOTIONS	-0.354103
-4.721934	EMPHASIS	-0.2023607
-5.022964	EMPHASISE	-0.2444113
-5.022964	EMPHASISED	-0.2444113
-5.022964	EMPIRE	-0.2053429
-5.022964	EMPLOYED	-0.2630212
-5.022964	EMPLOYEE	-0.2647128
-4.545843	EMPLOYEES	-0.3426487
-5.022964	EMPLOYER	-0.2053429
-4.545843	EMPLOYERS	-0.2829199
-4.244813	EMPLOYMENT	-0.5464025
-5.022964	EMPOWERING	-0.2655953
-4.721934	EMPTY	-0.2655912
-5.022964	EMU	-0.2053429
-5.022964	EMULATE	-0.2641759
-5.022964	ENABLED	-0.2444113
-5.022964	ENCHANTED	-0.2636631
-5.022964	ENCOUNTER	-0.2574535
-4.545843	ENCOURAGE	-0.2644651
-4.177866	ENCOURAGED	-0.4955418
-3.171706	END	-0.7321532
-5.022964	ENDANGERED	-0.2656118
-5.022964	ENDEAVOUR	-0.2651295
-4.721934	ENDED	-0.2638038
-5.022964	ENDEMIC	-0.2600648
-4.420904	ENDING	-0.2410202
-5.022964	ENDORSE	-0.2053429
-4.721934	ENDORSED	-0.2039351
-4.244813	ENDS	-0.547256
-5.022964	ENDURANCE	-0.2655953
-5.022964	ENDURE	-0.2053429
-5.022964	ENDURING	-0.2655088
-4.721934	ENEMIES	-0.3327638
-4.545843	ENEMY	-0.1818263
-5.022964	ENERGIES	-0.2053429
-5.022964	ENERGISED	-0.2053429
-4.323994	ENERGY	-0.2388933
-5.022964	ENFORCE	-0.254146
-4.721934	ENFORCED	-0.3327638
-4.721934	ENFORCEMENT	-0.392839
-4.721934	ENGAGE	-0.2030987
-5.022964	ENGAGED	-0.2600648
-5.022964	ENGAGING	-0.2655829
-5.022964	ENGINEER	-0.2053429
-3.545843	ENGLAND	-0.552064
-3.909021	ENGLISH	-0.2840078
-5.022964	ENHANCED	-0.2053429
-3.818844	ENJOY	-0.3041702
-4.022964	ENJOYABLE	-0.2786499
-3.981571	ENJOYED	-0.3992537
-4.177866	ENJOYING	-0.3729008
-5.022964	ENJOYMENT	-0.2536128
-4.022964	ENORMOUS	-0.9041709
-3.267089	ENOUGH	-0.6649046
-5.022964	ENSEMBLE	-0.2536128
-4.420904	ENSURE	-0.3159951
-4.721934	ENTER	-0.2319235
-4.545843	ENTERPRISE	-0.2022034
-5.022964	ENTERTAIN	-0.2053429
-5.022964	ENTERTAINED	-0.2053429
-5.022964	ENTHRALLING	-0.2053429
-3.661236	ENTIRELY	-0.1894751
-4.420904	ENTITLED	-0.3845515
-5.022964	ENTRANCE	-0.2053429
-5.022964	ENTRAPMENT	-0.2643907
-4.721934	ENTRIES	-0.2604861
-4.721934	ENTRY	-0.3327638
-5.022964	ENVELOPE	-0.2053429
-5.022964	ENVIOUS	-0.2053429
-5.022964	ENVIRONMENT	-0.2053429
-5.022964	ENVIRONMENTAL	-0.2654758
-5.022964	EPIC	-0.2053429
-5.022964	EPISODE	-0.2053429
-4.721934	EQUAL	-0.3327638
-3.909021	EQUALLY	-0.2538193
-5.022964	EQUALS	-0.2053429
-4.721934	EQUATION	-0.3327638
-4.022964	EQUIPMENT	-0.422775
-5.022964	EQUIPPED	-0.2636631
-4.323994	EQUITY	-0.3038773
-4.323994	ERA	-0.3123126
-4.721934	ERASED	-0.3327638
-4.420904	ERIKSSON	-0.2621667
-4.721934	EROTIC	-0.2631539
-4.119874	ERROR	-0.3238575
-4.721934	ERRORS	-0.3327638
-4.323994	ESCAPE	-0.6648241
-5.022964	ESCAPED	-0.2655582
-5.022964	ESCAPING	-0.2645848
-5.022964	ESCORT	-0.2053429
-5.022964	ESSENCE	-0.2444113
-4.119874	ESSENTIAL	-0.4224469
-4.244813	ESTABLISH	-0.3703747
-4.721934	ESTABLISHED	-0.2053193
-4.545843	ESTATE	-0.286007
-5.022964	ETHIC	-0.2053429
-4.721934	ETHICAL	-0.255257
-4.721934	ETHICS	-0.3327638
-5.022964	ETHOS	-0.2600106
-4.022964	EURO	-0.3686695
-3.545843	EUROPE	-0.668865
-3.575806	EUROPEAN	-0.2431059
-3.210051	EVEN	-0.2387933
-4.323994	EVENING	-0.2453217
-4.721934	EVENLY	-0.2655871
-3.700745	EVENT	-0.5056536
-5.022964	EVENTFUL	-0.2644444
-4.323994	EVENTS	-0.3002772
-3.5916	EVER	-0.2193497
-3.389496	EVERY	-0.3456424
-3.306961	EVERYONE	-0.3286557
-5.022964	EVERYONE'S	-0.2648531
-3.159641	EVERYTHING	-0.4865836
-4.323994	EVERYWHERE	-0.290418
-5.022964	EVICTED	-0.2053429
-4.721934	EVICTION	-0.2654099
-3.5916	EVIDENCE	-0.4788138
-4.721934	EVIDENT	-0.2549447
-4.721934	EVIL	-0.1989594
-5.022964	EVOLVING	-0.2053429
-5.022964	EXACTING	-0.2656035
-3.876836	EXACTLY	-0.2108219
-5.022964	EXAMINED	-0.2053429
-3.767692	EXAMPLE	-0.5633914
-4.545843	EXAMPLES	-0.2821948
-4.721934	EXAMS	-0.3327638
-5.022964	EXCEL	-0.2053429
-3.5916	EXCELLENT	-0.5474537
-4.721934	EXCEPT	-0.2577305
-4.420904	EXCEPTION	-0.5640465
-5.022964	EXCEPTIONS	-0.2553118
-4.721934	EXCESS	-0.2479052
-5.022964	EXCESSIVE	-0.2053429
-4.721934	EXCHANGE	-0.3327638
-4.177866	EXCITED	-0.3187269
-4.323994	EXCITEMENT	-0.2304283
-3.792515	EXCITING	-0.2958032
-5.022964	EXCLUDED	-0.2640229
-5.022964	EXCLUDING	-0.2656118
-4.420904	EXCUSE	-0.3516082
-4.177866	EXCUSES	-0.3656973
-4.545843	EXECUTIVE	-0.1993434
-4.068722	EXERCISE	-0.3856956
-4.323994	EXHAUSTED	-0.6648241
-5.022964	EXHAUSTIVE	-0.2656118
-4.545843	EXIST	-0.2796282
-5.022964	EXISTED	-0.2053429
-4.721934	EXISTENCE	-0.2558683
-4.244813	EXISTING	-0.265179
-5.022964	EXISTS	-0.2053429
-4.545843	EXPAND	-0.4210849
-4.545843	EXPANDED	-0.3455137
-4.323994	EXPANSION	-0.1846548
-5.022964	EXPANSIONS	-0.2624531
-3.721934	EXPECT	-0.3581019
-5.022964	EXPECTATIONS	-0.2053429
-3.159641	EXPECTED	-0.5109721
-4.721934	EXPECTING	-0.2431378
-5.022964	EXPENSE	-0.2053429
-5.022964	EXPENSES	-0.2053429
-4.177866	EXPENSIVE	-0.3191202
-3.332768	EXPERIENCE	-0.5944412
-4.721934	EXPERIENCED	-0.2524721
-5.022964	EXPERT	-0.2630212
-5.022964	EXPERTISE	-0.2053429
-4.323994	EXPERTS	-0.2550375
-4.068722	EXPLAIN	-0.3192243
-4.545843	EXPLAINED	-0.314254
-5.022964	EXPLAINS	-0.2053429
-4.545843	EXPLANATION	-0.4210849
-5.022964	EXPLODE	-0.2053429
-5.022964	EXPLODED	-0.2053429
-5.022964	EXPLODING	-0.2053429
-5.022964	EXPLOITED	-0.2643907
-5.022964	EXPLORED	-0.2053429
-4.721934	EXPLOSION	-0.2022511
-4.721934	EXPLOSIVE	-0.2050779
-4.721934	EXPORT	-0.259898
-5.022964	EXPOSURE	-0.2629259
-5.022964	EXPRESS	-0.2444113
-4.545843	EXPRESSED	-0.2631994
-5.022964	EXPRESSION	-0.2600106
-5.022964	EXPRESSIONS	-0.2650141
-5.022964	EXPRESSIVE	-0.2654387
-5.022964	EXPULSION	-0.2641676
-4.545843	EXTENDED	-0.265047
-4.545843	EXTENSION	-0.2795658
-4.545843	EXTENT	-0.2795658
-5.022964	EXTERNAL	-0.2656118
-4.420904	EXTINCTION	-0.2503631
-4.420904	EXTRA	-0.3557125
-5.022964	EXTRAORDINARY	-0.2656118
-4.721934	EXTREME	-0.2052767
-3.478896	EXTREMELY	-0.3016985
-4.119874	EYE	-0.1782546
-5.022964	EYEING	-0.2537313
-4.244813	EYES	-0.4019307
-5.022964	EYESIGHT	-0.2053429
-6.5804	F
-3.818844	FACE	-0.3150126
-5.022964	FACELESS	-0.2655088
-4.244813	FACES	-0.2285936
-4.420904	FACING	-0.2900907
-3.454762	FACT	-0.4484265
-4.244813	FACTOR	-0.5438203
-4.420904	FACTORS	-0.3289469
-4.420904	FACTS	-0.5640465
-4.545843	FAIL	-0.2741525
-3.876836	FAILED	-0.4082078
-4.545843	FAILING	-0.2859029
-5.022964	FAILINGS	-0.2622955
-4.022964	FAILURE	-0.314659
-4.545843	FAILURES	-0.3381056
-3.846873	FAIR	-0.6288993
-4.177866	FAIRLY	-0.2051394
-5.022964	FAIRWAYS	-0.2053429
-4.721934	FAIRY	-0.3930203
-4.244813	FAITH	-0.3963887
-5.022964	FAKE	-0.2053429
-5.022964	FALKLANDS	-0.2629259
-4.022964	FALL	-0.2635879
-4.119874	FALLEN	-0.3212584
-4.545843	FALLING	-0.2633609
-4.545843	FALLS	-0.4813002
-5.022964	FAME	-0.2629259
-4.721934	FAMILIAR	-0.3827326
-4.022964	FAMILIES	-0.4021179
-3.252112	FAMILY	-0.4602478
-5.022964	FAMOUS	-0.2653027
-5.022964	FAMOUSLY	-0.2654346
-4.420904	FAN	-0.3498633
-5.022964	FANCY	-0.2053429
-3.721934	FANS	-0.4757505
-3.700745	FANTASTIC	-0.7691283
-4.420904	FANTASY	-0.2617815
-3.341723	FAR	-0.4529595
-4.545843	FARCE	-0.4210849
-5.022964	FAREWELL	-0.2553118
-4.721934	FARM	-0.1915241
-4.068722	FARMER	-0.3359672
-5.022964	FARMER'S	-0.2655788
-4.022964	FARMERS	-0.3537595
-4.420904	FARMING	-0.3558215
-4.420904	FASHION	-0.3561957
-4.244813	FAST	-0.4074362
-5.022964	FASTEST	-0.2655211
-4.545843	FATAL	-0.2858745
-4.721934	FATE	-0.3874315
-3.846873	FATHER	-0.2351138
-5.022964	FATHERHOOD	-0.2536128
-5.022964	FATHOM	-0.2053429
-5.022964	FATIGUE	-0.2053429
-3.909021	FAULT	-0.8586084
-4.244813	FAVOUR	-0.3395942
-4.119874	FAVOURITE	-0.423851
-4.420904	FAVOURITES	-0.2620385
-4.068722	FEAR	-0.552019
-5.022964	FEARED	-0.2444113
-4.545843	FEASIBLE	-0.4210849
-4.323994	FEATURE	-0.1920856
-4.119874	FEBRUARY	-0.4752603
-5.022964	FED	-0.2649769
-5.022964	FEE	-0.2053429
-5.022964	FEED	-0.2053429
-4.721934	FEEDBACK	-0.3920057
-3.177866	FEEL	-0.2966605
-3.661236	FEELING	-0.2522308
-4.119874	FEELS	-0.2698346
-5.022964	FEES	-0.2622955
-4.420904	FEET	-0.3297816
-5.022964	FEIN	-0.2053429
-4.119874	FELL	-0.3922546
-5.022964	FELLOWSHIP	-0.2536128
-3.478896	FELT	-0.3688291
-4.545843	FEMALE	-0.3435906
-5.022964	FENWICK	-0.2600648
-3.876836	FERGUSON	-0.3197432
-5.022964	FERGUSON'S	-0.2655912
-5.022964	FERNANDEZ	-0.2053429
-5.022964	FERRIS	-0.2053429
-4.119874	FESTIVAL	-0.207443
-4.721934	FESTIVALS	-0.2017074
-3.575806	FEW	-0.3565752
-5.022964	FEWER	-0.2647541
-4.721934	FIASCO	-0.3327638
-5.022964	FICKLE	-0.2053429
-4.323994	FIELD	-0.30129
-5.022964	FIELDS	-0.2600106
-5.022964	FIERY	-0.2650842
-4.545843	FIFE	-0.4210849
-5.022964	FIFTEEN	-0.2655294
-4.721934	FIFTH	-0.1959522
-3.642753	FIGHT	-0.2760277
-5.022964	FIGHTER	-0.2053429
-4.119874	FIGHTING	-0.3022473
-4.022964	FIGURE	-0.3329642
-3.876836	FIGURES	-0.3305774
-3.642753	FILM	-0.465775
-5.022964	FILMED	-0.2600648
-5.022964	FILMING	-0.2053429
-4.420904	FILMS	-0.3325745
-4.721934	FILTERING	-0.3928761
-3.560566	FINAL	-0.4049979
-4.545843	FINALE	-0.2499043
-3.721934	FINALLY	-0.2543772
-4.721934	FINALS	-0.2595848
-5.022964	FINANCE	-0.2655664
-4.721934	FINANCED	-0.3918116
-4.721934	FINANCES	-0.2053288
-3.876836	FINANCIAL	-0.1888041
-3.575806	FIND	-0.3591306
-4.323994	FINDING	-0.290094
-4.119874	FINDINGS	-0.4423776
-5.022964	FINDS	-0.254146
-4.022964	FINE	-0.3709474
-5.022964	FINEST	-0.2653769
-4.721934	FINGER	-0.2023607
-5.022964	FINGERS	-0.2656118
-4.244813	FINISH	-0.2685414
-3.818844	FINISHED	-0.4098602
-5.022964	FINISHER	-0.2053429
-5.022964	FINISHING	-0.254146
-5.022964	FINLAND	-0.2053429
-5.022964	FINNIE	-0.2648119
-4.721934	FIR	-0.393012
-3.700745	FIRE	-0.3556806
-5.022964	FIREARM	-0.2053429
-5.022964	FIRED	-0.2053429
-5.022964	FIREMEN	-0.2053429
-3.981571	FIRM	-0.3103432
-5.022964	FIRMLY	-0.2600648
-2.98954	FIRST	-0.2488374
-5.022964	FIRSTLY	-0.2599981
-5.022964	FISHER	-0.2574535
-4.545843	FISHERMEN	-0.2622789
-4.323994	FISHING	-0.2321751
-3.876836	FIT	-0.3636729
-6.5804	FITI
-4.323994	FITNESS	-0.2269885
-5.022964	FITTING	-0.2656035
-3.454762	FIVE	-0.4668529
-5.022964	FIVER	-0.2629259
-4.545843	FIX	-0.4210849
-4.721934	FIXED	-0.2006419
-5.022964	FIXES	-0.2053429
-5.022964	FIXTURE	-0.2053429
-6.5804	FLAMES
-5.022964	FLASHY	-0.2654346
-4.420904	FLAT	-0.1987913
-5.022964	FLATS	-0.2053429
-5.022964	FLAWED	-0.2053429
-5.022964	FLED	-0.2053429
-4.721934	FLEXIBLE	-0.2053193
-4.545843	FLIGHT	-0.2795658
-5.022964	FLOATING	-0.2656118
-4.721934	FLOODED	-0.2052956
-5.022964	FLOODS	-0.2053429
-4.545843	FLOOR	-0.4210849
-4.721934	FLORIDA	-0.2479052
-4.721934	FLOTATION	-0.3327638
-5.022964	FLOURISHING	-0.2629259
-5.022964	FLOW	-0.2053429
-5.022964	FLOWERS	-0.2053429
-5.022964	FLU	-0.2053429
-4.420904	FLY	-0.2520511
-3.909021	FOCUS	-0.4036445
-4.323994	FOCUSED	-0.4617954
-4.721934	FOLK	-0.2052341
-3.846873	FOLLOW	-0.3658059
-4.177866	FOLLOWED	-0.3838554
-3.846873	FOLLOWING	-0.3092406
-4.545843	FOLLOWS	-0.3125923
-5.022964	FOLLY	-0.2053429
-4.323994	FOOD	-0.2446196
-5.022964	FOODS	-0.2053429
-4.721934	FOOL	-0.199732
-5.022964	FOOLHARDY	-0.2651378
-4.545843	FOOLISH	-0.3460663
-5.022964	FOOLISHLY	-0.2639237
-4.721934	FOOT	-0.2627228
-5.022964	FOOTAGE	-0.2631041
-3.389496	FOOTBALL	-0.4596611
-5.022964	FOOTBALLER	-0.2053429
-4.721934	FOOTBALLERS	-0.2609069
-2.028207	FOR	-0.5616983
-5.022964	FORBIDDEN	-0.2600648
-3.981571	FORCE	-0.1610857
-3.981571	FORCED	-0.7966843
-4.420904	FORCES	-0.2024941
-5.022964	FORE	-0.2053429
-4.721934	FORECAST	-0.2613356
-4.244813	FOREIGN	-0.4692247
-5.022964	FOREMOST	-0.2444113
-4.323994	FORETELL	-0.7249652
-4.119874	FOREVER	-0.4810712
-4.244813	FORGET	-0.1718458
-5.022964	FORGIVE	-0.2053429
-4.545843	FORGIVEN	-0.2813107
-5.022964	FORGIVENESS	-0.2629259
-4.545843	FORGOT	-0.1918318
-5.022964	FORGOTTEN	-0.2053429
-3.642753	FORM	-0.5720436
-4.119874	FORMAL	-0.2330759
-5.022964	FORMALLY	-0.2655788
-5.022964	FORMAT	-0.2053429
-4.721934	FORMATION	-0.390525
-4.420904	FORMED	-0.5640465
-4.177866	FORMER	-0.2373176
-4.420904	FORMS	-0.2578981
-4.323994	FORMULA	-0.6648241
-5.022964	FORRESTER	-0.2655994
-4.721934	FORTHCOMING	-0.3327638
-4.721934	FORTNIGHT	-0.2044192
-4.244813	FORTUNATE	-0.3363032
-4.545843	FORTUNE	-0.4210849
-3.350866	FORWARD	-1.029922
-5.022964	FORWARDS	-0.2053429
-5.022964	FOSSIL	-0.2630212
-4.545843	FOSTER	-0.4813043
-5.022964	FOUGHT	-0.2053429
-4.721934	FOUL	-0.3327638
-3.341723	FOUND	-0.4982074
-5.022964	FOUNDATION	-0.2053429
-4.721934	FOUNDATIONS	-0.2508472
-3.517814	FOUR	-0.498086
-4.545843	FOURTH	-0.2052956
-5.022964	FRAME	-0.2053429
-4.119874	FRANCE	-0.4389777
-5.022964	FRANCHISE	-0.2053429
-4.420904	FRANK	-0.1915143
-5.022964	FRANKFURT	-0.2053429
-4.119874	FRANKLY	-0.278546
-3.792515	FREE	-0.3992287
-4.068722	FREEDOM	-0.2718642
-4.244813	FRENCH	-0.2994983
-5.022964	FRENCHMAN	-0.2053429
-4.022964	FRESH	-0.3113663
-4.119874	FRIDAY	-0.4081358
-4.068722	FRIEND	-0.4574577
-4.119874	FRIENDLY	-0.3483793
-3.767692	FRIENDS	-0.406899
-4.721934	FRIENDSHIP	-0.1995306
-5.022964	FRIGHT	-0.2053429
-4.545843	FRIGHTENED	-0.1957587
-4.177866	FRIGHTENING	-0.372929
-5.022964	FROG	-0.2615269
-2.625024	FROM	-0.4211852
-3.981571	FRONT	-0.3144034
-5.022964	FROSTY	-0.2656118
-4.323994	FRUSTRATED	-0.2496772
-3.981571	FRUSTRATING	-0.3415514
-4.119874	FRUSTRATION	-0.2337569
-5.022964	FRUSTRATIONS	-0.2600106
-4.721934	FUEL	-0.2443811
-5.022964	FULFILLED	-0.2643907
-4.545843	FULFILMENT	-0.4210849
-3.50445	FULL	-0.3086274
-4.022964	FULLY	-0.2304378
-3.721934	FUN	-0.8296095
-5.022964	FUNCTION	-0.2600106
-5.022964	FUND	-0.2631041
-4.420904	FUNDED	-0.2027417
-3.943783	FUNDING	-0.3002324
-4.545843	FUNDS	-0.2003307
-5.022964	FUNERAL	-0.2536128
-3.700745	FUNNY	-0.578374
-4.545843	FURIOUS	-0.2844852
-5.022964	FURNITURE	-0.2053429
-3.454762	FURTHER	-0.308957
-5.022964	FUSS	-0.2053429
-3.389496	FUTURE	-0.5920613
-4.545843	FUTURES	-0.1952697
-6.5804	G
-5.022964	GAELIC	-0.2656118
-5.022964	GAFFER	-0.2574535
-4.545843	GAIN	-0.284827
-4.721934	GAINED	-0.2633568
-5.022964	GAINS	-0.2655747
-4.721934	GALLERIES	-0.1989594
-4.420904	GALLERY	-0.3534223
-5.022964	GALLOWAY	-0.265484
-5.022964	GAMBLE	-0.2053429
-4.721934	GAMBLING	-0.3927236
-2.912374	GAME	-0.6641394
-3.909021	GAMES	-0.2770521
-4.177866	GAP	-0.4086635
-5.022964	GARAGE	-0.2053429
-5.022964	GARCIA	-0.2053429
-5.022964	GARDEN	-0.2654264
-4.721934	GARY	-0.2655953
-4.420904	GAS	-0.1792358
-4.721934	GATES	-0.3874315
-5.022964	GATEWAY	-0.2553118
-3.846873	GAVE	-0.3943346
-3.744211	GENERAL	-0.2919635
-4.545843	GENERALLY	-0.259973
-5.022964	GENERATIONS	-0.2053429
-5.022964	GENEROUS	-0.2053429
-5.022964	GENETIC	-0.2656077
-4.244813	GENIUS	-0.4870078
-5.022964	GENOCIDE	-0.2053429
-4.022964	GENUINE	-0.2782507
-5.022964	GEOFFREY	-0.2656118
-4.177866	GEORGE	-0.2232679
-5.022964	GERHARD	-0.2656118
-4.721934	GERMAN	-0.2636755
-4.022964	GERMANY	-0.2865679
-4.721934	GESTURE	-0.2052814
-5.022964	GESTURES	-0.2600106
-2.755792	GET	-0.501534
-4.022964	GETS	-0.2055309
-3.50445	GETTING	-0.2352837
-5.022964	GIFT	-0.2553118
-4.721934	GIGANTIC	-0.2655088
-5.022964	GILBERT	-0.2574535
-4.721934	GIMMICK	-0.3327638
-4.244813	GIRL	-0.463192
-5.022964	GIRLFRIEND	-0.2629259
-4.323994	GIRLS	-0.3169345
-3.389496	GIVE	-0.3619622
-3.531603	GIVEN	-0.3440347
-4.022964	GIVES	-0.4941269
-4.420904	GIVING	-0.2646922
-4.244813	GLAD	-0.3709143
-3.298688	GLASGOW	-0.5309702
-5.022964	GLASS	-0.2656077
-4.177866	GLOBAL	-0.2975309
-4.545843	GLORY	-0.2851354
-2.80548	GO	-0.4855097
-3.560566	GOAL	-0.6072837
-4.323994	GOALKEEPER	-0.3565134
-3.981571	GOALS	-0.2715555
-4.323994	GOD	-0.4529184
-5.022964	GODFATHER	-0.2553118
-4.068722	GODS	-0.6670594
-3.575806	GOES	-0.3137639
-2.813449	GOING	-0.9075919
-3.846873	GOLD	-0.5296649
-5.022964	GOLDEN	-0.2656118
-3.846873	GOLF	-0.4031978
-5.022964	GOMEZ	-0.2053429
-3.454762	GONE	-0.5765053
-5.022964	GONNA	-0.2655376
-2.566598	GOOD	-0.4720484
-4.721934	GOODBYE	-0.2041582
-5.022964	GOODNESS	-0.2656118
-5.022964	GOODS	-0.2053429
-4.721934	GOODWILL	-0.3327638
-3.943783	GORDON	-0.3939856
-2.795078	GOT	-0.6972147
-4.721934	GOTTEN	-0.263452
-3.119874	GOVERNMENT	-0.4691076
-4.721934	GOVERNMENT'S	-0.265517
-4.721934	GOVERNMENTS	-0.2017074
-5.022964	GOVERNORS	-0.2651996
-4.721934	GRABS	-0.3327638
-5.022964	GRADE	-0.2053429
-6.5804	GRADING
-5.022964	GRAEME	-0.2574535
-4.721934	GRAHAM	-0.2053288
-4.721934	GRAIL	-0.3327638
-5.022964	GRAMPIAN	-0.2653686
-4.721934	GRAND	-0.2654594
-4.545843	GRANDFATHER	-0.4210849
-4.721934	GRANDMOTHER	-0.3327638
-5.022964	GRANDPARENTS	-0.2636962
-5.022964	GRANDSON	-0.2600106
-4.721934	GRANT	-0.2624241
-4.420904	GRANTED	-0.3553854
-5.022964	GRASP	-0.2444113
-4.721934	GRASS	-0.3327638
-3.943783	GRATEFUL	-0.3496253
-4.721934	GRAVES	-0.3327638
-2.861596	GREAT	-0.3435457
-4.721934	GREATER	-0.2655624
-4.323994	GREATEST	-0.2645642
-4.545843	GREATLY	-0.265517
-4.323994	GREEKS	-0.7249116
-3.909021	GREEN	-0.3142157
-5.022964	GREENS	-0.2053429
-5.022964	GREENWOOD	-0.2647954
-4.545843	GREW	-0.4807189
-5.022964	GREY	-0.2655253
-5.022964	GRID	-0.2053429
-4.721934	GRIEF	-0.3903468
-4.721934	GRIP	-0.198897
-5.022964	GRITTY	-0.2603443
-3.744211	GROUND	-0.7890949
-5.022964	GROUNDS	-0.2615269
-3.700745	GROUP	-0.565482
-4.721934	GROUP'S	-0.2655294
-4.119874	GROUPS	-0.2660722
-4.721934	GROW	-0.1989594
-4.068722	GROWING	-0.2649889
-4.323994	GROWN	-0.3090122
-4.022964	GROWTH	-0.20726
-4.545843	GUARANTEE	-0.4210849
-4.721934	GUARANTEED	-0.3327638
-5.022964	GUARD	-0.2053429
-4.721934	GUESS	-0.2475661
-4.721934	GUEST	-0.3874315
-5.022964	GUILT	-0.2053429
-4.721934	GUILTY	-0.205324
-4.545843	GULF	-0.3249417
-4.721934	GUN	-0.3327638
-4.420904	GUY	-0.318945
-4.244813	GUYS	-0.2734273
-5.022964	GYM	-0.2053429
-4.545843	HABIT	-0.2795658
-2.41018	HAD	-0.4896763
-4.177866	HADN'T	-0.3290929
-4.323994	HAGUE	-0.2280781
-4.721934	HAIR	-0.3327638
-5.022964	HAIRDRESSER	-0.2053429
-3.607991	HALF	-0.3200803
-4.545843	HALIFAX	-0.2831248
-4.022964	HALL	-0.4365193
-5.022964	HALTED	-0.2053429
-5.022964	HAM	-0.2053429
-4.721934	HAMILTON	-0.2053193
-5.022964	HAMMER	-0.2600648
-5.022964	HAMMERING	-0.2643907
-4.068722	HAND	-0.26576
-5.022964	HANDCUFFED	-0.2053429
-4.545843	HANDED	-0.1997463
-4.420904	HANDFUL	-0.6187142
-4.323994	HANDLE	-0.3270685
-4.545843	HANDLED	-0.2859029
-5.022964	HANDLING	-0.2656035
-3.909021	HANDS	-0.7059211
-5.022964	HANDSOME	-0.2629259
-5.022964	HANDWRITING	-0.2053429
-4.721934	HANG	-0.2649728
-4.721934	HANGOVER	-0.2573486
-3.252112	HAPPEN	-0.6184632
-3.237634	HAPPENED	-0.6843954
-3.767692	HAPPENING	-0.3579763
-3.818844	HAPPENS	-0.4108032
-5.022964	HAPPIEST	-0.2636631
-4.545843	HAPPILY	-0.2384272
-4.545843	HAPPINESS	-0.1893642
-3.223624	HAPPY	-0.8545439
-3.119874	HARD	-0.4778035
-4.721934	HARDER	-0.2651048
-4.022964	HARDLY	-0.3098766
-5.022964	HARM	-0.2553118
-5.022964	HARMONY	-0.2053429
-5.022964	HAROLD	-0.2536128
-4.721934	HARROWING	-0.2534264
-4.420904	HARRY	-0.2516476
-5.022964	HARTLEY	-0.2648284
-2.239061	HAS	-0.6834409
-4.721934	HASH	-0.3874315
-4.022964	HASN'T	-0.3425393
-5.022964	HASSLE	-0.2053429
-5.022964	HASTINGS	-0.2053429
-5.022964	HAT	-0.2053429
-4.721934	HATE	-0.2335852
-4.420904	HAUL	-0.5640465
-2.000536	HAVE	-0.5936706
-3.531603	HAVEN'T	-0.3422891
-3.744211	HAVING	-0.5523115
-1.918477	HE	-0.7858315
-4.721934	HE'D	-0.2647954
-3.210051	HE'S	-0.558823
-3.792515	HEAD	-0.3682083
-5.022964	HEADACHE	-0.2053429
-5.022964	HEADED	-0.2650594
-5.022964	HEADING	-0.2053429
-5.022964	HEADLESS	-0.2653027
-5.022964	HEADLINES	-0.2053429
-4.721934	HEADMASTER	-0.3327638
-4.545843	HEADQUARTERS	-0.2796282
-4.721934	HEADS	-0.2046088
-5.022964	HEAL	-0.2444113
-5.022964	HEALING	-0.2651996
-3.744211	HEALTH	-0.2886461
-4.545843	HEALTHY	-0.2052625
-3.767692	HEAR	-0.4003851
-3.767692	HEARD	-0.2119993
-3.981571	HEARING	-0.3626288
-3.876836	HEART	-0.3449492
-4.721934	HEARTBREAKING	-0.2035124
-5.022964	HEARTBROKEN	-0.2053429
-4.323994	HEARTS	-0.3184435
-4.545843	HEAT	-0.4210849
-4.721934	HEAVEN	-0.3327638
-4.721934	HEAVILY	-0.265447
-4.022964	HEAVY	-0.4369039
-5.022964	HEBREWS	-0.254146
-3.981571	HELD	-0.2418164
-5.022964	HELEN	-0.2629259
-4.244813	HELL	-0.5399707
-5.022964	HELMET	-0.2053429
-3.341723	HELP	-0.3763664
-3.981571	HELPED	-0.1900921
-4.323994	HELPFUL	-0.6648241
-4.545843	HELPING	-0.2028131
-4.721934	HELPLESS	-0.3327638
-5.022964	HELPS	-0.2650017
-4.545843	HENRY	-0.1950275
-2.90239	HER	-0.3430606
-4.022964	HERALD	-0.3556176
-5.022964	HERD	-0.2574535
-3.10915	HERE	-0.5064815
-5.022964	HERE'S	-0.2537313
-4.721934	HERITAGE	-0.3327638
-4.420904	HERO	-0.3563045
-5.022964	HEROES	-0.2053429
-5.022964	HEROIN	-0.2642874
-5.022964	HEROINE	-0.2600106
-5.022964	HESITATE	-0.2053429
-6.5804	HI
-5.022964	HIDDEN	-0.265212
-4.545843	HIDE	-0.4210849
-4.244813	HIDING	-0.3922897
-3.399715	HIGH	-0.4959595
-4.323994	HIGHEST	-0.1987865
-4.420904	HIGHLAND	-0.2572394
-4.420904	HIGHLANDS	-0.5640465
-4.721934	HIGHLIGHT	-0.3874315
-5.022964	HIGHLIGHTS	-0.2053429
-4.177866	HIGHLY	-0.3335712
-5.022964	HILL	-0.2656077
-5.022964	HILLARY	-0.2655253
-5.022964	HILLS	-0.2053429
-2.802856	HIM	-0.549709
-3.846873	HIMSELF	-0.5166841
-4.721934	HINDSIGHT	-0.1921393
-4.545843	HINT	-0.4757526
-2.480139	HIS	-0.3667345
-4.420904	HISTORIC	-0.2642928
-5.022964	HISTORICAL	-0.265587
-3.846873	HISTORY	-0.6740964
-3.744211	HIT	-0.3237603
-5.022964	HITCHES	-0.264527
-4.721934	HITTING	-0.3718322
-5.022964	HOAX	-0.2053429
-5.022964	HOBBIES	-0.2053429
-5.022964	HOBBY	-0.2615269
-3.981571	HOLD	-0.2322975
-4.545843	HOLDING	-0.3238413
-4.119874	HOLE	-0.3726016
-3.876836	HOLIDAY	-0.2613021
-5.022964	HOLIDAYS	-0.2630212
-4.545843	HOLLAND	-0.1957732
-4.420904	HOLLYWOOD	-0.2643449
-5.022964	HOLOCAUST	-0.2053429
-4.545843	HOLY	-0.3459756
-4.545843	HOLYROOD	-0.1883319
-3.153733	HOME	-0.4730257
-5.022964	HOMELAND	-0.2053429
-5.022964	HOMELESS	-0.2053429
-4.420904	HOMES	-0.2611477
-4.721934	HOMEWORK	-0.2053004
-5.022964	HOMICIDE	-0.2053429
-4.420904	HONEST	-0.1999045
-4.244813	HONESTLY	-0.2011439
-4.721934	HONESTY	-0.2640643
-4.119874	HONOUR	-0.3714849
-4.721934	HONOURED	-0.3327638
-6.5804	HOOD
-5.022964	HOOPS	-0.2053429
-3.216784	HOPE	-0.4395813
-4.244813	HOPED	-0.2828483
-4.323994	HOPEFUL	-0.2333424
-3.5916	HOPEFULLY	-0.4260654
-4.545843	HOPELESS	-0.2841811
-5.022964	HOPELESSLY	-0.2656035
-4.323994	HOPES	-0.3606079
-5.022964	HOPING	-0.2615269
-4.119874	HORIZON	-0.8939696
-3.909021	HORRIBLE	-0.2428243
-5.022964	HORRIFIC	-0.2655623
-4.545843	HORRIFIED	-0.2846039
-4.721934	HORROR	-0.3327638
-4.545843	HORSE	-0.4210849
-4.545843	HORSES	-0.3385712
-5.022964	HOSPICE	-0.2053429
-3.625024	HOSPITAL	-0.4809597
-4.545843	HOSPITALS	-0.3402536
-5.022964	HOSTEL	-0.2053429
-4.721934	HOSTILE	-0.2053004
-5.022964	HOT	-0.2053429
-4.323994	HOTEL	-0.2392832
-5.022964	HOTELS	-0.2053429
-4.177866	HOUR	-0.2619809
-3.876836	HOURS	-0.7620017
-3.661236	HOUSE	-0.3576258
-5.022964	HOUSEBREAKING	-0.2622955
-4.721934	HOUSEKEEPER	-0.2053288
-4.545843	HOUSING	-0.1913922
-3.177866	HOW	-0.4676
-2.73293	HOWEVER	-0.5200179
-3.478896	HUGE	-0.3589848
-4.323994	HUGELY	-0.3118489
-3.943783	HUMAN	-0.3969423
-4.545843	HUMANS	-0.2721929
-5.022964	HUMBLING	-0.265179
-4.323994	HUMOUR	-0.3826989
-4.721934	HUNDRED	-0.2647459
-5.022964	HUNG	-0.2652862
-5.022964	HUNGRY	-0.2615269
-5.022964	HUNTED	-0.2053429
-5.022964	HURDLE	-0.2053429
-4.721934	HURRY	-0.3327638
-4.068722	HURT	-0.9397271
-4.068722	HUSBAND	-0.4881645
-4.545843	HUSSEIN	-0.1885435
-5.022964	HUSTINGS	-0.2053429
-5.022964	HUTCHISON	-0.2648531
-5.022964	HYPE	-0.2053429
-5.022964	HYSTERIA	-0.2053429
-1.834317	I	-1.177288
-3.517814	I'D	-0.583724
-3.792515	I'LL	-0.3822313
-2.777452	I'M	-0.8183889
-3.054481	I'VE	-0.6908289
-4.721934	IAIN	-0.3930285
-4.721934	IAN	-0.3929915
-5.022964	ICE	-0.2053429
-4.545843	ICEBERG	-0.4210849
-5.022964	ICING	-0.2630212
-6.5804	ID
-3.389496	IDEA	-0.6176583
-4.545843	IDEAL	-0.285794
-4.721934	IDEALLY	-0.2655829
-4.022964	IDEAS	-0.4507897
-4.545843	IDIOT	-0.285936
-2.933059	IF	-0.6972289
-5.022964	IGNORANCE	-0.2536128
-4.545843	IGNORE	-0.3130283
-4.721934	IGNORED	-0.3327638
-4.721934	IGNORES	-0.3718322
-4.721934	IGNORING	-0.2435801
-4.068722	ILL	-0.4026738
-5.022964	ILLEGAL	-0.2053429
-4.721934	ILLNESS	-0.201526
-5.022964	ILLUSION	-0.2600106
-4.721934	ILLUSIONS	-0.2038164
-4.244813	IMAGE	-0.2624353
-4.721934	IMAGES	-0.3327638
-4.177866	IMAGINE	-0.517001
-5.022964	IMBALANCE	-0.2574535
-4.068722	IMMEDIATE	-0.2568469
-4.721934	IMMENSE	-0.3327638
-4.545843	IMMENSELY	-0.2654469
-5.022964	IMMINENT
-4.545843	IMMUNE	-0.1933572
-3.846873	IMPACT	-0.3883174
-5.022964	IMPAIRED	-0.2053429
-4.545843	IMPARTIAL	-0.4210849
-5.022964	IMPASSE	-0.2053429
-5.022964	IMPASSIONED	-0.2629259
-5.022964	IMPATIENCE	-0.2536128
-5.022964	IMPATIENT	-0.2053429
-5.022964	IMPEDED	-0.2053429
-3.196889	IMPORTANT	-0.7536339
-5.022964	IMPORTS	-0.2053429
-5.022964	IMPOSE	-0.2537313
-5.022964	IMPOSING	-0.2655994
-4.420904	IMPOSITION	-0.4083485
-4.545843	IMPRESS	-0.2615599
-4.323994	IMPRESSED	-0.3004538
-5.022964	IMPRESSING	-0.2053429
-4.420904	IMPRESSION	-0.1947997
-3.909021	IMPRESSIVE	-0.3854963
-4.119874	IMPROVE	-0.3838581
-4.545843	IMPROVED	-0.4210849
-4.244813	IMPROVEMENT	-0.2883124
-4.420904	IMPROVEMENTS	-0.2609331
-4.721934	IMPROVING	-0.1992811
-5.022964	IMPULSE	-0.2053429
-5.022964	IMPULSIVE	-0.2053429
-1.896184	IN	-0.5162491
-4.545843	INCENTIVE	-0.1886517
-5.022964	INCIDENCE	-0.2536128
-3.909021	INCIDENT	-0.761057
-4.545843	INCIDENTS	-0.1993002
-5.022964	INCITEMENT	-0.2655829
-4.721934	INCLINED	-0.3827326
-4.119874	INCLUDE	-0.436757
-4.244813	INCLUDED	-0.3424292
-4.420904	INCLUDES	-0.395369
-4.545843	INCLUDING	-0.2310679
-4.721934	INCLUSION	-0.2508472
-4.420904	INCLUSIVE	-0.3532174
-4.721934	INCOME	-0.2614146
-5.022964	INCOMING	-0.2655005
-5.022964	INCONGRUOUS	-0.2053429
-5.022964	INCORRECT	-0.2053429
-3.981571	INCREASE	-0.2869516
-4.721934	INCREASED	-0.1808912
-3.909021	INCREASES	-0.497965
-4.177866	INCREASING	-0.2129157
-3.767692	INDEED	-0.3274388
-4.545843	INDEPENDENT	-0.331959
-5.022964	INDEX	-0.2600648
-4.721934	INDIA	-0.3327638
-5.022964	INDICATE	-0.2537313
-5.022964	INDICATED	-0.2605611
-5.022964	INDICATES	-0.2605611
-5.022964	INDIVIDUAL	-0.2053429
-5.022964	INDOORS	-0.2053429
-4.721934	INDUSTRIAL	-0.2653563
-3.575806	INDUSTRY	-0.6016812
-5.022964	INEVITABLE	-0.2053429
-5.022964	INFANTS	-0.2053429
-5.022964	INFECTION	-0.2654511
-5.022964	INFECTIOUS	-0.2053429
-4.244813	INFLATION	-0.3999043
-3.876836	INFLUENCE	-0.3228917
-4.545843	INFLUENCED	-0.4801327
-4.721934	INFORMATION	-0.2630171
-4.420904	INFORMED	-0.2494726
-5.022964	INGENIOUS	-0.2053429
-5.022964	INHERENT	-0.2600648
-5.022964	INHERIT	-0.2537313
-5.022964	INHERITED	-0.2444113
-4.119874	INITIAL	-0.2645311
-5.022964	INITIATED	-0.2444113
-5.022964	INJECTED	-0.2654634
-5.022964	INJECTING	-0.2656077
-5.022964	INJECTION	-0.2053429
-3.876836	INJURED	-0.9482698
-3.792515	INJURIES	-0.771964
-3.876836	INJURY	-0.325298
-5.022964	INJUSTICE	-0.2574535
-5.022964	INMATES	-0.2053429
-5.022964	INN	-0.2053429
-5.022964	INNINGS	-0.2053429
-4.721934	INNOCENCE	-0.3327638
-4.119874	INNOCENT	-0.306466
-5.022964	INPUT	-0.2053429
-3.981571	INQUIRIES	-0.3187582
-3.680542	INQUIRY	-0.4601434
-5.022964	INROADS	-0.2600648
-5.022964	INSANE	-0.2053429
-3.981571	INSIDE	-0.2566375
-4.545843	INSIDER	-0.3454518
-4.022964	INSISTED	-0.3375559
-5.022964	INSISTS	-0.2444113
-5.022964	INSPECTIONS	-0.2622955
-5.022964	INSPECTOR	-0.2053429
-5.022964	INSPECTORS	-0.2053429
-4.545843	INSPIRED	-0.2846039
-4.545843	INSPIRING	-0.2047699
-5.022964	INSTALMENT	-0.2053429
-5.022964	INSTANCE	-0.2536128
-4.721934	INSTANT	-0.3327638
-4.323994	INSTANTLY	-0.2399746
-4.022964	INSTEAD	-0.2758455
-5.022964	INSTINCTIVE	-0.2655047
-5.022964	INSTINCTS	-0.2053429
-4.721934	INSTITUTE	-0.2598771
-5.022964	INSTRUCTED	-0.2553118
-5.022964	INSTRUCTING	-0.2656118
-4.721934	INSTRUCTIONS	-0.2624656
-5.022964	INSTRUMENT	-0.26555
-4.721934	INSULT	-0.3327638
-5.022964	INSULTED	-0.2648243
-5.022964	INSULTING	-0.2655953
-4.119874	INSURANCE	-0.2813952
-5.022964	INSURED	-0.2053429
-5.022964	INTEGRAL	-0.2653233
-4.068722	INTEND	-0.9896959
-4.545843	INTENDED	-0.4710537
-4.323994	INTENDS	-0.7147929
-4.420904	INTENSE	-0.2548756
-4.545843	INTENSIVE	-0.3462147
-4.545843	INTENT	-0.2830295
-4.323994	INTENTION	-0.2340482
-4.721934	INTENTIONS	-0.3897163
-5.022964	INTENTS	-0.2629259
-3.909021	INTEREST	-0.4039985
-3.560566	INTERESTED	-0.8383112
-3.680542	INTERESTING	-0.258963
-4.420904	INTERESTS	-0.3106804
-4.420904	INTERFERE	-0.3305196
-4.323994	INTERIM	-0.3642214
-5.022964	INTERIOR	-0.2656118
-4.323994	INTERNAL	-0.3117169
-4.721934	INTERNATIONAL	-0.2655871
-4.068722	INTERNET	-0.3577076
-5.022964	INTERVAL	-0.2603443
-4.721934	INTERVENE	-0.3327638
-4.721934	INTERVIEW	-0.1808912
-4.545843	INTERVIEWED	-0.1902079
-5.022964	INTERVIEWS	-0.2053429
-5.022964	INTIMATE	-0.2053429
-3.177866	INTO	-0.3983631
-5.022964	INTRICATE	-0.2629259
-5.022964	INTRIGUING	-0.2648119
-4.721934	INTRODUCE	-0.2323595
-4.545843	INTRODUCED	-0.2593549
-5.022964	INTRUSION	-0.2640229
-5.022964	INTRUSIVE	-0.2053429
-5.022964	INVASION	-0.2053429
-4.545843	INVENTED	-0.1664032
-5.022964	INVENTIVE	-0.2656035
-5.022964	INVENTORIES	-0.2622955
-4.420904	INVERNESS	-0.3562193
-4.721934	INVEST	-0.3327638
-5.022964	INVESTED	-0.2600648
-5.022964	INVESTIGATION	-0.2603443
-5.022964	INVESTING	-0.2600648
-3.700745	INVESTMENT	-0.3226076
-4.721934	INVESTMENTS	-0.2003308
-4.545843	INVESTOR	-0.2653975
-3.943783	INVESTORS	-0.3978912
-4.420904	INVITED	-0.4055773
-3.443181	INVOLVED	-0.9705595
-4.545843	INVOLVEMENT	-0.1936587
-5.022964	INVOLVING	-0.2444113
-5.022964	IONA	-0.2053429
-4.420904	IRA	-0.2520559
-5.022964	IRAN	-0.2053429
-4.177866	IRAQ	-0.3444969
-4.545843	IRAQI	-0.4804961
-3.909021	IRELAND	-0.7623735
-4.323994	IRISH	-0.3205504
-5.022964	IRISHMEN	-0.2053429
-4.721934	IRONY	-0.1959522
-5.022964	IRRATIONAL	-0.2053429
-4.545843	IRVINE	-0.285069
-1.564477	IS	-0.5820081
-4.420904	ISLAM	-0.5640465
-4.177866	ISLAND	-0.4714194
-4.721934	ISLES	-0.3327638
-3.360206	ISN'T	-0.531211
-4.545843	ISRAEL	-0.2022606
-4.244813	ISRAELI	-0.2651997
-3.274776	ISSUE	-0.6680489
-4.420904	ISSUED	-0.1835962
-3.909021	ISSUES	-0.8757525
-1.583947	IT	-0.8657184
-4.721934	IT'LL	-0.3888022
-2.303633	IT'S	-0.8251053
-4.721934	ITALIAN	-0.2655788
-4.068722	ITALY	-0.2995501
-5.022964	ITEM	-0.2053429
-5.022964	ITEMS	-0.2053429
-6.5804	ITHE
-6.5804	ITI
-6.5804	ITIS
-3.114479	ITS	-0.3867571
-3.744211	ITSELF	-0.4421971
-5.022964	IVORY	-0.2648614
-4.420904	JACK	-0.2574535
-6.5804	JACKED
-5.022964	JACKIE	-0.2536128
-4.323994	JACKSON	-0.3118675
-5.022964	JACQUES	-0.2656118
-4.420904	JAIL	-0.2596576
-4.420904	JAILED	-0.3516082
-5.022964	JAILING	-0.2649315
-5.022964	JAMMING	-0.2641676
-4.420904	JANUARY	-0.2253123
-5.022964	JAPAN	-0.2053429
-5.022964	JAZZ	-0.2053429
-4.721934	JEALOUSY	-0.3327638
-5.022964	JEREMY	-0.2645848
-4.721934	JERSEY	-0.3327638
-5.022964	JEWS	-0.2053429
-4.721934	JIGSAW	-0.3327638
-4.068722	JIM	-0.3796953
-4.721934	JIMMY	-0.2655541
-3.177866	JOB	-0.6555719
-4.177866	JOBS	-0.2756598
-5.022964	JOCK	-0.2655706
-3.818844	JOHN	-0.4118293
-5.022964	JOHNNY	-0.2574535
-5.022964	JOHNSEN	-0.2536128
-4.420904	JOHNSON	-0.292009
-4.545843	JOHNSTON	-0.3348994
-4.721934	JOHNSTONE	-0.2503611
-4.119874	JOIN	-0.4185645
-4.545843	JOINED	-0.1902079
-5.022964	JOINER	-0.2053429
-4.721934	JOINT	-0.265381
-4.244813	JOKE	-0.4870078
-5.022964	JOKED	-0.2053429
-5.022964	JOLLY	-0.2053429
-4.721934	JON	-0.3327638
-4.545843	JONES	-0.2721929
-4.323994	JOURNAL	-0.2453265
-4.420904	JOURNALIST	-0.5640465
-4.420904	JOURNALISTS	-0.3554044
-4.323994	JOURNEY	-0.2508411
-5.022964	JOURNEYMAN	-0.2053429
-4.323994	JOY	-0.2856924
-5.022964	JUBILEE	-0.2624531
-4.068722	JUDGE	-0.3463374
-4.545843	JUDGED	-0.2846039
-4.545843	JUDGES	-0.241033
-4.244813	JUDGMENT	-0.273398
-4.721934	JUDICIAL	-0.3929461
-5.022964	JUDITH	-0.2053429
-4.119874	JULY	-0.564353
-5.022964	JUMPED	-0.2053429
-4.177866	JUNE	-0.4219175
-4.721934	JUNIOR	-0.2653769
-4.323994	JURY	-0.5110738
-2.505768	JUST	-0.3950681
-3.846873	JUSTICE	-0.6430953
-4.721934	JUSTIFIED	-0.3327638
-4.545843	JUSTIFY	-0.2027274
-5.022964	KABUL	-0.2053429
-5.022964	KEANE	-0.2536128
-5.022964	KEEGAN	-0.2053429
-3.909021	KEEN	-0.9079095
-3.4319	KEEP	-0.4483861
-4.721934	KEEPING	-0.2480253
-4.545843	KENNEDY	-0.2434457
-4.545843	KENNY	-0.343574
-5.022964	KENT	-0.2053429
-3.700745	KEPT	-0.1888788
-5.022964	KEVIN	-0.2656118
-3.767692	KEY	-0.3371654
-5.022964	KEYNOTE	-0.2655912
-4.323994	KICK	-0.2434727
-4.721934	KICKING	-0.1989594
-5.022964	KID	-0.2053429
-5.022964	KIDNAP	-0.2053429
-5.022964	KIDNAPPERS	-0.2053429
-4.721934	KIDNEY	-0.2519241
-4.323994	KIDS	-0.3797583
-4.545843	KILL	-0.2039303
-3.744211	KILLED	-0.5725072
-4.177866	KILLER	-0.26912
-4.323994	KILLING	-0.3115528
-4.244813	KILMARNOCK	-0.4870078
-3.575806	KIND	-1.701545
-5.022964	KINDER	-0.2633568
-4.721934	KINDS	-0.3874315
-4.420904	KING	-0.1844512
-5.022964	KING'S	-0.2655541
-4.721934	KINGDOM	-0.3327638
-4.721934	KINGFISHER	-0.2644486
-5.022964	KIRKWOOD	-0.2574535
-4.721934	KITCHEN	-0.3327638
-4.721934	KNEE	-0.3327638
-5.022964	KNEES	-0.2053429
-3.443181	KNEW	-0.3010205
-5.022964	KNIFE	-0.2053429
-4.721934	KNOCKED	-0.3924308
-5.022964	KNOCKOUT	-0.2633568
-2.876836	KNOW	-0.4482758
-4.721934	KNOWING	-0.2436928
-4.323994	KNOWLEDGE	-0.3011512
-3.909021	KNOWN	-0.7376097
-3.818844	KNOWS	-0.3531734
-4.545843	KOSOVO	-0.4210849
-4.721934	KREMLIN	-0.2036787
-5.022964	LABEL	-0.2607361
-5.022964	LABELLING	-0.2053429
-3.389496	LABOUR	-0.3391878
-4.721934	LABOUR'S	-0.2651213
-5.022964	LABOURERS	-0.265587
-3.981571	LACK	-1.073576
-4.244813	LADEN	-0.3857978
-4.244813	LADS	-0.4687658
-4.323994	LADY	-0.231506
-4.545843	LAID	-0.2046988
-5.022964	LAMBERT	-0.2624531
-5.022964	LANCASHIRE	-0.2653686
-4.420904	LAND	-0.5640465
-4.721934	LANDLORD	-0.3327638
-5.022964	LANDOWNER	-0.2053429
-4.721934	LANDSCAPE	-0.3327638
-4.022964	LANGUAGE	-0.398138
-5.022964	LARA	-0.2536128
-4.119874	LARGE	-0.3480477
-4.721934	LARGELY	-0.2642751
-5.022964	LARGER	-0.2655541
-5.022964	LAS	-0.2656118
-2.876836	LAST	-0.5861487
-4.420904	LASTED	-0.2030225
-5.022964	LASTING	-0.2655953
-3.943783	LATE	-0.7900227
-5.022964	LATELY	-0.2605611
-3.259536	LATER	-0.3968905
-5.022964	LATEST	-0.2653109
-3.943783	LATTER	-0.221333
-4.244813	LAUGH	-0.5448902
-4.545843	LAUGHS	-0.4210849
-4.244813	LAUNCHED	-0.2855876
-5.022964	LAURA	-0.2536128
-3.767692	LAW	-0.2927868
-5.022964	LAWYER	-0.2053429
-4.721934	LAWYERS	-0.3327638
-5.022964	LAY	-0.2652574
-4.119874	LEAD	-0.2467653
-3.909021	LEADER	-0.3357574
-4.119874	LEADERS	-0.1867195
-4.323994	LEADERSHIP	-0.464754
-4.420904	LEADING	-0.2642668
-5.022964	LEAF	-0.2053429
-3.625024	LEAGUE	-0.9934361
-3.744211	LEARN	-0.3769176
-3.744211	LEARNED	-0.6100871
-4.420904	LEARNING	-0.2643307
-4.721934	LEARY	-0.256525
-4.420904	LEAST	-0.2636248
-3.818844	LEAVE	-0.229112
-4.545843	LEAVES	-0.3125923
-4.323994	LEAVING	-0.3591234
-4.721934	LED	-0.3827326
-5.022964	LEE	-0.2656118
-3.369752	LEFT	-0.3725641
-4.721934	LEG	-0.3327638
-4.545843	LEGACY	-0.1899873
-3.981571	LEGAL	-0.2695845
-5.022964	LEGALLY	-0.2656118
-4.244813	LEGEND	-0.4074029
-4.545843	LEGISLATION	-0.1818263
-5.022964	LEICESTER	-0.2641676
-5.022964	LEIGHTON	-0.2624531
-5.022964	LEISURE	-0.2656077
-5.022964	LENGTH	-0.2600106
-5.022964	LENGTHY	-0.2655953
-5.022964	LENNON	-0.2536128
-4.721934	LENNOX	-0.3930285
-5.022964	LESBIAN	-0.2053429
-4.177866	LESS	-0.3419573
-5.022964	LESSEN	-0.2444113
-4.323994	LESSON	-0.2267779
-4.068722	LESSONS	-0.3513678
-5.022964	LESTER	-0.2574535
-3.560566	LET	-0.339697
-3.876836	LET'S	-0.5031947
-4.119874	LETTER	-0.2532569
-4.545843	LETTERS	-0.1984067
-5.022964	LETTING	-0.254146
-3.625024	LEVEL	-0.5283216
-4.420904	LEVELS	-0.2600927
-4.721934	LEVY	-0.3922162
-4.721934	LEWIS	-0.3327638
-5.022964	LIAISON	-0.2655912
-4.721934	LIAR	-0.3327638
-4.244813	LIBERAL	-0.5328268
-4.545843	LIBERTY	-0.4210849
-5.022964	LIBRARY	-0.2053429
-5.022964	LIBYA	-0.2536128
-4.721934	LICENCE	-0.254256
-5.022964	LICENCES	-0.2053429
-5.022964	LICENSING	-0.2600106
-5.022964	LID	-0.2630212
-4.323994	LIE	-0.4643657
-4.244813	LIES	-0.3237662
-3.010127	LIFE	-0.6696445
-5.022964	LIFEBOAT	-0.2536128
-4.545843	LIFELINE	-0.2813107
-4.545843	LIFESTYLE	-0.2721929
-5.022964	LIFT	-0.2444113
-4.721934	LIFTED	-0.2052862
-5.022964	LIGAMENTS	-0.2600648
-4.022964	LIGHT	-0.3080953
-5.022964	LIGHTNING	-0.2600648
-2.744211	LIKE	-0.6681925
-4.119874	LIKED	-0.4490694
-5.022964	LIKELIHOOD	-0.2536128
-3.846873	LIKELY	-0.3669943
-4.721934	LIMELIGHT	-0.3327638
-3.909021	LIMITED	-0.3681952
-5.022964	LIMITS	-0.2053429
-3.792515	LINE	-0.3653333
-4.545843	LINES	-0.2838055
-4.545843	LINK	-0.4210849
-4.420904	LINKED	-0.2518562
-4.721934	LINKS	-0.253312
-5.022964	LIONS	-0.2053429
-4.119874	LIST	-0.5505579
-5.022964	LISTED	-0.2630212
-3.943783	LISTEN	-0.4751485
-4.721934	LISTENED	-0.1934837
-5.022964	LISTENER	-0.2650965
-5.022964	LISTENERS	-0.2636962
-4.323994	LISTENING	-0.2906021
-5.022964	LISTENS	-0.2553118
-5.022964	LISTS	-0.2053429
-3.323994	LITTLE	-0.3256034
-3.560566	LIVE	-0.5182804
-4.420904	LIVED	-0.2574271
-5.022964	LIVELIHOOD	-0.2053429
-4.721934	LIVERPOOL	-0.3327638
-3.818844	LIVES	-0.8134328
-4.119874	LIVING	-0.2224646
-4.545843	LIVINGSTON	-0.4210849
-5.022964	LIVINGSTONE	-0.2655541
-4.545843	LOAD	-0.4757526
-4.721934	LOAN	-0.1915241
-4.545843	LOBBY	-0.191485
-3.767692	LOCAL	-0.275988
-5.022964	LOCALLY	-0.2648531
-5.022964	LOCATE	-0.2600648
-4.545843	LOCATED	-0.2571218
-4.721934	LOCATION	-0.2050352
-5.022964	LOCATIONS	-0.2648614
-4.721934	LOCKERBIE	-0.2628721
-5.022964	LOGAN	-0.2053429
-4.420904	LOGIC	-0.2514713
-4.323994	LOGICAL	-0.193435
-3.744211	LONDON	-0.558414
-2.997658	LONG	-0.661256
-4.420904	LONGER	-0.3169732
-3.184115	LOOK	-0.6266888
-3.744211	LOOKED	-0.4250663
-3.216784	LOOKING	-0.9871877
-3.680542	LOOKS	-0.4347344
-4.721934	LOOP	-0.3327638
-5.022964	LOOSE	-0.2053429
-4.068722	LORD	-0.3246245
-5.022964	LORDS	-0.2641676
-3.876836	LOSE	-0.2590626
-5.022964	LOSER	-0.2053429
-4.545843	LOSERS	-0.285453
-5.022964	LOSES	-0.2655129
-4.323994	LOSING	-0.2507278
-4.022964	LOSS	-0.4298467
-4.323994	LOSSES	-0.381369
-3.420904	LOST	-0.2901777
-2.929543	LOT	-1.087491
-4.420904	LOTHIAN	-0.3532174
-4.420904	LOTS	-0.6187142
-4.545843	LOTTERY	-0.2627684
-3.306961	LOVE	-0.6068532
-3.943783	LOVED	-0.3527521
-6.5804	LOVEIT
-3.876836	LOVELY	-0.2591185
-5.022964	LOVES	-0.2444113
-5.022964	LOVING	-0.2605611
-4.022964	LOW	-0.2765105
-4.721934	LOWER	-0.2430858
-4.721934	LOWEST	-0.2599647
-5.022964	LOYAL	-0.2053429
-5.022964	LOYALIST	-0.2655458
-4.721934	LOYALTY	-0.3927236
-4.721934	LUCK	-0.3327638
-4.721934	LUCKILY	-0.2605944
-3.517814	LUCKY	-0.4719178
-5.022964	LUKEWARM	-0.2053429
-4.545843	LUNCHTIME	-0.2856661
-5.022964	LUXURY	-0.2631041
-5.022964	LYCEUM	-0.2053429
-4.721934	LYING	-0.2552443
-4.721934	LYRICAL	-0.3327638
-6.5804	M
-4.545843	MACDONALD	-0.2831248
-4.721934	MACHINE	-0.3327638
-5.022964	MACKAY	-0.2053429
-5.022964	MACKIE	-0.2574535
-5.022964	MAD	-0.2053429
-2.997658	MADE	-0.4291457
-4.721934	MADNESS	-0.3327638
-4.721934	MAGAZINE	-0.2050352
-4.323994	MAGIC	-0.4647729
-4.323994	MAGICAL	-0.3037913
-4.721934	MAGICIAN	-0.3327638
-5.022964	MAGPIES	-0.2053429
-5.022964	MAIL	-0.2053429
-3.876836	MAIN	-0.2539216
-4.177866	MAINLY	-0.328361
-4.721934	MAINSTREAM	-0.3327638
-4.545843	MAINTAIN	-0.3250628
-4.420904	MAINTAINED	-0.3504969
-3.680542	MAJOR	-0.2899126
-4.420904	MAJORS	-0.5640465
-2.997658	MAKE	-0.5343781
-5.022964	MAKER	-0.2574535
-3.661236	MAKES	-0.4194922
-3.661236	MAKING	-0.305309
-5.022964	MALCOLM	-0.2656118
-4.721934	MALE	-0.2655418
-4.721934	MALONEY	-0.2452195
-3.142151	MAN	-0.562203
-4.721934	MANAGE	-0.2441301
-4.119874	MANAGED	-0.4345674
-3.744211	MANAGEMENT	-0.2754842
-5.022964	MANAGEMENTS	-0.2622955
-3.575806	MANAGER	-0.5423463
-4.721934	MANAGER'S	-0.2649522
-4.244813	MANAGERS	-0.2865296
-5.022964	MANAGING	-0.254146
-4.177866	MANCHESTER	-0.4108385
-4.721934	MANDATE	-0.2494086
-4.545843	MANNER	-0.1848681
-3.153733	MANY	-0.2950206
-5.022964	MARATHON	-0.2053429
-4.177866	MARCH	-0.4294535
-5.022964	MARCONI	-0.2536128
-4.545843	MARGARET	-0.1818263
-4.545843	MARGIN	-0.3420085
-4.721934	MARGINS	-0.2579024
-4.177866	MARK	-0.3124284
-5.022964	MARKER	-0.2652574
-3.5916	MARKET	-0.305923
-4.721934	MARKETED	-0.2618179
-4.323994	MARKETING	-0.2635596
-4.177866	MARKETS	-0.4743123
-4.545843	MARRIAGE	-0.2795658
-5.022964	MARRIAGES	-0.2622955
-3.909021	MARRIED	-0.7898874
-4.545843	MARSHALL	-0.2435497
-4.721934	MARTIN	-0.2655541
-4.420904	MARVELLOUS	-0.3562619
-4.721934	MARY	-0.2536043
-5.022964	MASON	-0.2536128
-4.721934	MASS	-0.3930285
-4.721934	MASSACRE	-0.3327638
-3.876836	MASSIVE	-0.2038497
-4.721934	MASTER	-0.2517412
-5.022964	MASTERFUL	-0.2656118
-5.022964	MASTERLY	-0.2654346
-4.721934	MASTERS	-0.3327638
-5.022964	MASTERTON	-0.2647954
-3.575806	MATCH	-0.6303101
-3.981571	MATCHES	-0.3959166
-4.545843	MATERIAL	-0.334163
-5.022964	MATERNAL	-0.2656118
-3.159641	MATTER	-0.9537628
-5.022964	MATTERED	-0.2053429
-3.876836	MATTERS	-0.4722359
-5.022964	MAXIMUM	-0.2600106
-3.142151	MAY	-0.6354273
-3.680542	MAYBE	-0.2097887
-4.721934	MAYHEM	-0.3327638
-5.022964	MCCARTHY	-0.2647954
-5.022964	MCKENNA	-0.2053429
-5.022964	MCLEAN	-0.2053429
-5.022964	MCNEILL	-0.2574535
-2.739663	ME	-0.5864017
-3.700745	MEAN	-0.2201712
-5.022964	MEANING	-0.2536128
-4.721934	MEANINGFUL	-0.2655005
-3.680542	MEANS	-0.2709146
-4.244813	MEANT	-0.2451066
-4.119874	MEANTIME	-0.2616166
-4.068722	MEANWHILE	-0.5326821
-4.545843	MEASURE	-0.3285182
-4.323994	MEASURES	-0.2980706
-5.022964	MEASURING	-0.254146
-5.022964	MEAT	-0.2650182
-4.068722	MEDAL	-0.2633253
-4.721934	MEDALS	-0.3327638
-4.177866	MEDIA	-0.4751707
-3.981571	MEDICAL	-0.285699
-5.022964	MEDICATION	-0.2053429
-5.022964	MEDICINE	-0.2053429
-5.022964	MEDICINES	-0.2053429
-4.721934	MEDIUM	-0.2052152
-3.767692	MEET	-0.291913
-3.981571	MEETING	-0.2392105
-4.420904	MEETINGS	-0.3144754
-3.943783	MEMBER	-1.027714
-3.876836	MEMBERS	-0.2857378
-4.721934	MEMBERSHIP	-0.3327638
-4.721934	MEMORIAL	-0.3327638
-4.545843	MEMORIES	-0.1987816
-4.323994	MEMORY	-0.4509588
-3.517814	MEN	-0.4749926
-4.420904	MENTAL	-0.2652079
-4.545843	MENTALLY	-0.2637086
-4.545843	MENTION	-0.2795658
-4.323994	MENTIONED	-0.3070346
-5.022964	MENTOR	-0.2053429
-5.022964	MENU	-0.2053429
-5.022964	MERELY	-0.264783
-4.068722	MERGER	-0.195729
-4.323994	MERIT	-0.4583941
-4.323994	MESS	-0.6648241
-3.721934	MESSAGE	-0.5210505
-4.721934	MESSAGES	-0.2601567
-3.981571	MET	-0.3400785
-4.721934	METAPHOR	-0.2006419
-4.545843	METHOD	-0.4757526
-5.022964	MEXICO	-0.2654923
-5.022964	MIAMI	-0.2053429
-4.022964	MICHAEL	-0.2203163
-5.022964	MICHAEL'S	-0.2655953
-5.022964	MICHELLE	-0.2053429
-4.119874	MIDDLE	-0.2644244
-5.022964	MIDLAND	-0.2631041
-5.022964	MIDLANDS	-0.2053429
-4.721934	MIDNIGHT	-0.2051489
-5.022964	MIDWEEK	-0.2053429
-3.244813	MIGHT	-0.4625289
-5.022964	MIGHTILY	-0.2655623
-4.721934	MIKE	-0.3930203
-5.022964	MILBURN	-0.2444113
-5.022964	MILE	-0.2053429
-4.545843	MILES	-0.284827
-5.022964	MILESTONE	-0.2600648
-4.119874	MILITARY	-0.2640086
-4.545843	MILK	-0.2627932
-4.721934	MILLENNIUM	-0.2655624
-4.323994	MILLER	-0.2440046
-4.420904	MILLION	-0.3237751
-4.721934	MILLIONAIRE	-0.3327638
-4.323994	MILLIONS	-0.4583317
-3.560566	MIND	-0.6756557
-4.545843	MINDS	-0.4210849
-4.721934	MINE	-0.3327638
-4.721934	MINI	-0.2654346
-4.721934	MINIMAL	-0.2052246
-4.420904	MINIMUM	-0.2579413
-5.022964	MINING	-0.265587
-3.389496	MINISTER	-0.4477831
-3.909021	MINISTERS	-0.3160865
-5.022964	MINISTRY	-0.2600106
-5.022964	MINNOWS	-0.2053429
-4.721934	MINOR	-0.2654923
-5.022964	MINUTE	-0.2053429
-3.700745	MINUTES	-0.3365456
-4.177866	MIRACLE	-0.5414246
-4.721934	MIRACLES	-0.3327638
-5.022964	MIRROR	-0.2053429
-5.022964	MISCONDUCT	-0.2053429
-4.721934	MISERABLE	-0.2645601
-5.022964	MISGUIDED	-0.2053429
-4.721934	MISLEADING	-0.2551599
-5.022964	MISPLACED	-0.2053429
-3.818844	MISS	-0.458783
-3.943783	MISSED	-0.5498433
-4.244813	MISSING	-0.2882929
-4.177866	MISSION	-0.4655119
-3.700745	MISTAKE	-0.8326186
-4.119874	MISTAKES	-0.4234689
-4.721934	MITCHELL	-0.2452195
-4.420904	MIX	-0.2614147
-4.119874	MIXED	-0.2968861
-5.022964	MIXING	-0.2655747
-4.545843	MIXTURE	-0.4757526
-5.022964	MO	-0.2053429
-4.545843	MOBILE	-0.265587
-4.545843	MOD	-0.4788461
-4.721934	MODEL	-0.1915241
-4.545843	MODERN	-0.2651666
-5.022964	MODEST	-0.2053429
-4.721934	MODIFIED	-0.3327638
-3.259536	MOMENT	-0.4909058
-5.022964	MOMENTOUS	-0.2053429
-4.244813	MOMENTS	-0.4019548
-4.721934	MONACO	-0.3327638
-4.119874	MONDAY	-0.4808812
-5.022964	MONETARY	-0.2655294
-3.153733	MONEY	-0.5192327
-4.721934	MONITOR	-0.3718322
-5.022964	MONITORED	-0.2053429
-4.545843	MONSTER	-0.2721929
-5.022964	MONTE	-0.2656118
-3.721934	MONTH	-0.469618
-3.50445	MONTHS	-0.5628419
-5.022964	MONTY	-0.2536128
-4.721934	MONUMENT	-0.1934837
-4.244813	MOOD	-0.3092473
-4.545843	MOON	-0.4210849
-5.022964	MOOTED	-0.2537313
-4.420904	MORAL	-0.3928349
-4.721934	MORALE	-0.2478494
-4.721934	MORAY	-0.2051915
-3.177866	MORE	-0.343831
-5.022964	MOREOVER	-0.254146
-3.744211	MORNING	-0.7631161
-4.420904	MORTGAGE	-0.2643023
-4.721934	MOSCOW	-0.1989594
-3.744211	MOST	-0.4274607
-5.022964	MOSTLY	-0.2656118
-3.876836	MOTHER	-0.3141921
-5.022964	MOTHER'S	-0.2655253
-4.177866	MOTHERWELL	-0.2797995
-5.022964	MOTION	-0.2655541
-5.022964	MOTIONS	-0.2633568
-4.721934	MOTIVE	-0.3889477
-4.420904	MOTORISTS	-0.2557068
-5.022964	MOUNTAIN	-0.2553118
-5.022964	MOUNTED	-0.2654511
-5.022964	MOUSTACHE	-0.2053429
-4.721934	MOUTH	-0.2053288
-3.491485	MOVE	-0.3833033
-4.119874	MOVED	-0.2276514
-4.420904	MOVEMENT	-0.1929629
-4.068722	MOVIE	-0.3620207
-5.022964	MOVIES	-0.2053429
-3.981571	MOVING	-0.273654
-4.323994	MS	-0.3121085
-3.005931	MUCH	-0.4381274
-5.022964	MUDDLE	-0.2053429
-4.721934	MULTIPLE	-0.2655418
-5.022964	MULTIPLY	-0.2053429
-5.022964	MULTITUDE	-0.2600106
-4.721934	MUM	-0.3327638
-5.022964	MUMMY	-0.2655005
-4.119874	MURDER	-0.564069
-4.545843	MURDERED	-0.4210849
-4.177866	MURRAY	-0.3124763
-4.721934	MURRAY'S	-0.3929832
-5.022964	MUSCULAR	-0.265447
-4.721934	MUSEUM	-0.3327638
-3.661236	MUSIC	-0.689716
-4.545843	MUSICAL	-0.2653852
-5.022964	MUSICALS	-0.2636962
-4.721934	MUSICIAN	-0.3327638
-4.420904	MUSICIANS	-0.315642
-5.022964	MUSLIM	-0.2655829
-3.018643	MUST	-0.570451
-5.022964	MUTUAL	-0.2053429
-2.537243	MY	-0.5080811
-3.680542	MYSELF	-0.6407951
-5.022964	MYSTERIES	-0.2053429
-4.068722	MYSTERY	-0.3875241
-5.022964	MYSTICAL	-0.2053429
-3.5916	NAME	-0.3749708
-4.119874	NAMED	-0.5640311
-4.420904	NAMES	-0.3289469
-5.022964	NANCY	-0.2536128
-4.545843	NARRATIVE	-0.4210849
-5.022964	NARROW	-0.2655953
-5.022964	NARROWING	-0.2053429
-3.792515	NATION	-0.5905148
-3.466662	NATIONAL	-0.2430764
-4.721934	NATIONS	-0.2570294
-5.022964	NATIONWIDE	-0.2655129
-4.244813	NATO	-0.225998
-4.119874	NATURAL	-0.2936659
-4.420904	NATURALLY	-0.2525994
-3.767692	NATURE	-1.450479
-4.721934	NEAR	-0.3327638
-4.119874	NEARLY	-0.4048105
-5.022964	NECESSARY	-0.2655211
-3.054481	NEED	-0.9775741
-3.5916	NEEDED	-0.3425012
-3.818844	NEEDS	-0.612891
-4.119874	NEGATIVE	-0.476135
-4.545843	NEGLECTED	-0.1975307
-5.022964	NEGLIGENT	-0.2053429
-4.721934	NEIGHBOUR	-0.3922162
-5.022964	NEIGHBOURHOOD	-0.2053429
-5.022964	NEIGHBOURING	-0.2656035
-4.545843	NEIGHBOURS	-0.2821948
-4.420904	NEIL	-0.2509579
-4.323994	NEILL	-0.2350235
-3.876836	NEITHER	-0.2733921
-4.721934	NELSON	-0.2596057
-5.022964	NERVE	-0.2656118
-4.119874	NERVOUS	-0.3843124
-4.721934	NET	-0.1915241
-5.022964	NETHERLANDS	-0.2053429
-5.022964	NETTLE	-0.2053429
-4.721934	NETWORK	-0.3327638
-2.787436	NEVER	-0.4205213
-2.867628	NEW	-0.2900876
-4.721934	NEWCASTLE	-0.2017074
-4.721934	NEWCOMER	-0.1934837
-3.29057	NEWS	-0.8685241
-5.022964	NEWSPAPER	-0.2053429
-4.177866	NEWSPAPERS	-0.3649544
-3.068722	NEXT	-0.6618501
-3.545843	NICE	-0.9832779
-5.022964	NICHOLSON	-0.2053429
-5.022964	NICOLSON	-0.2536128
-5.022964	NICOTINE	-0.2622955
-3.165632	NIGHT	-0.4931651
-4.022964	NIGHTMARE	-0.8947287
-5.022964	NIGHTS	-0.2053429
-3.943783	NINE	-0.3097245
-2.326608	NO	-0.3528228
-3.607991	NOBODY	-0.3269652
-4.022964	NONE	-1.257466
-5.022964	NONETHELESS	-0.2444113
-3.943783	NONSENSE	-0.9739728
-4.119874	NOR	-0.2807028
-4.721934	NORM	-0.3327638
-4.119874	NORMAL	-0.3836378
-4.420904	NORMALLY	-0.2466762
-5.022964	NORMAN	-0.2574535
-4.323994	NORSEMEN	-0.7250146
-4.244813	NORTH	-0.3012615
-4.068722	NORTHERN	-0.9999465
-5.022964	NORTON	-0.2574535
-5.022964	NORWAY	-0.2536128
-1.951819	NOT	-0.400284
-5.022964	NOTABLE	-0.2643907
-4.721934	NOTE	-0.1808912
-4.545843	NOTED	-0.1856611
-6.5804	NOTHE
-3.10915	NOTHING	-0.5181178
-4.420904	NOTICE	-0.3426272
-4.177866	NOTICED	-0.4911373
-4.545843	NOVEL	-0.4210849
-4.244813	NOVEMBER	-0.5403548
-2.678572	NOW	-0.4073058
-5.022964	NOWADAYS	-0.254146
-4.177866	NOWHERE	-0.2682698
-5.022964	NUCLEAR	-0.2655912
-3.560566	NUMBER	-0.703714
-3.792515	NUMBERS	-0.5252371
-5.022964	NUMEROUS	-0.2656035
-5.022964	NURSES	-0.2636962
-4.420904	NURSING	-0.3324135
-3.981571	O	-0.5109169
-5.022964	OATH	-0.2053429
-4.323994	OBJECTIVE	-0.2981094
-4.244813	OBSERVED	-0.5325979
-4.721934	OBSERVER	-0.3929132
-4.721934	OBSESSED	-0.391084
-5.022964	OBSESSION	-0.2654099
-5.022964	OBSTRUCTION	-0.2053429
-4.119874	OBVIOUS	-0.3918082
-3.560566	OBVIOUSLY	-0.2398841
-4.022964	OCCASION	-0.3955374
-4.545843	OCCASIONS	-0.2799499
-5.022964	OCCUPIED	-0.2053429
-5.022964	OCCUR	-0.2053429
-4.420904	OCCURRED	-0.2549868
-4.068722	OCTOBER	-0.4816047
-4.545843	ODD	-0.2859644
-5.022964	ODDS	-0.2622955
-1.891988	OF	-0.4464927
-3.332768	OFF	-0.6931976
-4.119874	OFFENCE	-0.2826073
-5.022964	OFFENCES	-0.2053429
-5.022964	OFFENDED	-0.2053429
-5.022964	OFFENDER	-0.2656077
-5.022964	OFFENDERS	-0.2053429
-3.661236	OFFER	-0.3820194
-4.022964	OFFERED	-0.1913956
-4.721934	OFFERINGS	-0.2041582
-4.323994	OFFERS	-0.1837455
-3.5916	OFFICE	-0.5832574
-4.420904	OFFICER	-0.2495705
-4.244813	OFFICERS	-0.2320451
-4.323994	OFFICES	-0.2938787
-4.177866	OFFICIAL	-0.2370567
-4.022964	OFFICIALS	-0.2727948
-5.022964	OFFSIDE	-0.2053429
-4.022964	OFTEN	-0.3857862
-4.323994	OIL	-0.3120715
-4.545843	OKAY	-0.2796282
-3.531603	OLD	-0.3890412
-5.022964	OLDER	-0.2053429
-5.022964	OLYMPIAN	-0.2053429
-4.244813	OLYMPIC	-0.4084386
-4.545843	OLYMPICS	-0.4210849
-5.022964	OMEN	-0.2053429
-5.022964	OMENS	-0.2622955
-5.022964	OMISSION	-0.2053429
-2.225005	ON	-0.5701815
-3.818844	ONCE	-0.2912266
-2.633798	ONE	-0.3554798
-4.420904	ONES	-0.2579317
-4.244813	ONGOING	-0.204386
-6.5804	ONI
-4.721934	ONLINE	-0.2562051
-2.858611	ONLY	-0.3352955
-3.420904	OPEN	-0.3563841
-4.177866	OPENED	-0.2105825
-5.022964	OPENER	-0.2053429
-4.068722	OPENING	-0.2516783
-4.721934	OPENLY	-0.2656035
-4.721934	OPENNESS	-0.1915241
-4.545843	OPENS	-0.2441517
-4.119874	OPERA	-0.4427891
-4.323994	OPERATE	-0.1972077
-5.022964	OPERATION	-0.2624531
-3.876836	OPINION	-0.2461114
-5.022964	OPINIONS	-0.2536128
-5.022964	OPPONENT	-0.2053429
-4.721934	OPPONENTS	-0.2533459
-5.022964	OPPORTUNISM	-0.2053429
-5.022964	OPPORTUNITIES	-0.2053429
-5.022964	OPPORTUNITY	-0.2615269
-4.721934	OPPOSE	-0.3718322
-5.022964	OPPOSED	-0.2553118
-4.068722	OPPOSITE	-0.293742
-5.022964	OPPRESSIVE	-0.2053429
-3.5916	OPTION	-0.6013551
-5.022964	OPTIONAL	-0.2655994
-3.700745	OPTIONS	-0.4505771
-3.216784	OR	-0.3496101
-5.022964	ORANGE	-0.2655582
-4.244813	ORCHESTRA	-0.3248015
-4.545843	ORDEAL	-0.2813107
-3.876836	ORDER	-0.3338763
-4.721934	ORDERING	-0.2650636
-4.323994	ORDERS	-0.4597655
-4.721934	ORGANISED	-0.3327638
-5.022964	ORGANISERS	-0.2655047
-5.022964	ORKNEY	-0.2632615
-5.022964	ORLANDO	-0.2600648
-2.90239	OTHER	-0.3141878
-3.466662	OTHERS	-0.5175395
-4.022964	OTHERWISE	-0.3767856
-2.672716	OUR	-0.4069755
-5.022964	OURS	-0.2536128
-3.981571	OURSELVES	-1.018908
-2.855647	OUT	-0.5169926
-4.721934	OUTBREAK	-0.1808912
-3.846873	OUTCOME	-0.6142414
-5.022964	OUTCOMES	-0.2053429
-5.022964	OUTDATED	-0.2053429
