
\data\
ngram 1=10941

\1-grams:
-4.870654	!
-4.207897	"
-4.870654	"A
-5.569624	"According
-5.569624	"Alain
-5.569624	"An
-5.092503	"And
-5.569624	"Aristotle
-5.569624	"Art
-5.569624	"Ask
-5.569624	"At
-5.569624	"Because
-5.569624	"Buckingham
-4.870654	"But
-5.569624	"By
-5.569624	"Chelsea
-5.569624	"Clearly,
-5.569624	"Councillors
-5.569624	"Death
-5.569624	"Dewar
-5.569624	"Downing
-5.569624	"Everyone
-5.569624	"Everything
-5.569624	"First
-5.569624	"Four
-5.569624	"Frankly,
-5.569624	"George
-5.569624	"HARRY
-5.569624	"Half
-4.455681	"He
-5.569624	"He's
-5.569624	"Her
-5.569624	"Here,
-5.569624	"His
-5.569624	"Hospitals
-5.268594	"However,
-4.227201	"I
-5.569624	"I'm
-5.569624	"I,
-5.092503	"If
-5.569624	"Immediate
-5.569624	"In
-5.268594	"Is
-4.025556	"It
-4.528232	"It's
-5.569624	"Jim
-5.569624	"Last
-5.569624	"Many
-5.569624	"Maybe
-5.569624	"Meanwhile,
-5.569624	"Military
-5.569624	"Miller
-5.092503	"Mr
-5.268594	"My
-5.569624	"Neither
-5.569624	"Next
-5.569624	"No
-5.569624	"Nobody
-5.569624	"Nothing
-5.569624	"Oil
-5.569624	"On
-5.569624	"Other
-5.569624	"Others
-5.569624	"Parents
-5.268594	"People
-5.569624	"Please
-5.268594	"Police
-5.569624	"Previously,
-5.569624	"Russian
-5.268594	"Sadly,
-5.569624	"Scotland
-5.569624	"Several
-4.724526	"She
-5.569624	"Similar
-5.569624	"Since
-5.569624	"Sir
-5.569624	"Six
-5.268594	"So
-5.268594	"Some
-5.569624	"Suddenly,
-5.569624	"Suggestions
-5.569624	"Sunday's
-4.666534	"That
-4.05111	"The
-5.569624	"Then
-4.724526	"There
-5.569624	"There's
-5.569624	"These
-4.615382	"They
-4.666534	"This
-5.569624	"Throughout
-5.569624	"To
-5.569624	"Twaddle
-5.569624	"Waiting
-4.268594	"We
-5.268594	"We're
-5.268594	"We've
-5.569624	"Wednesday
-5.268594	"Well,
-5.569624	"What
-5.268594	"When
-5.268594	"Who
-5.268594	"You
-5.569624	"You've
-3.625142	)
-3.528232	,
-3.706301	-
-0.9253335	</s>
-99	<s>
-2.605837	?
-3.512719	?)
-2.919317	A
-5.268594	A,
-5.268594	ADVENTURE
-5.092503	ALL
-4.528232	Abbey
-5.268594	Abbey.
-4.455681	Aberdeen
-4.615382	Aberdeen,
-4.290871	Aberdeen.
-5.569624	Aberdeen.)
-4.870654	About
-4.791473	Above
-5.092503	Absences
-4.967565	Access
-4.290871	According
-4.967565	Accordingly,
-5.569624	Acting
-4.967565	Action
-4.870654	Actors
-4.724526	Actually,
-4.870654	Acute
-4.870654	Adams
-5.268594	Address
-5.569624	Admission
-5.092503	Adventure
-4.967565	Advice
-5.092503	Afghan
-4.247405	Afghan.
-5.569624	Afghan."
-5.268594	Afghan.)
-5.268594	Afghanistan
-4.290871	Africa
-4.227201	Africa.
-5.268594	Africa.)
-4.870654	African
-3.561024	After
-4.490443	Again
-4.365504	Again,
-4.967565	Agassi
-5.569624	Age
-4.967565	Agents
-4.666534	Agreement.
-4.314352	Aids.
-5.569624	Aids."
-5.268594	Airbus
-4.791473	Airdrie.
-5.092503	Airport,
-5.268594	Alain
-5.268594	Alain.
-5.268594	Alan
-4.528232	Alastair
-5.092503	Alcohol
-5.092503	Alcohol,
-3.888383	Alex
-5.569624	Ali
-4.666534	Ali.
-4.393533	Alice,
-5.569624	Alien.
-5.092503	Alison
-5.268594	Alistair
-3.505166	All
-4.666534	Allan
-4.724526	Allan.
-4.870654	Allen
-5.268594	Alliance
-4.455681	Allies
-4.967565	Allies.
-5.569624	Allies."
-5.268594	Allison
-4.615382	Almost
-5.569624	Already
-4.870654	Already,
-4.967565	Alright,
-4.870654	Also,
-4.967565	Although
-5.268594	Although,
-5.268594	Altman
-3.967564	Among
-4.064475	An
-4.666534	Analysts
-2.931135	And
-4.870654	And,
-4.247405	Anderson
-4.967565	Anderson,
-4.967565	Anderson.
-5.092503	Andrew
-5.268594	Andy
-5.569624	Andy.
-5.569624	Andy.)
-5.268594	Angola
-5.092503	Ann.
-5.268594	Annabelle.
-4.791473	Annika
-4.207897	Another
-4.227201	Any
-4.455681	Anyone
-4.365504	Anything
-4.339175	Anyway,
-4.791473	Apart
-4.967565	Appointed
-4.967565	Appointments
-5.268594	April.
-5.569624	April.)
-5.569624	Arabia.
-5.268594	Arabs.
-4.615382	Arafat.
-4.724526	Archer
-3.630105	Are
-5.268594	Arguably,
-3.544318	Aristotle
-4.490443	Army
-4.615382	Army.
-5.268594	Arnie
-5.092503	Around
-4.791473	Arsenal
-4.569624	Art
-4.967565	Arts
-3.661139	As
-4.268594	As,
-3.544318	Ask
-4.724526	Assembly
-4.967565	Aston
-4.791473	Asylum
-3.524301	At
-5.268594	Athens.
-4.666534	Athletics
-5.569624	Attack
-4.569624	Attendance
-4.967565	Audacious
-5.569624	Audiences
-5.092503	August
-4.615382	August.
-5.569624	August.)
-5.092503	Augusta
-4.967565	Australia
-5.092503	Australia.
-4.967565	Austria.
-4.967565	Authorities
-4.967565	Autism,
-4.967565	Autumn
-5.268594	Awareness
-4.870654	Away
-5.268594	Axis
-5.569624	Aye,
-5.569624	Ayr
-4.724526	Ayr.
-4.339175	Ayrshire.
-5.268594	Ayrshire.)
-5.268594	B.
-5.092503	BA
-4.13826	BBC
-5.268594	BBC.
-5.569624	BIG
-5.569624	Back
-5.092503	Balkans.
-5.569624	Ball
-4.528232	Ballet.
-5.569624	Ballet."
-4.092503	Bank
-5.268594	Bank.
-5.569624	Banking
-5.569624	Barber
-5.092503	Barnett
-4.490443	Barry
-5.569624	Barry.)
-5.092503	Basically
-4.666534	Basically,
-5.268594	Bath
-5.268594	Battle
-4.393533	Baxter
-5.569624	Be
-4.724526	Beach
-5.268594	Beautiful
-3.906867	Because
-5.092503	Becoming
-5.092503	Beethoven.
-3.989841	Before
-5.092503	Behind
-4.455681	Being
-4.666534	Belfast
-5.092503	Belgium.
-5.569624	Believer
-4.967565	Believing
-5.092503	Berlin.
-4.724526	Bet!
-4.870654	Bevan.
-5.268594	Beyond
-5.092503	Big
-4.569624	Bill
-4.724526	Bill.
-5.569624	Bill."
-5.569624	Billie
-4.365504	Billy
-4.870654	Bin
-5.092503	Birthdays
-5.268594	Biscuits.
-4.247405	Black
-4.967565	Blackburn.
-3.712292	Blair
-4.423496	Blair's
-4.967565	Blair,
-4.724526	Blair.
-4.290871	Blood
-4.724526	Blunkett
-4.455681	Board.
-5.569624	Board.)
-5.569624	Boarding
-5.569624	Boats
-4.870654	Bob
-3.544318	Bob.
-4.339175	Bobby
-5.268594	Bomber
-4.423496	Bombing
-5.569624	Bonnie.
-4.791473	Borderer.
-4.290871	Borders
-5.092503	Borders.
-5.569624	Borders.)
-5.268594	Borrowing
-5.092503	Bosnia.
-3.635126	Both
-4.967565	Bottling
-4.870654	Boy
-4.666534	Boys
-5.569624	Brady
-5.268594	Brand.
-4.724526	Brazil.
-5.569624	Breaching
-5.569624	Breadwinner
-5.268594	Breaking
-4.314352	Brian
-4.791473	Brigades
-5.569624	Brighton
-4.171684	Britain
-5.268594	Britain's
-5.092503	Britain,
-4.189413	Britain.
-5.092503	Britain?
-3.694563	British
-5.268594	British.
-4.455681	Briton
-4.666534	Britton.
-5.569624	Britton."
-4.967565	Broadcasting
-4.569624	Broke
-4.791473	Broomfield
-5.268594	Brother
-4.025556	Brown
-4.666534	Brown.
-4.528232	Bruce
-4.870654	Brussels.
-4.791473	Buckingham
-4.791473	Budget
-4.569624	Building
-5.569624	Buildings
-5.569624	Burger
-5.092503	Burrell
-4.314352	Bush
-4.724526	Bush,
-4.967565	Business
-2.674755	But
-3.956841	But,
-5.268594	Butcher
-5.569624	Buying
-3.724526	By
-4.791473	Byers.
-5.569624	Byers."
-5.092503	CELTIC
-5.569624	CHRISTMAS
-5.092503	COE
-5.092503	COULD
-4.290871	Cabinet
-5.092503	Cable
-5.268594	Calderwood
-4.967565	Calvin
-5.268594	Cameron
-4.227201	Campbell
-4.569624	Can
-5.092503	Canada.
-5.569624	Cancer.
-5.569624	Cannes.
-5.569624	Capital
-5.268594	Carlo.
-5.268594	Carlton
-4.967565	Caroline.
-5.092503	Cars
-4.870654	Cast
-5.569624	Casualties
-4.13826	Catholic
-3.967564	Celtic
-4.365504	Celtic.
-5.569624	Celtic."
-5.569624	Celtic.)
-5.268594	Central
-4.870654	Centre
-4.455681	Centre,
-4.122466	Certainly,
-5.268594	Chairman
-5.268594	Chamber.
-4.490443	Chambers
-4.13826	Champions
-5.092503	Championship.
-4.365504	Championships.
-5.569624	Championships.)
-3.97856	Chancellor
-4.666534	Chancellor's
-5.569624	Chancellor.
-5.569624	Change
-5.268594	Changes
-5.092503	Charges
-4.064475	Charles
-4.569624	Charlie
-5.268594	Chechens.
-4.967565	Check
-4.615382	Chelsea
-5.569624	Chief
-4.490443	Child
-4.393533	Children
-4.207897	China.
-5.569624	China."
-5.268594	China.)
-4.870654	Chirac,
-4.569624	Chisholm
-5.569624	Choice
-5.268594	Chosen
-4.290871	Chris
-5.268594	Christians
-5.268594	Christina.
-4.038146	Christmas.
-5.569624	Christmas.)
-4.528232	Church
-5.092503	Church.
-5.268594	Cinema
-5.569624	Citizens
-3.620234	City
-5.092503	City.
-4.967565	Civic
-4.171684	Clark
-5.268594	Clarke
-5.569624	Classes
-4.528232	Clearly
-3.967564	Clearly,
-4.724526	Clinton
-5.569624	Cloning
-5.268594	Closure
-5.569624	Club
-5.092503	Clubs
-4.666534	Clydesdale
-4.615382	Colin
-5.569624	Collaboration
-5.569624	College.
-5.092503	Colonel,
-4.455681	Colour
-5.092503	Come
-4.967565	Commercial
-4.490443	Commission
-4.393533	Commission.
-5.569624	Commission."
-5.569624	Commitment
-4.455681	Committee
-5.569624	Committee.
-5.092503	Committing
-4.393533	Commons
-4.666534	Commons.
-5.268594	Commons.)
-4.967565	Commonwealth
-5.092503	Commonwealths.
-5.268594	Companies
-4.967565	Completion
-4.791473	Composer
-4.791473	Concert
-5.268594	Conditions
-4.791473	Confidence
-5.092503	Connections
-4.967565	Connell
-5.092503	Connery
-4.455681	Connery.
-5.569624	Connery."
-4.967565	Conservative
-4.967565	Construction
-4.666534	Consumer
-4.967565	Consumers
-5.569624	Context
-5.268594	Controllers
-5.092503	Cook
-5.268594	Cook,
-5.268594	Cooking
-4.870654	Cooper
-4.724526	Corporate
-4.967565	Correction,
-5.569624	Cost
-4.967565	Costs
-4.490443	Could
-5.569624	Couldn't
-4.001422	Council
-4.967565	Council,
-4.107226	Council.
-5.569624	Council."
-5.569624	Council.)
-4.870654	Councillor
-4.393533	Councillors
-4.490443	Councils.
-5.092503	Councils.)
-4.001422	Court
-4.967565	Court,
-4.455681	Court.
-5.569624	Courtenay
-4.393533	Craig
-4.724526	Crawford
-5.569624	Creative,
-4.967565	Credit?
-5.569624	Crown
-4.171684	Crucially,
-5.268594	Cruelty
-4.870654	Crystal.
-4.423496	Culture.
-4.189413	Cup
-4.615382	Cup.
-5.569624	Cup.)
-4.615382	Customers
-5.569624	Cutting
-5.092503	DAVID
-4.247405	Dad
-5.092503	Daily
-5.268594	Daly
-5.092503	Dance.
-4.290871	Dancing
-4.791473	Danish
-5.569624	Danny
-5.092503	Danny.
-4.870654	Darling
-5.092503	Darrell
-5.569624	Darren
-4.528232	David
-4.870654	David.
-4.455681	Davies
-4.615382	Davis
-5.092503	Dawson.
-5.268594	Day
-5.569624	Days,
-5.569624	Deacon
-4.967565	Deal
-5.268594	Death
-4.791473	Debate
-4.967565	Debbie
-4.724526	December
-4.666534	December.
-5.569624	Defeat
-4.528232	Defence.
-4.724526	Defensive
-5.268594	Democrat
-4.171684	Democrats.
-5.569624	Democrats."
-5.268594	Democrats.)
-5.268594	Dennis
-4.791473	Department
-5.092503	Depression
-5.268594	Deputy
-5.268594	Derek.
-4.154651	Despite
-5.268594	Destruction
-4.528232	Details
-5.092503	Detection
-4.967565	Detectives
-4.967565	Devil
-4.967565	Devon.
-5.569624	Devon.)
-4.268594	Dewar
-4.528232	Dewar.
-5.569624	Dewar."
-5.569624	Dewar.)
-4.528232	Dialogue
-4.078263	Dick
-5.569624	Dick?)
-5.569624	Dickens.
-3.946375	Did
-4.870654	Diego.
-5.569624	Directing,
-5.569624	Discussions
-4.423496	Disruption
-4.870654	Disturbance
-5.092503	Diversions
-5.569624	Diving
-3.423496	Do
-4.528232	Dobson
-4.666534	Docherty
-4.724526	Dodds.
-3.520406	Does
-5.268594	Doesn't
-4.455681	Dome.
-5.569624	Dome."
-4.666534	Domestic
-4.967565	Don
-4.423496	Don't
-4.13826	Donald
-5.569624	Donald.
-5.569624	Donovan.
-4.967565	Dow
-4.001422	Downing
-5.569624	Drama
-5.569624	Dream
-4.724526	Drink
-5.268594	Driving
-4.290871	Drugs
-4.569624	Dublin.
-5.569624	Dublin.)
-4.528232	Duke
-5.268594	Dumfries
-4.423496	Duncan
-4.107226	Dundee
-4.339175	Dundee.
-4.791473	Dunfermline
-4.314352	Dunfermline.
-5.569624	Dunfermline."
-4.791473	During
-5.092503	Dutch
-4.455681	Dutchman
-4.967565	Dylan
-5.569624	Dylan's
-4.455681	E.
-4.967565	EMI
-4.967565	EMI.
-4.365504	Each
-5.092503	Earlier,
-4.967565	Early
-4.666534	Earth
-4.666534	East
-5.268594	Easter
-4.870654	Easter.
-5.092503	Eastern
-4.967565	Easy
-5.092503	Eating
-4.967565	Eden
-3.655811	Edinburgh
-4.339175	Edinburgh,
-3.936156	Edinburgh.
-4.791473	Edinburgh.)
-5.092503	Edinburgh?
-5.569624	Edinburgh?)
-5.569624	Edmonton.
-4.393533	Egypt.
-4.247405	Eight
-5.268594	Eighties.
-4.122466	Either
-4.615382	Election
-4.423496	Election.
-5.268594	Election.)
-5.268594	Elections
-5.092503	Eleven
-5.268594	Elgin
-5.092503	Elliot.
-5.268594	Emergency
-5.569624	Emily
-4.724526	Emotions
-4.666534	Employees
-5.092503	Emu.
-5.569624	Ending
-3.897527	England
-4.870654	England,
-4.078263	England.
-4.967565	England.)
-4.227201	English
-4.615382	English.
-5.569624	English.)
-5.569624	Ensemble
-4.724526	Enterprise
-4.967565	Enterprise.
-5.092503	Enterprise.)
-5.092503	Entrapment
-5.092503	Entries
-5.268594	Equally
-4.791473	Equally,
-5.569624	Equipment
-4.615382	Equity
-4.615382	Eriksson
-4.791473	Eriksson,
-5.569624	Estate.
-5.569624	Euro
-5.569624	Euro.
-4.13826	Europe
-4.967565	Europe,
-3.837231	Europe.
-5.569624	Europe."
-4.967565	Europe.)
-5.092503	Europe?
-3.472714	European
-4.967565	European.
-3.862054	Even
-5.569624	Evening
-4.025556	Every
-3.671997	Everyone
-5.569624	Everyone's
-3.640205	Everything
-5.569624	Evidence
-5.092503	Except
-4.967565	Except,
-5.569624	Exchange.
-5.569624	Executive.
-5.268594	Executive.)
-5.569624	Experience
-5.569624	External
-5.569624	Eye
-4.490443	FBI
-5.268594	FIRST,
-5.268594	FOR
-5.569624	Face
-5.268594	Faces
-4.455681	Failure
-4.967565	Falklands,
-5.268594	Fame
-4.967565	Families
-4.393533	Family
-5.569624	Family,
-5.268594	Famously,
-4.154651	Farmer
-5.268594	Farmer's
-5.569624	Farmer.
-5.092503	Farmers
-5.569624	Father
-5.268594	Fatherhood
-5.092503	February
-4.154651	February.
-5.569624	February.)
-4.227201	Feel
-5.569624	Fein.
-5.569624	Felt
-5.569624	Fenwick
-3.888383	Ferguson
-4.724526	Ferguson's
-5.268594	Ferguson,
-5.569624	Ferguson.
-5.092503	Fernandez.
-5.268594	Ferris.
-4.339175	Festival
-5.092503	Few
-5.268594	Fewer
-4.171684	Fife.
-5.569624	Fife.)
-5.268594	Fifteen
-4.967565	Figures
-5.268594	Film
-4.967565	Filtering
-4.791473	Final
-4.666534	Finally
-4.207897	Finally,
-4.791473	Financial
-5.569624	Find
-4.967565	Finding
-5.569624	Fine,
-4.967565	Finland.
-5.569624	Finnie,
-4.365504	Fir
-4.791473	Fire
-4.967565	Firm
-4.724526	Firm.
-3.81375	First
-4.870654	First,
-5.569624	Firstly,
-4.615382	Fisher
-5.268594	Fishermen
-5.569624	Fishing
-4.107226	Five
-4.528232	Flanker
-4.207897	Florida
-5.268594	Folk
-5.569624	Footage
-4.870654	Football
-5.268594	Footballers
-3.349516	For
-4.268594	Foreign
-5.569624	Form
-5.268594	Former
-4.615382	Formula.
-5.268594	Forrester
-3.956841	Four
-4.791473	France
-5.569624	France,
-4.365504	France.
-5.268594	France.)
-4.423496	Frank
-5.268594	Frankfurt.
-5.569624	Frankly
-4.078263	Frankly,
-4.569624	Freedom
-4.490443	French
-4.569624	French.
-5.569624	Frenchman.
-4.314352	Friday
-4.247405	Friday,
-4.247405	Friday.
-5.569624	Friday."
-5.569624	Friday.)
-4.455681	Friends
-3.967564	From
-5.268594	Frustration
-4.724526	Full
-4.569624	Funding
-4.227201	Further
-4.339175	GM
-4.724526	Gaelic
-5.569624	Gallery
-4.455681	Gallery.
-5.268594	Galloway
-5.268594	Game
-5.092503	Garcia.
-4.393533	Gary
-4.967565	Gas
-5.268594	Gates
-4.038146	General
-4.967565	General,
-5.092503	Genetic
-5.268594	Geoffrey
-3.967564	George
-5.092503	George.
-4.569624	Gerhard
-4.791473	German
-4.569624	Germany
-4.666534	Germany,
-4.666534	Germany.
-5.569624	Germany.)
-5.092503	Get
-4.967565	Getting
-4.967565	Gilbert
-3.596497	Glasgow
-4.107226	Glasgow,
-4.107226	Glasgow.
-5.569624	Glasgow.)
-4.724526	Global
-4.791473	God.
-5.569624	Gold
-4.490443	Golden
-4.666534	Golf
-5.092503	Gomez.
-5.569624	Gone
-5.092503	Good
-4.001422	Gordon
-4.268594	Gordon,
-5.268594	Got
-3.610583	Government
-5.092503	Government's
-4.870654	Government,
-4.122466	Government.
-5.268594	Governments
-4.724526	Graeme
-5.569624	Graham
-5.268594	Graham.
-4.615382	Grampian
-5.268594	Grant
-4.724526	Great
-3.556787	Greeks
-5.092503	Green
-5.268594	Green.
-5.569624	Greenwood
-5.092503	Grid.
-5.569624	Gritty
-5.569624	Growth
-4.365504	Gulf
-4.967565	Gulf,
-4.455681	HARRY
-5.268594	HAS
-4.870654	HAVE
-4.107226	Had
-4.227201	Hague
-5.268594	Hague,
-4.339175	Half
-4.569624	Halifax
-4.870654	Halifax.
-4.615382	Hall
-4.569624	Hall.
-5.268594	Hamilton
-4.666534	Hamilton.
-4.967565	Happily
-4.967565	Hard
-5.092503	Harold
-4.615382	Harrowing
-4.569624	Harry
-4.724526	Hartley
-4.791473	Has
-5.569624	Hasn't
-5.268594	Hastings.
-4.13826	Have
-5.268594	Haven't
-4.724526	Having
-2.231168	He
-5.569624	He'd
-3.524301	He's
-4.666534	He,
-5.268594	Head
-5.092503	Headteachers
-4.314352	Health
-5.268594	Hear
-5.268594	Hearts
-4.870654	Hearts.
-3.536201	Hebrews
-5.569624	Helen
-4.967565	Help
-5.092503	Helsinki.
-4.490443	Henman
-4.870654	Henry
-5.569624	Henry.)
-3.596497	Her
-4.247405	Herald
-5.569624	Herald,
-4.666534	Herald.
-5.569624	Herald."
-5.569624	Herald?
-4.189413	Here
-4.423496	Here's
-4.122466	Here,
-5.092503	Heritage.
-4.528232	Hibs
-4.247405	High
-4.122466	Highland
-4.569624	Highlands.
-5.569624	Highlands.)
-5.268594	Hillary
-3.131874	His
-4.724526	History
-5.268594	Hitches
-4.365504	Holiday
-4.490443	Holland
-5.092503	Holland.
-5.268594	Hollywood
-5.092503	Hollywood,
-4.791473	Hollywood.
-5.569624	Hollywood.)
-5.569624	Holocaust.
-4.569624	Holyrood
-5.092503	Holyrood.
-4.290871	Home
-4.870654	Hoops.
-4.393533	Hopefully
-3.688811	Hopefully,
-4.615382	Horses
-4.455681	Hospital
-4.615382	Hospitals
-5.569624	Hours
-4.569624	House
-5.268594	Housing
-3.469254	How
-4.791473	However
-2.856134	However,
-4.423496	Human
-4.528232	Hussein
-5.569624	Hussein.
-4.967565	Hutchison,
-1.938587	I
-3.544318	I'd
-4.107226	I'll
-2.976338	I'm
-3.119375	I've
-4.171684	I,
-5.569624	IMPACT.
-4.724526	IRA
-4.870654	IRA.
-5.569624	IRA."
-4.791473	IS
-3.946375	IT
-4.423496	Iain
-4.967565	Ian
-3.04718	If
-4.615382	Immediate
-2.950531	In
-4.967565	Inclusion
-5.268594	Indeed
-3.989841	Indeed,
-4.615382	India.
-5.569624	Industrial
-4.967565	Industry
-4.615382	Initial
-5.569624	Injuries
-4.455681	Injury
-5.569624	Inn.
-5.569624	Innocent
-5.268594	Inquiries
-4.393533	Inside,
-5.569624	Insider
-5.569624	Inspections
-5.268594	Inspiring
-4.967565	Instead
-4.171684	Instead,
-4.528232	Institute
-4.870654	Insurance
-5.268594	Intensive
-5.092503	International
-4.490443	Internet
-5.092503	Internet.
-5.092503	Internet?
-5.569624	Inventories
-4.967565	Inverness,
-4.791473	Inverness.
-5.268594	Investment
-4.791473	Investors
-5.268594	Iona.
-5.092503	Iran.
-4.724526	Iraq
-4.247405	Iraq.
-5.092503	Iraq.)
-4.791473	Iraqi
-4.393533	Ireland
-4.107226	Ireland.
-5.569624	Ireland."
-5.092503	Irish
-4.666534	Irish.
-5.569624	Irishmen.
-4.569624	Irvine
-5.092503	Irvine.
-3.12402	Is
-4.268594	Islam.
-4.967565	Isles.
-4.791473	Israel
-4.870654	Israel.
-4.290871	Israeli
-1.958326	It
-5.569624	It'`
-2.475852	It's
-5.092503	Italian
-4.490443	Italy
-4.724526	Italy.
-5.569624	Italy.)
-4.092503	Its
-5.569624	Its's
-5.569624	Ivory
-4.967565	JOHN
-4.569624	Jack
-5.569624	Jackie
-4.615382	Jackson
-5.268594	Jackson.
-4.870654	Jacques
-5.268594	Jamming
-4.666534	January
-4.423496	January,
-5.268594	January.
-5.569624	January.)
-4.967565	Japan.
-4.423496	Jeremy,
-5.268594	Jews.
-3.956841	Jim
-4.967565	Jimmy
-4.870654	Job
-4.870654	Jobs
-4.791473	Jock
-3.967564	John
-5.092503	Johnny
-5.268594	Johnsen
-4.666534	Johnson
-4.455681	Johnson,
-4.247405	Johnston
-4.870654	Johnstone
-5.092503	Jon.
-4.967565	Jones
-5.092503	Jones.
-5.268594	Jonny
-5.569624	Journal
-4.967565	Journal.
-4.615382	Journalists
-5.092503	Journalists.
-4.490443	Jubilee
-5.092503	Judith.
-5.569624	July,
-4.122466	July.
-5.569624	July.)
-5.569624	June
-4.393533	June.
-5.569624	June.)
-4.13826	Just
-5.268594	Justice
-5.092503	Kabul.
-5.092503	Keane
-5.092503	Keegan.
-4.092503	Kennedy
-4.870654	Kenny
-5.092503	Kent.
-5.092503	Kevin
-4.569624	Kids
-4.290871	Kilmarnock.
-5.569624	Kilmarnock.)
-5.092503	King
-5.268594	King's
-4.967565	King,
-5.569624	King.
-4.569624	Kingdom.
-5.569624	Kingdom."
-4.490443	Kingfisher
-4.870654	Kirkwood
-5.092503	Knowledge
-4.967565	Kosovo.
-5.569624	Kremlin
-5.569624	Kremlin.
-5.569624	LET
-3.74355	Labour
-4.393533	Labour's
-4.393533	Labour,
-4.455681	Labour.
-5.092503	Labour.)
-5.569624	Lack
-4.870654	Laden
-4.314352	Laden.
-4.724526	Lady
-5.092503	Lambert
-4.967565	Lancashire
-4.870654	Lara
-5.268594	Las
-3.472714	Last
-4.967565	Lately,
-4.314352	Later
-5.569624	Later,
-4.724526	Laura
-4.666534	Law
-5.268594	Leading
-4.207897	League
-4.189413	League.
-5.092503	League.)
-5.569624	League?
-5.092503	Leary
-5.569624	Leaving
-5.569624	Lee
-5.569624	Legal
-5.268594	Leicester
-5.092503	Leighton
-5.569624	Leisure
-5.092503	Lennon
-4.724526	Lennox
-5.268594	Lester
-4.393533	Let
-4.247405	Let's
-4.666534	Levy
-4.967565	Lewis.
-5.092503	Lewis?
-4.092503	Liberal
-5.569624	Liberty.
-5.268594	Libya
-4.064475	Life
-4.870654	Life,
-5.268594	Lifeboat
-4.171684	Like
-4.870654	Lions.
-5.569624	Lions."
-4.339175	Little
-5.569624	Liverpool.
-5.092503	Liverpool?
-5.092503	Livingston.
-5.092503	Livingstone
-5.268594	Lobby
-4.528232	Local
-4.455681	Locally,
-5.569624	Locate
-4.724526	Lockerbie
-5.092503	Logan.
-4.064475	London
-3.81375	London.
-4.724526	London.)
-5.268594	Long-term,
-4.268594	Look
-5.092503	Look,
-5.569624	Looking
-4.038146	Lord
-5.268594	Lose,
-5.092503	Losing
-4.791473	Lothian
-4.666534	Lothian.
-5.268594	Lots
-4.268594	Lottery
-5.569624	Lovely
-4.967565	Low
-5.569624	Luckily
-5.092503	Luckily,
-5.569624	Lucky
-5.569624	Lyceum.
-5.569624	MAN
-5.092503	MOVIE
-4.092503	MP
-4.870654	MP?
-5.268594	MacKay.
-4.967565	Macdonald
-4.724526	Macdonald.
-5.569624	Macdonald.)
-5.569624	Mackay.
-5.569624	Mackie
-5.569624	Magic?
-5.569624	Main
-5.569624	Maintain
-5.569624	Make
-4.528232	Malcolm
-4.365504	Maloney
-4.393533	Manager
-5.268594	Managers
-4.569624	Manchester
-4.870654	Manchester.
-5.569624	Manchester."
-5.268594	Manchester.)
-4.791473	Mandela.
-3.44252	Many
-5.092503	Many,
-5.092503	March
-4.107226	March.
-5.268594	March.)
-5.092503	Marconi
-4.724526	Margaret
-5.268594	Margaret.
-5.268594	Margins
-4.615382	Mark
-5.092503	Mark.
-5.092503	Market
-4.615382	Marshall
-4.791473	Martin
-4.666534	Mary
-5.268594	Mason
-5.268594	Master
-5.569624	Masters.
-5.569624	Masterton
-4.666534	May
-5.268594	May.
-5.569624	May.)
-3.946375	Maybe
-5.268594	Maybe,
-4.870654	McArthur.
-5.092503	McCall
-4.967565	McCall.
-5.569624	McCarthy
-5.569624	McCartney
-4.967565	McConnell
-4.870654	McConnell,
-4.870654	McCormick.
-4.569624	McCulloch.
-5.268594	McGraw.
-4.870654	McGregor.
-5.569624	McGregor.)
-5.092503	McKay.
-5.268594	McKean.
-5.569624	McKee.
-5.268594	McKenna.
-5.092503	McKenzie,
-5.092503	McKenzie.
-5.092503	McLean.
-5.268594	McLellan
-5.569624	McLeod
-4.870654	McMaster
-4.569624	McNaughton
-4.314352	McNeill
-5.268594	McPherson
-5.092503	Meantime,
-4.13826	Meanwhile,
-4.870654	Meat
-4.268594	Medical
-4.724526	Meetings
-5.268594	Member
-5.569624	Members.
-5.569624	Men
-4.791473	Mental
-4.870654	Mentally,
-4.967565	Merger
-4.870654	Messages
-4.569624	Mexico
-5.569624	Miami.
-4.001422	Michael
-5.569624	Michael's
-5.268594	Michael,
-5.569624	Michael.)
-4.967565	Michelle.
-4.870654	Mickelson
-4.967565	Midland
-5.268594	Midlands.
-4.791473	Mike
-5.268594	Milburn,
-4.569624	Military
-5.569624	Milk
-4.247405	Miller
-5.569624	Millionaire?
-4.724526	Millions
-4.666534	Mind
-4.967565	Mini
-3.615382	Minister
-5.092503	Minister.
-4.724526	Ministers
-5.268594	Ministers.
-4.528232	Ministry
-5.268594	Miss
-5.268594	Mistakes
-4.247405	Mitchell
-5.569624	Mixing
-4.455681	Mo.
-5.268594	Mo.)
-4.870654	MoD
-4.724526	Monaco.
-5.569624	Monaco.)
-4.247405	Monday
-4.423496	Monday.
-4.569624	Monetary
-5.569624	Money
-5.268594	Money.
-5.268594	Monte
-5.268594	Monty
-5.092503	Morale
-5.268594	Moray
-5.569624	Moray.
-4.615382	More
-5.268594	Moreover,
-4.365504	Moscow
-4.967565	Moscow?
-4.455681	Most
-5.092503	Mother
-4.314352	Motherwell
-4.870654	Motherwell.
-4.870654	Motion
-4.724526	Motorists
-5.268594	Movement
-5.268594	Movie
-4.967565	Moving
-3.108727	Mr
-4.423496	Mrs
-4.078263	Ms
-4.870654	Much
-5.569624	Mummy
-4.455681	Murray
-5.268594	Murray's
-4.967565	Murray,
-5.569624	Music
-4.967565	Muslim
-4.791473	Must
-3.056407	My
-5.092503	NOW
-5.569624	Nancy
-3.946375	National
-4.615382	National.
-5.092503	National.)
-4.791473	Nations
-5.569624	Nationwide
-4.290871	Nato
-5.569624	Nato?
-5.092503	Natural
-4.455681	Naturally
-4.569624	Naturally,
-5.569624	Nature
-4.967565	Nature.
-4.666534	Neil
-4.490443	Neill
-5.268594	Neill.
-3.888383	Neither
-5.092503	Nelson
-4.967565	Nelson,
-5.092503	Netherlands.
-3.67753	New
-5.092503	Newcastle
-5.569624	Newcastle.)
-5.092503	News
-3.97856	Next
-5.268594	Nicholson.
-5.268594	Nicolson
-4.528232	Nine
-3.42661	No
-4.025556	No,
-3.916412	No-one
-4.724526	No-one,
-5.092503	No.
-3.712292	Nobody
-5.569624	Nobody,
-5.268594	Noel?
-4.314352	None
-4.423496	Nonetheless,
-4.490443	Nor
-5.569624	Normally
-4.791473	Normally,
-5.569624	Norman
-3.536201	Norsemen
-4.423496	North
-5.569624	North-east.
-4.092503	Northern
-5.569624	Norton
-4.791473	Norway
-3.671997	Not
-4.967565	Note
-3.897527	Nothing
-5.569624	November,
-4.455681	November.
-5.092503	November.)
-3.763444	Now
-3.712292	Now,
-4.967565	Nowadays,
-4.314352	O
-4.967565	O,
-5.268594	Obviously
-4.13826	Obviously,
-4.791473	October
-4.05111	October.
-5.092503	October.)
-3.620234	Of
-4.455681	Off
-5.092503	Off-duty
-5.268594	Offence
-4.569624	Offered
-3.926172	Office
-4.154651	Office.
-4.967565	Officers
-4.967565	Officials
-4.339175	Oil
-4.569624	Old
-5.569624	Olympian.
-4.189413	Olympic
-5.092503	Olympics.
-3.357437	On
-4.528232	Once
-3.472714	One
-4.870654	One,
-4.870654	One-third
-4.05111	Only
-4.569624	Open
-5.092503	Open,
-5.092503	Open.
-5.092503	Openness
-5.092503	Opera.
-3.946375	Or
-5.092503	Or,
-5.268594	Orange
-5.268594	Order.
-5.569624	Ordering
-5.092503	Orkney,
-5.268594	Orlando
-4.314352	Osama
-3.956841	Other
-3.469254	Others
-4.870654	Otherwise
-4.393533	Otherwise,
-3.211689	Our
-5.569624	Ours
-4.154651	Over
-4.967565	Overall
-4.247405	Overall,
-5.268594	Owen,
-4.870654	Owen.
-5.268594	Ownership
-5.569624	PENSIONS
-4.870654	PR
-4.365504	Painful,
-5.092503	Pakistan
-5.092503	Pakistan,
-4.724526	Palace
-5.092503	Paper.
-5.569624	Paragon
-5.092503	Paramount?
-5.092503	Parents
-4.724526	Paris
-4.314352	Paris.
-4.171684	Park
-5.092503	Park.
-5.268594	Parker
-3.706301	Parliament
-4.615382	Parliament's
-4.339175	Parliament,
-4.122466	Parliament.
-5.569624	Parliament.)
-4.724526	Parole
-4.724526	Part
-5.569624	Part-time
-4.967565	Partition
-4.791473	Partly,
-5.092503	Parts
-4.724526	Party
-4.791473	Party's
-5.569624	Party,
-4.666534	Party.
-5.569624	Party.)
-4.455681	Paterson
-5.092503	Patients
-5.092503	Patton
-5.268594	Paul
-4.528232	Peace
-4.791473	Pensions
-3.168224	People
-4.013322	Perhaps
-4.666534	Persuaded
-4.615382	Peter
-5.268594	Peter,
-4.528232	Peter.
-4.870654	Petrol
-4.791473	Phase
-4.870654	Phil
-5.268594	Pierre,
-4.967565	Pig
-4.967565	Pitt,
-5.092503	Pity
-5.268594	Places
-5.569624	Planning
-4.455681	Plans
-5.268594	Planting
-5.092503	Player.
-4.615382	Players
-4.791473	Playing
-3.596497	Please
-5.569624	Plot
-3.700393	Police
-5.569624	Policing
-4.207897	Policy
-5.092503	Politics
-5.268594	Portugal.
-4.528232	Post
-4.455681	Potions
-4.314352	Potter
-5.569624	Powers
-5.268594	Pray
-4.290871	Premier
-5.268594	Premiership
-4.870654	Premiership.
-4.791473	Prescott
-4.791473	Prescott,
-4.870654	Prescott.
-4.455681	President
-5.268594	President.
-5.569624	President.)
-5.092503	Pressure
-4.528232	Prevention.
-5.569624	Prevention.)
-5.569624	Previously
-4.528232	Previously,
-4.092503	Prime
-4.967565	Princess
-4.247405	Prison
-5.569624	Probably
-5.268594	Professor
-5.268594	Progress
-5.569624	Progress,
-5.569624	Project
-5.092503	Promises
-5.268594	Prospects
-5.569624	Provident.
-4.171684	Public
-4.455681	Pulled
-4.569624	Pupils
-4.724526	Put
-4.724526	Quality
-4.528232	Queen
-4.490443	Queen's
-5.569624	Queen.
-4.870654	Quite
-5.569624	Quite.
-4.615382	Racism
-4.666534	Rafferty
-5.092503	Raised
-3.967564	Rangers
-4.247405	Rangers,
-4.154651	Rangers.
-5.268594	Rapid
-5.092503	Rather
-4.423496	Raymond
-4.724526	Reaction
-4.724526	Real
-5.569624	Really
-4.666534	Rebuilding
-5.092503	Receiving
-5.092503	Recent
-5.268594	Red.
-4.870654	Reds.
-5.092503	Redwood
-4.528232	Referees
-5.569624	Rehearsals
-5.569624	Reid
-4.791473	Reid,
-4.791473	Relief
-5.092503	Repayment
-5.569624	Reporter
-4.615382	Republic
-5.569624	Research
-4.528232	Research.
-5.569624	Results
-5.569624	Retirement
-5.268594	Retirement,
-5.092503	Reviving
-4.791473	Richard.
-5.569624	Richard.)
-5.092503	Rider.
-5.569624	Rider."
-4.967565	Right
-4.528232	Rights.
-5.569624	Rights."
-5.092503	Ritchie.
-4.967565	River
-5.569624	Riverside,
-5.268594	Road.
-5.569624	Robbie.
-4.791473	Robert
-3.926172	Robertson
-4.314352	Robin
-5.268594	Robinson.
-4.967565	Robson
-4.615382	Roman
-4.870654	Rooms.
-5.268594	Rooms.)
-4.247405	Ross.
-5.268594	Ross.)
-4.455681	Rowley
-5.092503	Roy
-4.025556	Royal
-4.455681	Royal.
-5.569624	Royal.)
-4.791473	Rugby
-5.268594	Running
-4.967565	Russell
-4.791473	Russell.
-4.268594	Russia.
-5.569624	Russia.)
-4.528232	Russian
-5.268594	Russians.
-4.455681	Ryder
-4.365504	S
-5.092503	SAC.
-4.666534	SCOTLAND
-5.569624	SE
-4.967565	SO
-5.569624	SO,
-5.268594	SOMETIMES,
-5.092503	Sacking
-5.569624	Sad
-4.092503	Saddam
-5.268594	Sadly
-3.879428	Sadly,
-4.569624	Safety
-4.870654	Sainsbury
-5.569624	Saints?
-4.870654	Sales
-5.569624	Salmon
-5.268594	Salvation
-5.092503	Sam.
-5.268594	Sandy
-5.268594	Sarah.
-5.268594	Sarah.)
-5.268594	Satan.
-4.490443	Saturday
-4.666534	Saturday's
-4.666534	Saturday,
-4.13826	Saturday.
-5.569624	Saturday."
-5.092503	Saturday.)
-4.967565	Saudis
-4.528232	Says
-5.268594	Schools
-4.569624	Schroeder
-4.967565	Scoring
-4.967565	Scot
-5.092503	Scotch
-3.235171	Scotland
-4.001422	Scotland,
-3.262128	Scotland.
-5.092503	Scotland."
-4.455681	Scotland.)
-5.268594	Scotland?
-4.666534	Scots
-4.490443	Scots.
-4.615382	Scotsman
-4.569624	Scott
-2.934141	Scottish
-5.569624	Scottish.
-4.724526	Scrutiny
-4.870654	Sea.
-5.092503	Sea.)
-5.092503	Seaman
-4.339175	Sean
-5.268594	Sean.
-4.967565	Secondly,
-4.247405	Secretary
-4.967565	See
-5.268594	Seems
-5.569624	Selection
-5.268594	Self
-4.569624	Senator
-4.666534	Senior
-5.092503	Sense
-4.423496	Sense?
-5.092503	Sentence
-4.870654	Sentencing
-5.268594	Sentiment
-5.569624	Separate
-5.569624	September
-4.268594	September.
-5.569624	September.)
-5.092503	Serb
-5.268594	Serbia
-4.615382	Sergio
-4.870654	Sergio.
-4.967565	Seriously,
-5.268594	Service
-4.247405	Service.
-4.791473	Services
-4.268594	Seven
-3.946375	Several
-4.724526	Sex
-4.227201	Shadow
-5.092503	Shaking
-5.569624	Share
-4.967565	Shareholders
-4.967565	Sharon
-2.732036	She
-5.569624	She'd
-4.365504	She's
-4.870654	Shelter
-4.393533	Sheriff
-4.615382	Shoppers
-5.569624	Should
-5.268594	Show.
-5.569624	Show.)
-5.092503	Shyness
-5.092503	Sightings
-4.314352	Similar
-4.615382	Simon.
-5.569624	Simon."
-5.569624	Simon.)
-4.528232	Simpson
-3.486839	Since
-4.490443	Singapore
-5.569624	Singapore)
-5.569624	Singapore.
-4.967565	Singing
-5.569624	Sinn
-4.078263	Sir
-3.445773	Six
-4.339175	Sixth
-4.967565	Size
-5.268594	Slater
-5.092503	Sloppy
-5.092503	Slowly,
-5.092503	Smaller
-3.956841	Smith
-4.455681	Smith,
-5.569624	Smith.
-4.528232	Smoking
-5.092503	Smuggling
-3.207896	So
-3.906867	So,
-5.092503	Social
-5.092503	Socialist
-4.967565	Society
-3.331578	Some
-5.268594	Somebody
-5.569624	Somehow
-4.207897	Someone
-4.13826	Something
-4.666534	Sometimes
-5.092503	Son
-5.092503	Soon
-5.268594	Sooner
-4.393533	Sounds
-5.268594	Sources
-4.666534	Souter
-4.154651	South
-4.490443	Southern
-4.967565	Spain
-5.092503	Spain.
-4.528232	Special
-4.791473	Spectator
-5.569624	Spencer.
-5.092503	Spent
-5.268594	Sponsors
-4.290871	Sport
-5.268594	Sports
-5.569624	Sprinters
-4.666534	Staff
-5.268594	Stagecoach
-5.092503	Stalkers
-5.092503	Stan
-5.268594	Stand
-4.967565	Standard
-4.569624	Star
-5.569624	Stardom
-5.092503	State
-5.268594	States.
-5.569624	Stealing
-3.591901	Stella.
-5.268594	Step
-4.528232	Stephen
-5.268594	Steven.
-4.724526	Stevenson
-5.268594	Stevie.
-4.455681	Stewart
-4.455681	Still,
-5.268594	Stirling
-5.092503	Stirling.
-5.569624	Stirling.)
-4.870654	Stock
-5.569624	Story
-4.870654	Strangely
-4.107226	Strathclyde
-4.967565	Strathclyde.
-4.870654	Straw
-3.946375	Street
-4.724526	Street.
-5.569624	Street.)
-5.268594	Strictly
-4.967565	Strikers
-5.268594	Striking
-5.569624	Strong
-4.791473	Structural
-5.569624	Stuart.
-4.154651	Sub
-4.455681	Subs
-5.268594	Subsidy
-5.092503	Substantial
-5.569624	Subtle
-5.569624	Success
-3.956841	Such
-5.092503	Suddenly
-4.025556	Suddenly,
-4.724526	Suggestions
-4.967565	Sullivan
-4.615382	Sunday
-4.490443	Sunday's
-4.569624	Sunday.
-5.569624	Sunday.)
-5.092503	Supreme
-5.092503	Sure
-4.490443	Sure,
-4.339175	Surely
-4.423496	Surely,
-4.967565	Surrender
-4.870654	Surrey
-4.870654	Survival
-5.092503	Suspension
-5.268594	Sussex
-5.092503	Sutherland
-5.268594	Sutton
-4.870654	Sweden,
-4.967565	Sweden.
-5.268594	T,
-4.154651	THE
-5.268594	THERE's
-5.268594	THIS
-5.569624	TODAY
-5.092503	TV
-4.791473	TV.
-4.339175	Taliban
-4.791473	Talk
-4.528232	Talks
-4.393533	Tartan
-5.569624	Tate.
-4.615382	Tax
-5.268594	Taxation
-5.092503	Taxes
-5.569624	Taylor
-5.268594	Teachers
-5.569624	Teams
-5.569624	Technical
-5.092503	Technically,
-4.967565	Telecom.
-5.569624	Telecom.)
-5.092503	Telegraph.
-4.207897	Tell
-5.268594	Ten
-4.870654	Tenants
-5.268594	Test.
-5.569624	Test.)
-5.092503	Thailand
-4.791473	Thames
-5.268594	Thankfully
-4.05111	Thankfully,
-2.581511	That
-5.569624	That'd
-3.202268	That's
-4.064475	That,
-4.393533	Thatcher
-1.944415	The
-4.490443	Theatre
-5.268594	Theatre,
-5.268594	Theatre.
-3.536201	Their
-3.587353	Then
-4.423496	Then,
-2.531402	There
-3.402307	There's
-5.092503	There,
-4.724526	Thereafter
-4.666534	Thereafter,
-5.569624	Therefore
-4.490443	Therefore,
-5.268594	Therein
-3.239211	These
-2.340967	They
-5.569624	They'll
-4.038146	They're
-3.916412	They've
-4.13826	Things
-5.569624	Think
-5.268594	Thirteen
-4.967565	Thirty
-2.428802	This
-4.870654	This,
-4.870654	Thomson
-4.13826	Those
-4.791473	Thousands
-3.712292	Three
-3.544318	Throughout
-5.268594	Thursday
-4.490443	Thursday,
-4.393533	Thursday.
-5.092503	Thursday.)
-4.870654	Thus
-5.268594	Tibetan
-5.569624	Tickets
-4.455681	Tiger
-5.092503	Tiger.
-4.870654	Time
-5.569624	Times
-5.569624	Titanic
-4.666534	Titanic?
-5.569624	Titanic?"
-3.42661	To
-3.837231	Today
-4.724526	Today's
-4.528232	Today,
-5.268594	Together
-5.092503	Together,
-5.569624	Token
-4.724526	Tokyo.
-4.423496	Tommy
-5.268594	Tommy?
-4.227201	Tomorrow
-5.569624	Tonight
-5.092503	Tonight's
-3.946375	Tony
-5.268594	Tony.
-4.666534	Too
-5.092503	Top-up
-4.870654	Tories
-4.290871	Torrance.
-5.569624	Torrance."
-4.528232	Tory
-4.967565	Tour
-5.569624	Tour.
-4.268594	Tourism
-4.615382	Tourist
-5.569624	Tourists
-5.569624	Trade
-4.967565	Trading
-5.092503	Traffic
-5.268594	Translation
-5.092503	Transport
-5.092503	Transport.
-4.339175	Treasury
-4.615382	Treasury.
-4.455681	Treatment
-5.569624	Trevor
-5.268594	Trimble
-5.268594	Tron
-5.268594	Troubles.
-4.666534	Trust
-4.870654	Trust,
-4.791473	Truth
-4.569624	Try
-4.154651	Tuesday,
-4.791473	Tuesday.
-5.092503	Tuesday.)
-5.569624	Turnover
-4.207897	Twaddle
-4.791473	Twickenham.
-3.694563	Two
-4.528232	Tyson
-5.569624	Tyson.
-5.092503	Tyson.)
-5.569624	U-turn
-4.870654	U-turn.
-4.666534	UK
-5.569624	UK,
-5.268594	UK-wide
-4.528232	UK.
-5.569624	UK.)
-5.268594	UN
-4.227201	US
-4.038146	US.
-5.569624	US."
-5.569624	US.)
-5.268594	US?
-5.092503	Ulster
-5.268594	Under
-4.490443	Union
-5.569624	Union.
-5.268594	Union?
-4.870654	Unionists.
-5.569624	Unison
-3.645345	United
-4.666534	United.
-4.791473	University
-3.926172	Until
-5.268594	Upgrading
-4.615382	Urgent
-4.154651	Used,
-5.268594	Usher
-5.569624	Usually
-5.092503	Usually,
-5.092503	Valley
-5.268594	Valley.
-5.569624	Valley.)
-5.268594	Vegas.
-4.870654	Venus
-5.569624	Verdi.
-5.569624	Victoria?
-5.092503	Victory
-5.569624	Victory,
-4.967565	Villa.
-4.615382	Violence
-5.268594	Virgin.
-5.569624	Visiting
-5.268594	Visitors
-5.092503	Voice
-5.092503	Voice.
-5.092503	Volvo
-4.569624	W
-5.092503	WAS
-5.268594	WE
-5.092503	WHAT's
-5.569624	WHO
-5.569624	Wages
-5.092503	Wagner
-4.569624	Waiting
-5.268594	Wales
-4.365504	Wales.
-5.569624	Wales."
-5.268594	Walk
-4.615382	Walker
-5.268594	Walker's
-5.569624	Walker,
-4.967565	Wall
-5.268594	Wallabies.
-4.569624	Wallace
-4.092503	Wallace,
-5.569624	Wanger
-5.569624	Want
-4.791473	War
-4.393533	War.
-5.569624	War."
-5.268594	Warren
-3.821436	Was
-4.365504	Washington
-4.247405	Watch,
-2.142463	We
-4.569624	We'll
-3.357437	We're
-3.536201	We've
-5.569624	Weaknesses
-5.268594	Wealth
-5.268594	Weather
-5.569624	Webster
-3.486839	Wednesday
-4.967565	Wednesday's
-5.092503	Wednesday,
-4.189413	Wednesday.
-5.569624	Wednesday."
-5.268594	Wednesday.)
-5.092503	Well
-3.548435	Well,
-4.967565	Welsh
-5.268594	Wembley.
-5.092503	Were
-4.365504	West
-4.393533	Western
-5.268594	Westminister
-4.247405	Westminster
-5.268594	Westminster,
-4.870654	Westminster.
-5.569624	Westwood
-2.912569	What
-4.001422	What's
-4.870654	What,
-4.615382	Whatever
-3.173425	When
-5.092503	Whenever
-4.078263	Where
-4.154651	Whether
-3.897527	Which
-5.092503	Which,
-5.268594	Which?
-4.207897	While
-4.967565	White
-5.268594	Whitehall,
-3.270771	Who
-5.092503	Who,
-5.268594	Whoever
-3.508926	Why
-5.569624	Wilkie
-5.268594	Wilkinson
-4.365504	Will
-4.490443	William
-5.569624	William.
-4.290871	Williams
-4.455681	Williamson
-5.092503	Williamson.
-5.268594	Willie
-4.615382	Wilson
-4.724526	Wilson,
-4.490443	Wilson.
-5.092503	Winning
-5.092503	Winning,
-5.092503	Wireless.
-4.870654	Wish
-4.455681	With
-4.455681	Within
-4.724526	Without
-5.569624	Wolfson.
-4.339175	Women
-4.967565	Words
-4.393533	Work
-5.092503	Work.
-5.569624	Workers
-4.870654	Working
-4.967565	Working?
-4.314352	World
-5.092503	Worry
-5.092503	Worse
-4.423496	Would
-5.569624	Wouldn't
-5.268594	Writing
-5.268594	Wrong
-4.615382	X-ray.
-4.528232	YOU
-5.268594	Yard.
-4.666534	Year
-5.268594	Year's
-5.569624	Year.
-5.569624	Years
-4.724526	Yes
-4.615382	Yes,
-4.290871	Yesterday
-4.870654	Yesterday's
-4.064475	Yesterday,
-3.81375	Yet
-4.314352	Yet,
-4.528232	York
-4.339175	York.
-5.569624	York.)
-5.092503	Yorkers.
-5.569624	Yorkshire
-2.787152	You
-4.967565	You'd
-4.724526	You'll
-4.365504	You're
-3.888383	You've
-4.967565	You,
-5.268594	Young
-4.791473	Your
-4.423496	Yugoslav
-4.423496	Zealand
-5.268594	Zealand.
-4.791473	Zimbabwe.
-1.54089	a
-5.268594	aback
-4.569624	abandon
-5.268594	abandon.
-5.092503	abbey.
-4.967565	abiding
-3.630105	able
-3.548435	abnormally
-5.569624	abortion.
-2.560599	about
-5.092503	about,
-4.615382	about.
-4.490443	about?
-4.528232	above
-3.552591	above,
-4.967565	abroad.
-4.490443	absence,
-4.528232	absence.
-5.569624	absence.)
-5.569624	absent
-5.092503	absent.
-4.791473	absentee
-4.207897	absolute
-4.791473	absolute.
-4.791473	absolutely
-5.092503	abstract.
-4.528232	absurd.
-5.569624	absurd.)
-4.423496	abundance
-4.064475	abuse
-4.724526	abuse.
-5.569624	abuse.)
-4.724526	abused.
-5.569624	abusers.
-4.013322	accept
-4.528232	accept.
-3.508926	accepted
-4.724526	accepted.
-5.569624	accepted.)
-4.791473	access
-4.870654	access.
-4.615382	accident
-3.630105	accident.
-5.268594	accident."
-4.967565	accident.)
-5.268594	accidents.
-5.569624	accolade.
-3.494077	according
-4.423496	account
-4.724526	account.
-5.569624	account.)
-4.791473	accountable.
-5.268594	accountable.)
-5.268594	accounted
-5.268594	accounting
-5.569624	accounts
-4.724526	accounts.
-4.339175	accurate?
-4.967565	accused
-5.569624	accustomed
-4.666534	achieve
-4.967565	achieve.
-4.455681	achieved
-4.064475	achieved.
-5.569624	achieved.)
-4.870654	achievement
-4.724526	achievement.
-5.092503	achievement?
-5.569624	achievements.
-5.268594	achievements?
-5.569624	achieving.
-5.569624	acknowledge
-4.393533	acknowledged
-4.05111	across
-5.569624	across.
-3.455681	act
-4.227201	act.
-4.967565	acted
-4.365504	acting
-4.423496	acting,
-4.724526	acting.
-3.587353	action
-3.700393	action.
-5.092503	action.)
-4.569624	actions
-4.290871	actions.
-4.615382	active
-4.791473	active.
-4.290871	actor
-5.092503	actor.
-4.615382	actors
-4.870654	actors.
-5.092503	acts
-3.565303	actual
-3.81375	actually
-5.268594	actually.
-4.967565	acute.
-5.268594	acute.)
-4.569624	adamant
-5.092503	adamant.
-5.268594	adapt
-5.268594	adapt.
-4.791473	add
-4.107226	added
-4.107226	added,
-4.423496	added.
-5.569624	added.)
-4.967565	addict.
-5.268594	addiction.
-4.967565	addictive.
-4.870654	addition
-3.936156	addition,
-5.092503	additions
-4.05111	address
-4.393533	address.
-5.569624	address."
-4.870654	addressed.
-4.967565	adjust
-5.569624	adjust.
-5.569624	adjusted
-5.569624	adjusting
-4.967565	adjustments
-5.569624	adjustments.
-4.967565	admirers.
-4.724526	admission
-5.569624	admits
-4.13826	admitted
-4.724526	admitted.
-4.967565	admonished.
-5.569624	adopt
-4.490443	adopted
-4.967565	adopted.
-4.490443	adoption
-4.490443	adult.
-5.268594	adult.)
-4.314352	adults.
-4.967565	advance
-4.393533	advance.
-5.569624	advance.)
-5.268594	advanced
-4.423496	advances,
-5.268594	advantage
-4.365504	advantage.
-5.569624	advantage.)
-4.290871	adventure.
-5.569624	adventure."
-5.268594	adverse
-4.268594	advertised.
-5.569624	advertised.)
-4.967565	adverts.
-5.569624	adverts.)
-4.189413	advice
-4.339175	advice.
-5.569624	advice.)
-5.092503	advice?
-4.870654	advised
-4.967565	adviser
-4.870654	advisers
-4.13826	affair
-4.615382	affair,
-4.290871	affair.
-5.268594	affairs
-4.791473	affairs.
-4.615382	affect
-4.393533	affected
-5.092503	affected,
-4.870654	affected.
-5.092503	affected.)
-5.569624	affected?
-5.092503	affection
-5.569624	afflicted
-4.207897	afford
-4.13826	afraid
-4.967565	afraid.
-3.27959	after
-4.967565	after.
-4.314352	afternoon
-4.393533	afternoon.
-5.268594	afterwards
-5.092503	afterwards.
-3.862054	again
-4.001422	again,
-3.544318	again.
-4.967565	again.)
-4.791473	again?
-3.483264	against
-4.870654	against.
-4.393533	age
-4.339175	age.
-5.569624	age.)
-4.791473	agencies
-5.268594	agencies.
-5.268594	agency
-4.207897	agency.
-5.268594	agency.)
-4.967565	agenda
-4.064475	agenda.
-4.791473	agent.
-5.092503	agents.
-5.268594	ages,
-5.092503	ages.
-4.967565	aggression
-5.092503	aggressive.
-5.569624	aghast.
-3.936156	ago
-4.490443	ago,
-3.853621	ago.
-4.791473	ago.)
-5.092503	ago?
-4.268594	agree
-5.268594	agree.
-4.013322	agreed
-4.967565	agreed,
-4.666534	agreed.
-4.189413	agreement
-5.092503	agreement,
-4.724526	agreement.
-5.569624	agrees
-4.038146	ahead
-5.569624	ahead,
-4.189413	ahead.
-4.967565	ahead.)
-5.092503	ahead?
-4.569624	aid
-5.092503	aide
-4.290871	aim
-4.967565	aim.
-4.615382	aimed
-4.967565	aiming
-5.569624	aims
-4.455681	air
-3.508926	air,
-4.528232	air.
-4.423496	aircraft
-4.490443	airport
-4.393533	airport,
-4.967565	airport.
-5.268594	airspace
-5.268594	alarm.
-5.569624	alarming
-4.290871	album
-5.268594	album.
-4.423496	albums.
-5.569624	albums.)
-4.455681	alcohol
-5.268594	alcohol.
-5.268594	alert.
-4.870654	alibi
-5.092503	alight.
-4.791473	alive
-3.946375	alive.
-2.800247	all
-4.490443	all,
-3.67753	all.
-5.569624	all."
-4.967565	all.)
-5.268594	all?
-4.615382	allegations
-5.569624	alliance
-4.870654	allies
-5.569624	allocation.
-4.490443	allow
-3.97856	allowed
-4.724526	allowed.
-4.967565	allowed.)
-5.268594	allows
-3.724526	almost
-5.268594	almost.
-4.423496	alone
-4.025556	alone.
-5.569624	alone.)
-4.870654	along
-4.870654	along.
-4.870654	alongside
-3.316771	already
-4.870654	already,
-4.314352	already.
-5.569624	already.)
-4.967565	already?
-2.728265	also
-4.791473	also,
-5.569624	also.
-5.268594	alter
-5.268594	altered
-4.666534	altered.
-5.569624	altered.)
-4.455681	altered?
-5.092503	alternative
-5.092503	although
-3.193047	always
-2.863761	am
-4.967565	amateur
-4.967565	amazed
-4.13826	amazing
-4.791473	amazing,
-4.268594	amazing.
-4.455681	ambition
-5.268594	ambition.
-5.268594	ambitions
-4.967565	ambitions.
-4.724526	ambitious,
-4.791473	ambitious.
-4.268594	ambulance.
-5.569624	ambulance."
-5.092503	ambush.
-5.092503	amended.
-4.528232	amendment
-5.268594	amiss.
-4.666534	amnesty
-5.268594	amnesty.
-4.247405	among
-5.569624	amongst
-3.75008	amount
-4.528232	amount.
-5.569624	amount.)
-5.569624	ample
-4.724526	amused.
-2.466848	an
-5.268594	analysis
-4.724526	analyst.
-5.092503	analysts
-5.268594	analysts.
-2.201896	and
-5.569624	and,
-5.569624	angel.
-4.290871	anger
-5.092503	anger.
-5.268594	angina.
-4.870654	angrily.
-5.092503	angry
-4.025556	angry.
-5.268594	angry."
-4.724526	animal.
-5.569624	animal.)
-4.967565	animals.
-4.724526	ankles
-3.821436	announced
-4.791473	announced.
-5.268594	announced.)
-3.763444	announcement
-4.393533	announcement.
-5.569624	announcement.)
-4.967565	announcements.
-5.569624	announcements.)
-5.092503	annoyed.
-5.092503	annoying
-4.791473	annoying.
-4.227201	annual
-3.390647	another
-5.092503	another.
-3.853621	answer
-5.268594	answer,
-4.247405	answer.
-5.268594	answer.)
-5.268594	answer?
-5.268594	answered.
-5.092503	answers
-4.870654	answers.
-4.967565	anthrax?
-5.569624	anti
-4.791473	anxious
-3.002598	any
-5.569624	any.
-5.268594	anymore
-5.092503	anymore.
-3.879428	anyone
-5.092503	anyone,
-4.05111	anyone.
-5.569624	anyone.)
-3.645345	anything
-4.528232	anything,
-4.365504	anything.
-5.268594	anything.)
-4.314352	anyway,
-4.122466	anyway.
-4.870654	anyway?
-4.615382	anywhere
-4.227201	anywhere.
-5.569624	anywhere."
-5.569624	anywhere.)
-5.268594	anywhere?
-4.967565	apart
-5.268594	apart,
-4.393533	apart.
-5.569624	apart."
-5.092503	apartheid.
-5.569624	apartment
-5.569624	appaling
-5.569624	appaling.
-4.490443	appalled
-5.268594	appalling
-4.967565	appalling,
-4.393533	appalling.
-5.268594	appalling.)
-3.552591	apparently
-3.989841	appeal
-4.154651	appeal.
-5.569624	appeal.)
-5.268594	appeal?
-4.339175	appealed
-5.268594	appealed.
-4.490443	appealing
-3.956841	appear
-4.967565	appear.
-4.615382	appearance
-3.845348	appeared
-5.569624	appeared.
-4.393533	appears
-5.092503	applauded
-4.569624	applicants.
-4.791473	applied
-4.967565	apply
-5.092503	apply.
-5.268594	applying.
-4.490443	appointed
-4.666534	appointed.
-4.967565	appointing
-4.05111	appointment
-4.791473	appointment.
-4.078263	approach
-4.268594	approach.
-5.268594	approach?
-5.268594	approached.
-5.092503	approaching
-4.724526	appropriate
-4.423496	appropriate.
-5.569624	approval
-4.967565	approval,
-4.189413	approval.
-5.569624	approvals
-4.967565	approve
-4.569624	approved.
-4.967565	arc,
-3.569624	arch,
-4.967565	archaic.
-4.666534	architect.
-4.423496	architects.
-5.268594	architects.)
-2.217056	are
-4.870654	are,
-4.314352	are.
-4.666534	are?
-4.791473	area
-3.75008	area.
-5.268594	area.)
-4.154651	areas
-4.490443	areas.
-5.092503	aren't
-5.569624	aren't.
-4.666534	argue
-5.569624	argue.
-5.569624	argued
-5.268594	argued.
-5.092503	argues
-5.569624	arguing
-4.791473	argument
-4.423496	argument.
-5.569624	argument.)
-4.870654	arguments
-4.967565	arguments.
-5.569624	arise
-4.967565	arises
-5.092503	arm
-5.569624	arm.)
-4.365504	army
-4.666534	army.
-4.025556	around
-5.569624	around,
-4.724526	around.
-4.189413	arranged.
-5.569624	arranged.)
-4.870654	arrangement
-5.092503	arrest.
-4.569624	arrested
-5.268594	arrested,
-4.455681	arrested.
-4.314352	arrival
-5.092503	arrival.
-4.528232	arrived
-4.189413	arrived.
-4.339175	arrogance
-4.967565	arrogance.
-5.268594	arrogant.
-4.870654	arrow
-5.569624	arrow.
-5.092503	art
-4.092503	art.
-5.569624	art."
-5.268594	art.)
-4.967565	art?
-4.967565	article
-4.791473	article.
-5.569624	article."
-4.615382	artist
-4.791473	artist.
-5.569624	artist.)
-4.724526	artists
-4.870654	arts
-4.967565	arts.
-5.092503	artwork.
-2.476203	as
-4.666534	ashamed
-4.791473	ashamed.
-5.092503	aside.
-4.013322	ask
-5.092503	ask?
-3.724526	asked
-5.092503	asked,
-5.268594	asked.
-4.666534	asking
-4.092503	aspect
-4.791473	aspects
-5.569624	assassin.
-4.666534	assault
-5.569624	assaulted,
-4.967565	assaulted.
-4.870654	assaults.
-5.569624	assembly
-4.569624	assertion.
-5.569624	assertion.)
-5.569624	assess
-5.092503	assessment
-5.092503	assessment.
-4.967565	asset
-5.092503	asset.
-5.268594	assets
-4.365504	assets.
-4.791473	assignment.
-5.569624	assistance,
-4.791473	assistance.
-4.791473	assumed.
-5.569624	assumption
-5.569624	assumption.
-5.092503	assure
-5.268594	assured
-4.791473	assured.
-4.666534	astonished
-5.569624	astounding.
-4.078263	asylum
-2.424739	at
-5.569624	at,
-4.666534	at.
-5.268594	at?
-5.569624	at?)
-4.528232	athlete.
-5.092503	athletes
-4.666534	athletes.
-5.569624	athletes.)
-5.092503	athletics.
-3.956841	atmosphere
-5.569624	atmosphere.
-4.967565	atrocious.
-5.092503	attachment
-4.154651	attack
-3.862054	attack.
-5.569624	attack.)
-5.268594	attacked
-5.569624	attacked.
-4.423496	attacker
-5.569624	attacking
-4.724526	attacks
-4.724526	attacks.
-4.092503	attempt
-5.268594	attempt.
-5.569624	attempted
-4.870654	attempting
-5.268594	attempts
-4.528232	attend
-5.268594	attend.
-5.569624	attend."
-4.870654	attend?
-4.967565	attendance
-4.791473	attended
-5.569624	attending
-4.791473	attention
-5.268594	attention,
-4.05111	attention.
-5.569624	attention."
-5.268594	attention.)
-4.314352	attitude
-4.064475	attitude.
-5.569624	attitude.)
-5.268594	attitudes
-4.423496	attitudes.
-5.569624	attitudes.)
-5.569624	attorney
-4.122466	attracted
-5.268594	attracted.
-4.455681	attracting
-5.569624	attraction
-5.092503	attraction.
-4.724526	attractive
-4.870654	attrition
-5.092503	auction
-4.455681	auction.
-5.268594	auction.)
-5.268594	audible.
-4.171684	audience
-5.569624	audience,
-4.528232	audience.
-4.791473	audiences
-5.092503	audiences.
-5.092503	audio
-4.666534	audit
-5.268594	audition
-5.268594	audition,
-5.268594	audition.
-5.569624	auditors
-4.967565	authority.
-4.967565	authors.
-5.092503	autism
-4.107226	autumn.
-4.724526	avail.
-4.791473	available
-5.569624	available.
-5.569624	available.)
-5.092503	avalanche
-4.528232	average
-4.490443	average.
-4.967565	average.)
-4.967565	averted
-4.171684	avoid
-5.569624	avoided
-4.870654	avoided.
-5.569624	await
-4.870654	awaiting
-4.967565	awaits.
-4.393533	award
-4.569624	award.
-5.569624	award.)
-5.569624	awarded
-4.393533	awards
-5.092503	awards.
-4.423496	aware
-4.528232	awareness.
-5.569624	awareness."
-3.462414	away
-5.268594	away,
-3.756711	away.
-5.092503	away.)
-4.791473	away?
-5.569624	away?)
-4.025556	awesome.
-4.528232	awful
-3.853621	awful.
-5.268594	awful."
-5.268594	awful?
-5.268594	awfully
-5.092503	ba.
-4.393533	baby
-5.092503	baby,
-4.870654	baby.
-3.185809	back
-4.666534	back,
-3.501438	back.
-5.268594	back.)
-5.569624	back?)
-5.268594	backdated.
-5.569624	backed
-5.268594	backfire.
-4.569624	background
-4.13826	background.
-5.092503	background.)
-4.528232	backing
-4.967565	backing,
-4.569624	backwards.
-5.569624	backwards."
-5.569624	backwards.)
-5.268594	backyard.
-5.268594	bacterium.
-3.798772	bad
-4.393533	bad,
-4.207897	bad.
-5.569624	bad.)
-4.171684	badly
-5.569624	badly,
-4.791473	badly.
-5.569624	badly.)
-5.569624	badminton.
-3.544318	bags,
-5.092503	bags.
-4.455681	balance
-4.207897	balance.
-5.569624	balance."
-5.569624	balance.)
-4.870654	balanced.
-5.569624	balancing
-4.171684	ball
-4.569624	ball.
-4.724526	ballet.
-4.870654	ballot.
-5.569624	balloted
-5.092503	baloney.
-5.268594	ban
-5.268594	ban.
-3.532198	band
-3.548435	band,
-4.870654	band.
-5.569624	bands
-4.615382	bank
-5.268594	bank.
-4.791473	banker.
-5.569624	banker.)
-5.268594	bankers,
-4.455681	banking
-5.569624	banking.)
-4.870654	banks
-5.569624	banks.
-5.569624	banks.)
-4.528232	banned
-5.268594	banned.)
-4.290871	bar.
-5.092503	bar.)
-4.791473	bare.
-5.268594	barely
-5.268594	bargain.
-4.423496	barrier
-5.268594	barriers.
-5.268594	barriers?
-4.870654	base
-5.569624	base.)
-4.227201	based
-5.092503	basic
-4.870654	basically
-5.569624	basics
-4.967565	basis
-5.092503	basis,
-5.092503	basis.
-5.569624	basis.)
-4.724526	basketball.
-4.967565	bass
-5.092503	bastard.
-5.092503	bastards.
-5.092503	baton
-3.737115	battle
-5.569624	battle,
-4.615382	battle.
-5.569624	battle.)
-2.082062	be
-5.569624	be,
-3.625142	be.
-5.569624	be.)
-4.666534	be?
-4.666534	bear
-4.870654	bear.
-4.171684	beat
-5.092503	beat.
-3.845348	beaten
-5.092503	beaten.
-5.569624	beating
-3.399363	beautiful
-5.268594	beautiful.
-4.393533	beauty
-4.967565	beauty.
-3.655811	became
-3.508926	because
-3.694563	become
-4.268594	becomes
-4.490443	becoming
-4.967565	bed.
-4.870654	bedroom.
-5.268594	bedside
-5.268594	bedside.
-5.092503	beef
-2.39673	been
-4.870654	been,
-3.936156	been.
-5.569624	been."
-5.569624	been.)
-5.092503	been?
-3.324112	before
-3.906867	before.
-5.268594	before?
-4.967565	beforehand?
-3.862054	began
-5.268594	began,
-5.569624	began.
-4.038146	begin
-5.268594	begin,
-4.791473	begin.
-5.569624	beginners.
-3.897527	beginning
-4.528232	beginning,
-3.97856	beginning.
-5.268594	beginning.)
-5.569624	beginning?
-4.724526	begins
-5.569624	begins.
-5.268594	begun
-4.339175	begun.
-5.092503	behalf
-5.268594	behalf.
-5.569624	behaved
-5.092503	behaved.
-4.207897	behaviour
-4.870654	behaviour.
-3.756711	behind
-5.569624	behind.
-3.309553	being
-5.268594	being.
-5.268594	beings
-4.666534	beings.
-5.569624	beings.)
-4.314352	belief.
-5.268594	beliefs.
-3.302453	believe
-4.967565	believe.
-3.784295	believed
-4.870654	believed.
-4.967565	believer.
-4.455681	believes
-4.569624	believes.
-5.569624	believes.)
-5.569624	belly.
-5.268594	belongs
-5.092503	beloved
-5.569624	bemused.
-5.092503	bench.
-4.724526	benches.
-4.791473	benchmark.
-4.791473	benefit
-4.314352	benefit.
-5.569624	benefit.)
-4.490443	benefits
-5.268594	benefits.
-4.967565	bereavement.
-5.569624	beside
-4.001422	best
-5.092503	best,
-4.569624	best.
-5.569624	best.)
-4.724526	bet
-4.791473	betrayal
-5.569624	betrayal.
-5.569624	betrayed.
-3.784295	better
-4.122466	better.
-5.092503	better?
-3.694563	between
-5.268594	between,
-5.569624	between.
-5.268594	bewildered
-3.184018	beyond
-4.268594	bid
-4.724526	bid.
-5.268594	bidder
-5.268594	bidder.
-3.076864	big
-4.528232	big,
-4.870654	big.
-5.569624	big.)
-5.569624	big?
-4.666534	bigger
-4.393533	biggest
-5.569624	bigot.
-5.092503	bigotry.
-5.569624	bike.
-4.490443	bill
-4.455681	bills.
-5.268594	bills.)
-4.314352	bin
-4.615382	binding.
-4.615382	birdie
-5.569624	birth.
-4.791473	birthday
-4.791473	birthday,
-5.268594	biscuit.
-3.497742	bit
-3.936156	bit.
-5.569624	bit."
-5.092503	bit.)
-5.569624	bits
-4.870654	bitter.
-4.666534	bitterly
-5.569624	bitterness
-4.490443	bizarre.
-5.092503	bizarre.)
-5.569624	bizarre?
-4.393533	black
-5.268594	blackened.
-5.268594	blackout
-4.247405	blame
-4.967565	blame.
-5.268594	blame.)
-4.528232	blamed
-4.490443	blamed.
-5.569624	blamed.)
-5.092503	blaming
-4.967565	blast.
-4.615382	blessing.
-5.092503	blew
-4.870654	blind.
-4.870654	block
-4.791473	blocks.
-4.171684	blood
-4.791473	blood.
-5.268594	blood?
-5.092503	bloody
-4.268594	blow.
-4.724526	blown
-3.532198	blue
-3.561024	blue.
-5.569624	blue."
-4.967565	blue.)
-5.268594	blue.It's
-4.870654	blue.She
-5.268594	blueprint
-5.569624	blunt
-3.989841	board
-3.956841	board.
-5.569624	board.)
-5.092503	boarding
-4.290871	boat
-4.666534	boat.
-5.268594	boat.)
-4.314352	bodies
-4.724526	bodies.
-5.268594	bodies.)
-3.706301	body
-4.528232	body.
-3.548435	boiling
-4.569624	bomb.
-4.967565	bombardment
-5.569624	bomber
-5.569624	bombers.
-5.092503	bombing
-4.490443	bombing.
-5.569624	bombing.)
-5.569624	bombshell.
-4.870654	bonus
-4.268594	bonus,
-4.615382	bonus.
-4.528232	book
-5.569624	book!
-4.339175	book.
-5.569624	booked
-5.569624	bookies
-4.569624	booking.
-4.666534	bookings.
-5.569624	bookings.)
-5.092503	books
-5.092503	books.
-5.569624	bookshops.
-4.569624	boost
-4.339175	boost.
-5.268594	border.
-4.314352	born
-4.615382	born.
-4.615382	boss.
-3.561024	both
-4.870654	both.
-4.423496	bother
-4.666534	bottle.
-4.393533	bottom
-4.393533	bought
-4.615382	bought.
-4.455681	bound
-5.268594	boundaries.
-4.290871	bout
-3.247405	bow
-3.544318	bow,
-3.569624	bows.
-5.092503	box
-5.092503	box.
-5.092503	boxer,
-4.870654	boxing
-5.569624	boxing.
-4.268594	boy
-4.791473	boy.
-4.569624	boys
-4.870654	boys.
-5.268594	boys.)
-5.569624	branch
-4.393533	branches
-4.791473	brand
-5.569624	brand.
-5.268594	bravado.
-4.455681	brave
-4.724526	brave.
-4.290871	breach
-4.189413	break
-5.569624	break-in
-4.365504	break.
-5.092503	break.)
-5.569624	breakaway.
-4.724526	breakdown
-5.569624	breakdown.
-4.791473	breaking
-4.339175	breakthrough.
-5.569624	breakthrough."
-4.967565	breath
-5.569624	breath!
-4.791473	breath.
-4.393533	breathtaking
-5.569624	breeding
-3.512719	bridge
-5.268594	briefly
-4.967565	bright
-4.290871	brighter
-5.569624	brilliant
-4.490443	brilliant.
-3.459035	bring
-5.268594	bringing
-4.615382	brings
-5.092503	brink
-5.092503	brink.
-5.092503	brittle
-4.227201	broadcast.
-5.569624	broadcast."
-4.870654	broadly
-5.268594	brochure.
-5.092503	broke
-5.092503	broke.
-4.207897	broken
-4.455681	broken,
-5.092503	broken.
-5.569624	broken.)
-4.870654	bronze.
-3.536201	brother
-5.569624	brother's
-4.339175	brother,
-4.791473	brother.
-5.569624	brother.)
-5.569624	brothers
-4.870654	brothers.
-3.888383	brought
-4.666534	brunt
-5.268594	bubbles.
-5.268594	bucket.
-4.154651	budget
-5.268594	budget.
-5.569624	budget.)
-5.092503	bug.
-4.528232	build
-4.967565	build-up
-5.569624	build.
-4.393533	building
-5.092503	building,
-5.569624	building.
-5.268594	buildings
-5.092503	buildings.
-4.314352	built
-4.247405	built.
-5.569624	built."
-5.268594	bulk
-5.569624	bully.
-5.268594	bunch
-4.870654	bunker.
-5.092503	bunkers.
-5.569624	buoyant.
-5.569624	burial
-4.791473	buried
-4.870654	buried!
-5.268594	burning
-4.455681	bus
-4.791473	bus.
-4.666534	buses.
-5.092503	bush.
-3.791473	business
-5.092503	business,
-3.821436	business.
-4.870654	business.)
-5.268594	business?
-4.967565	businesses
-5.092503	businesses,
-4.967565	businesses.
-5.092503	businesslike.
-4.490443	busy
-4.666534	busy.
-5.569624	busy.)
-2.668711	but
-5.569624	butcher
-4.038146	buy
-4.615382	buy.
-4.791473	buyer
-4.423496	buyer.
-5.092503	buyer.)
-4.967565	buzz.
-2.44905	by
-5.268594	by.
-4.870654	bystanders
-4.870654	cabinet
-5.092503	cabinet.
-5.569624	cafe.
-5.569624	cake.
-5.268594	calibre?
-3.497742	call
-4.207897	call.
-5.268594	call.)
-3.888383	called
-5.569624	called?
-5.268594	calling
-5.268594	callous.
-4.666534	calls
-5.268594	calls.
-5.092503	calm
-3.297783	came
-4.615382	came.
-4.724526	camera.
-3.967564	campaign
-4.490443	campaign.
-5.268594	campaign.)
-5.092503	campaign?
-4.870654	campaigners
-4.870654	campaigning
-2.629606	can
-3.379293	can't
-4.365504	can't.
-5.569624	can't."
-4.870654	can.
-4.569624	cancelled.
-4.365504	cancer
-4.870654	cancer.
-5.569624	candid.
-4.870654	candidate
-4.967565	candidate.
-5.268594	candidates
-4.615382	cannabis.
-5.268594	cannabis.)
-3.67753	cannot
-4.967565	cap.
-4.528232	capable
-4.393533	capable.
-4.967565	capacity.
-5.092503	capacity.)
-4.528232	capital
-4.967565	capital.
-5.569624	capital.)
-4.268594	captain
-4.967565	captain,
-4.615382	captain.
-5.268594	captain?
-5.092503	captaincy
-5.268594	captors.
-5.569624	capture
-4.207897	car
-4.365504	car.
-4.967565	carcasses.
-4.724526	card
-4.339175	card.
-5.092503	card.)
-4.724526	cards.
-4.154651	care
-4.528232	care.
-4.064475	career
-5.569624	career,
-3.926172	career.
-4.791473	career.)
-4.870654	careful
-4.393533	careful.
-4.724526	carefully
-4.967565	carefully.
-5.092503	carers.
-4.423496	cares
-5.268594	cares?
-5.092503	carnival.
-5.569624	carpet.
-5.569624	carpet.)
-4.13826	carried
-5.569624	carries
-4.393533	carry
-5.569624	carrying
-3.512719	case
-3.916412	case,
-3.798772	case.
-5.092503	case.)
-5.268594	case?
-4.455681	cases
-4.490443	cases,
-4.791473	cases.
-3.989841	cash
-4.791473	cash.
-5.268594	casino.
-5.268594	cassette.
-4.528232	casting
-5.569624	casting.
-5.092503	castle.
-4.455681	casualties
-4.528232	casualties.
-5.569624	casualties.)
-4.870654	casualty
-5.092503	catalogue
-5.268594	catalyst
-5.569624	catastrophe
-4.967565	catch
-4.569624	catch.
-5.569624	catch."
-5.569624	catching
-4.967565	cattle.
-5.569624	catwalk.
-4.171684	caught
-3.926172	cause
-5.569624	cause.
-3.411262	caused
-5.569624	caused.
-3.544318	causes
-4.666534	causes.
-5.268594	causing
-4.666534	caution.
-5.569624	caution.)
-4.967565	cautious
-4.615382	cautious,
-4.666534	cautious.
-5.092503	caveat.
-4.365504	ceasefire
-4.791473	ceasefire.
-5.268594	ceasefire.)
-5.569624	ceilidh.
-4.870654	ceiling.
-4.423496	celebrate
-4.791473	celebrate.
-5.569624	cell.
-5.092503	cellars.
-4.189413	central
-4.569624	centre
-4.365504	centre.
-5.569624	centres
-5.092503	centres.
-3.540241	centuries
-5.092503	century
-4.666534	century.
-5.569624	century.)
-3.845348	certain
-4.455681	certain.
-3.405272	certainly
-5.268594	certainly.
-4.290871	chairman
-4.791473	chairman,
-4.569624	chairman.
-4.393533	challenge
-3.936156	challenge.
-5.268594	challenge.)
-5.268594	challenged
-5.268594	challenged.
-5.569624	challenger
-5.092503	challenges
-5.268594	challenges.
-4.490443	challenging
-4.791473	challenging,
-5.268594	challenging.
-4.569624	champagne
-4.724526	champion
-5.569624	champion.
-4.666534	champions.
-4.569624	championship
-4.791473	championship.
-5.569624	championship.)
-4.967565	championships
-5.268594	championships.
-4.05111	chance
-5.268594	chance,
-3.737115	chance.
-5.092503	chance.)
-4.569624	chances
-5.268594	chances,
-4.247405	chances.
-5.569624	chances.)
-3.302453	change
-5.092503	change,
-3.777233	change.
-5.569624	change."
-5.569624	change.)
-4.870654	change?
-3.770284	changed
-5.268594	changed,
-3.75008	changed.
-5.569624	changed."
-5.569624	changed.)
-4.528232	changed?
-3.879428	changes
-4.365504	changes.
-5.268594	changes.)
-4.13826	changing
-5.569624	changing.
-5.268594	channel
-4.171684	chaos.
-5.569624	chaos.)
-5.092503	chaotic
-4.870654	chaotic.
-5.092503	chapter,
-4.528232	character
-4.393533	character.
-4.615382	characters
-5.092503	characters.
-4.870654	charge
-4.314352	charge.
-4.455681	charged
-4.569624	charged.
-5.268594	charged.)
-4.314352	charges
-4.967565	charges.
-5.268594	charges.)
-5.092503	charisma
-4.314352	charity
-5.092503	charity,
-5.569624	charm.
-4.455681	chat.
-5.569624	chat."
-5.092503	cheap.
-5.569624	check
-5.092503	check-up.
-4.967565	check.
-3.544318	cheese,
-4.791473	chemistry.
-5.569624	chemistry."
-4.290871	chief
-5.268594	chiefs
-4.423496	child
-4.423496	child.
-5.569624	child.)
-5.268594	child?
-4.791473	childbirth.
-4.423496	childhood
-4.455681	childhood.
-5.268594	childhood.)
-3.967564	children
-5.092503	children,
-3.569624	children.
-5.092503	children."
-5.268594	children.)
-5.569624	chill.
-4.569624	chilling
-4.314352	chilling.
-5.569624	chilling."
-4.314352	choice
-5.092503	choice,
-3.916412	choice.
-5.569624	choice."
-5.268594	choices
-5.569624	choir.
-4.967565	choose.
-4.423496	chose
-4.207897	chosen
-5.569624	chosen.
-4.247405	church
-5.569624	church.
-5.268594	cigarette.
-5.092503	cinema
-4.666534	cinema.
-5.268594	cinema.)
-4.724526	circle
-4.339175	circle.
-5.569624	circle.)
-4.724526	circumstances
-5.268594	cities.
-4.724526	citizens.
-4.064475	city
-4.092503	city.
-4.171684	civil
-4.724526	civilians.
-5.268594	civilised
-5.268594	civilised.
-4.615382	claim
-4.791473	claim.
-4.189413	claimed
-5.092503	claimed,
-4.339175	claimed.
-4.870654	claiming
-5.268594	claims
-4.365504	claims.
-4.290871	clarify
-4.666534	clarity
-5.268594	clarity.
-4.791473	class
-4.227201	class.
-5.569624	classes
-5.569624	classes.
-5.268594	classic
-5.268594	classic.
-4.615382	classical
-5.569624	classical.
-4.528232	clean
-4.870654	clean.
-4.870654	cleaner.
-5.569624	cleaning
-3.694563	clear
-5.092503	clear-cut.
-3.620234	clear.
-5.569624	clear."
-4.724526	clear.)
-5.569624	cleared
-5.268594	cleared.
-5.092503	clearer.
-4.078263	clearly
-4.967565	clearly,
-5.092503	clearly.
-5.569624	clerk
-4.791473	clever
-4.724526	clever.
-4.724526	clients.
-5.268594	clients.)
-4.455681	climate
-5.092503	climate,
-4.724526	climax
-5.569624	climb.
-5.569624	clinic.
-4.569624	clinical
-5.268594	clinicians
-5.092503	cloning.
-3.655811	close
-5.569624	close,
-4.666534	close.
-3.926172	closed
-4.870654	closed.
-5.268594	closed.)
-4.967565	closely
-4.967565	closely.
-5.569624	closing
-5.268594	closing.
-4.666534	closure
-3.763444	club
-3.837231	club.
-5.569624	club."
-5.569624	club.)
-5.092503	club?
-5.569624	clubhouse
-5.268594	clubhouse.
-4.615382	clubs
-4.791473	clubs.
-4.339175	clue.
-4.967565	clutching
-4.339175	coach
-4.247405	coach,
-5.268594	coach.
-4.967565	coaches
-5.092503	coaches.
-5.092503	coaches?
-5.268594	coaching
-5.268594	coaching.
-4.967565	coalition.
-5.092503	coast
-5.569624	coast.
-4.870654	code.
-5.569624	coffins.
-4.967565	cohesion.
-5.092503	cold
-4.227201	cold.
-5.569624	collapse.
-5.268594	collapsed
-5.268594	collapsed.
-5.569624	collapsing.
-4.528232	colleagues.
-5.569624	collecting
-5.569624	collecting.
-5.092503	collection
-4.724526	collective
-5.569624	collies.
-4.724526	collision
-3.544318	colored
-3.544318	colors.
-4.365504	colour
-5.268594	colourful
-5.092503	colourful.
-5.569624	colours
-5.569624	coma.
-5.268594	combat.
-4.967565	combination
-3.003777	come
-5.092503	come,
-3.956841	come.
-5.569624	come.)
-5.092503	come?
-5.569624	comedian?
-4.490443	comedy
-5.569624	comedy.)
-5.569624	comended
-3.967564	comes
-5.569624	comes.
-5.569624	comes.)
-4.724526	comfortable
-5.092503	comforted
-5.268594	comforting
-3.862054	coming
-5.268594	coming,
-4.490443	coming.
-4.967565	commanding.
-5.569624	commended.
-3.829262	comment
-5.569624	comment,
-3.791473	comment.
-4.870654	comment.)
-5.268594	commenting
-4.967565	comments
-5.569624	comments.
-4.423496	commercial
-5.569624	commercial.
-4.569624	commission
-4.268594	commission,
-4.724526	commission.
-5.268594	commissioned
-5.569624	commissioned.
-5.569624	commissioned.)
-5.569624	commit
-5.569624	commit.
-4.314352	commitment
-4.870654	commitment,
-4.569624	commitment.
-5.569624	commitment.)
-4.791473	commitments.
-4.423496	committed
-4.967565	committed,
-5.569624	committed.
-4.490443	committee
-4.724526	committee's
-5.092503	committee,
-4.724526	committee.
-5.268594	committees
-3.439291	common
-5.092503	commonplace.
-5.268594	communal
-4.791473	communist
-3.989841	companies
-5.092503	companies,
-4.455681	companies.
-5.569624	companies.)
-5.092503	companion
-3.587353	company
-4.967565	company's
-4.569624	company,
-3.853621	company.
-5.268594	company.)
-4.528232	compare
-5.569624	compare.
-5.268594	comparing
-5.092503	compelled
-5.569624	compelling
-4.268594	compelling.
-5.092503	compelling.)
-4.791473	compensation.
-5.569624	compensation.)
-4.615382	compete
-4.870654	compete.
-4.967565	competed
-5.268594	competing
-5.092503	compiled
-4.967565	complacent
-4.791473	complacent.
-5.569624	complain
-5.268594	complaining
-5.569624	complaining.
-4.13826	complaint.
-5.268594	complaint.)
-4.791473	complaints
-4.724526	complaints.
-4.189413	complete
-4.724526	complete.
-4.189413	completed
-5.092503	completed.
-3.730775	completely
-4.967565	completely.
-5.569624	completely.)
-5.569624	completing
-4.791473	complex
-4.528232	complex.
-5.569624	complex.)
-5.092503	compliance.
-3.544318	complicated
-5.569624	compliment
-4.724526	comply
-4.967565	comply.
-4.615382	composer
-4.967565	composite
-4.207897	composure
-4.314352	compromise
-5.268594	compromise.
-5.092503	computer
-4.569624	computer,
-5.268594	computer.
-5.569624	con.
-5.092503	conceded.
-4.870654	conceived
-4.490443	concentrate
-5.569624	concentrate.
-4.528232	concept
-5.268594	concept.
-5.569624	concept.)
-3.694563	concern
-3.946375	concern.
-5.569624	concern?
-3.837231	concerned
-4.870654	concerned,
-4.615382	concerned.
-4.268594	concerns
-4.724526	concerns.
-5.268594	concert
-4.791473	concert.
-4.967565	concerted
-5.268594	concerto.
-5.268594	concertos?
-5.569624	concession
-4.666534	concessions
-5.569624	conclude.
-5.569624	concluding
-4.154651	conclusion
-5.569624	conclusion.
-5.569624	conclusions
-4.569624	conclusions.
-4.268594	condemned
-3.552591	condition
-4.078263	condition.
-5.569624	condition.)
-4.615382	conditions
-5.268594	conditions.
-4.393533	conduct
-4.528232	conduct.
-5.569624	conduct.)
-4.967565	conducted
-5.569624	conducting
-5.569624	conductor,
-5.268594	conductors,
-3.956841	conference
-4.268594	conference.
-5.268594	conference.)
-5.268594	confess.
-4.967565	confession
-4.569624	confession.
-3.74355	confidence
-3.770284	confidence.
-5.569624	confidence.)
-4.092503	confident
-4.724526	confident.
-4.615382	confined
-4.615382	confirm
-4.078263	confirmed
-4.490443	confirmed.
-5.569624	confirmed."
-5.569624	confirmed.)
-5.092503	confirms
-4.528232	conflict
-4.967565	conflict.
-4.870654	conflicts
-4.870654	conform.
-5.569624	confronted
-5.268594	confused
-4.569624	confused.
-4.290871	confusion
-4.569624	confusion.
-4.615382	congestion
-4.967565	congestion.
-4.666534	connected.
-5.569624	connected."
-4.967565	connection
-4.791473	connection.
-4.967565	conscience
-4.666534	conscious
-5.268594	conscious?
-5.092503	conscripts.
-5.268594	consensus
-4.791473	consensus.
-5.268594	consent
-4.569624	consequence
-5.092503	consequences
-4.247405	consider
-5.569624	consider.
-3.544318	considerably
-5.268594	consideration
-3.382104	considered
-4.666534	considered.
-5.268594	consigned
-4.967565	consistent
-4.791473	consistent.
-5.268594	conspicuous
-4.791473	constable
-5.092503	constant
-4.870654	constantly
-5.569624	constructed
-4.393533	construction
-5.268594	construction,
-4.724526	constructive
-5.092503	consular
-5.569624	consult
-4.268594	consultant
-5.268594	consultants
-4.569624	consultants.
-5.268594	consultation
-5.569624	consultation.
-5.569624	consultation.)
-4.870654	consulted
-5.569624	consulted.
-4.490443	consulting
-4.455681	consumed
-4.724526	consumer
-5.092503	consumer.
-4.870654	consumers
-5.092503	consumers.
-5.092503	consuming.
-4.967565	consumption.
-4.189413	contact
-4.490443	contact.
-5.569624	contact."
-5.268594	contact.)
-4.724526	contacted
-5.092503	contacted.
-4.666534	contain
-4.268594	contained
-5.268594	contained.
-5.569624	contemplated
-4.615382	contempt
-4.615382	contempt.
-4.615382	contender.
-5.268594	contender.)
-4.490443	contenders
-5.569624	contenders.
-5.092503	content
-5.092503	contention
-5.569624	contention.
-5.569624	contentious
-4.666534	contentious.
-5.569624	contentious.)
-5.268594	contest
-4.791473	contest.
-4.393533	contested
-5.268594	context
-4.207897	context.
-3.806196	continue
-4.339175	continue.
-5.268594	continue.)
-3.845348	continued
-4.615382	continued.
-4.092503	continues
-4.791473	continues.
-4.025556	contract
-4.154651	contract.
-5.268594	contract.)
-4.870654	contractor
-5.569624	contracts
-4.615382	contracts.
-5.092503	contracts.)
-4.569624	contrary
-4.455681	contrary,
-5.569624	contrary.
-5.569624	contrast
-5.268594	contrast,
-5.268594	contrasting
-4.569624	contribute
-4.569624	contribute.
-5.569624	contribute."
-5.569624	contribute.)
-4.791473	contribution.
-5.569624	contribution.)
-4.268594	control
-3.956841	control.
-5.569624	control.)
-5.569624	controlled
-5.092503	controlled.
-5.569624	controlled.)
-4.791473	controller
-5.569624	convened.
-4.967565	conversion
-5.569624	conversion.
-5.569624	converted.
-4.791473	convicted
-5.092503	convicted,
-4.455681	conviction
-5.092503	conviction.
-4.870654	convictions.
-5.092503	convictions.)
-4.967565	convince
-5.569624	convinced
-4.791473	convinced.
-4.967565	convincing
-4.967565	convincing.
-5.268594	cooking
-4.791473	cool.
-4.870654	cop
-4.528232	cope
-4.290871	cope.
-5.268594	cope.)
-4.666534	copy
-5.092503	copy.
-4.290871	core
-4.290871	corner.
-5.569624	corner.)
-5.092503	corporate
-5.092503	correct
-5.268594	correct.
-5.268594	corrected
-4.107226	cost
-5.569624	cost,
-4.870654	cost.
-5.268594	cost.)
-4.967565	costed.
-4.490443	costs
-5.569624	costs.
-2.795838	could
-5.268594	could've
-3.724526	couldn't
-5.569624	couldn't.
-3.700393	council
-4.569624	council's
-4.569624	council,
-4.092503	council.
-5.268594	councillor
-4.615382	councillors.
-5.569624	counsel.
-4.967565	counselling
-4.615382	count
-5.092503	counter
-5.569624	counter,
-4.967565	counterpart
-4.122466	countries
-4.967565	countries.
-4.078263	country
-4.092503	country.
-5.569624	country."
-4.870654	country.)
-5.092503	countrymen
-5.268594	countrymen.
-5.569624	countryside
-4.423496	countryside.
-4.791473	counts.
-3.737115	couple
-4.791473	couple.
-5.569624	couples
-4.967565	courage
-4.314352	courage,
-5.268594	courage.
-3.888383	course
-3.661139	course,
-3.916412	course.
-5.569624	course.)
-4.339175	courses,
-3.737115	court
-4.314352	court.
-5.268594	courtesy.
-4.791473	courtroom.
-5.268594	courts.
-4.724526	cover
-4.870654	cover-up
-5.268594	cover-up.
-4.247405	covered
-5.092503	covers
-4.967565	cow?
-4.528232	crack
-4.967565	crack.
-5.569624	crack.)
-4.967565	crackdown
-5.092503	cracking
-4.967565	crash
-4.393533	crash.
-5.569624	crash.)
-4.314352	crazy
-4.064475	create
-4.171684	created
-4.666534	created.
-5.268594	created.)
-4.339175	creating
-4.154651	creation
-4.870654	creation.
-4.666534	creative
-5.569624	creative.
-4.967565	creator
-4.724526	credible
-4.528232	credit
-4.528232	credit.
-5.569624	creditors
-4.528232	creditors.
-5.268594	creditors.)
-5.092503	crest.
-4.791473	crew
-5.268594	crew.
-4.455681	criminal
-5.268594	criminal,
-5.569624	criminal.
-4.247405	criminals.
-5.092503	criminals.)
-4.122466	crisis
-5.569624	crisis,
-3.946375	crisis.
-4.967565	crisis.)
-4.666534	criteria
-4.268594	criteria,
-4.967565	criteria.
-4.791473	critical
-4.314352	critical,
-4.967565	critical.
-4.870654	critically
-5.569624	criticise.
-4.666534	criticised
-4.967565	criticism.
-5.569624	criticism.)
-5.569624	critics.
-5.569624	crops.
-4.615382	cross
-5.569624	cross-country.)
-5.092503	crossed.
-4.967565	crossfire.
-4.967565	crossroads.
-4.870654	crowd
-4.423496	crowd.
-5.569624	crowds.)
-5.268594	crowning
-4.078263	crucial
-4.666534	crucial.
-4.528232	crunch.
-5.569624	crunch."
-4.528232	cry
-4.791473	cull.
-4.455681	culpable
-3.989841	culture
-4.724526	culture.
-5.569624	culture.)
-5.092503	cultures
-4.569624	cup
-4.870654	cup.
-5.569624	curious
-5.268594	currency
-4.967565	currency.
-4.455681	current
-3.837231	currently
-5.092503	curse
-5.268594	curve.
-5.569624	custody
-4.393533	customer
-5.268594	customers
-4.666534	customers.
-3.97856	cut
-4.365504	cut.
-4.490443	cuts
-4.666534	cuts.
-5.268594	cuts.)
-4.870654	cutting
-5.268594	cycle
-4.724526	cycle.
-5.268594	cycles.
-4.314352	cycling.
-5.092503	cycling.)
-4.569624	cynical
-4.870654	dad
-4.528232	daily
-5.092503	dairy
-4.314352	damage
-4.967565	damage.
-5.092503	damaged.
-5.569624	damaged.)
-5.268594	damages
-4.423496	damages,
-4.967565	damaging
-5.268594	damaging.
-5.092503	dancer.
-5.569624	dancer.)
-4.967565	dancers
-5.092503	dancers.
-5.569624	dancing
-4.870654	danger
-4.528232	danger.
-4.455681	dangerous
-4.569624	dangerous.
-5.268594	dangers
-4.870654	dark
-5.569624	dark.
-4.339175	data
-5.268594	database.
-5.569624	database.)
-4.339175	date
-5.092503	date,
-4.393533	date.
-5.569624	date.)
-4.207897	daughter
-5.092503	daughter,
-4.171684	daughter.
-5.569624	daunting
-3.569624	day
-4.247405	day,
-5.092503	day-to-day
-3.666534	day.
-5.569624	day."
-5.268594	day.)
-3.625142	days
-4.171684	days,
-3.671997	days.
-5.092503	days.)
-5.092503	daytime.
-5.092503	de
-4.154651	dead
-3.926172	dead.
-4.967565	dead.)
-4.290871	deadline
-4.870654	deadly
-3.402307	deal
-5.092503	deal!
-4.967565	deal,
-4.393533	deal.
-5.569624	deal.)
-4.870654	dealer
-5.569624	dealer.
-4.528232	dealer?
-5.092503	dealers.
-5.092503	dealing
-5.268594	deals.
-5.569624	deals.)
-4.967565	dealt
-3.888383	death
-4.001422	death.
-5.569624	death.)
-4.365504	debate
-4.207897	debate.
-4.615382	debated
-4.791473	debt
-4.569624	debt.
-4.569624	debut
-4.967565	debut.
-5.569624	decade
-4.967565	decade.
-4.528232	decades
-5.569624	deceit
-5.569624	deceit.
-4.455681	decent
-5.569624	decent.
-4.870654	deception
-4.967565	deception.
-4.247405	decide
-4.569624	decide.
-5.569624	decide.)
-3.763444	decided
-5.569624	decided,
-4.870654	decided.
-5.569624	decides
-5.268594	deciding
-3.168224	decision
-4.791473	decision,
-3.528232	decision.
-5.569624	decision."
-4.791473	decision.)
-3.97856	decisions
-4.207897	decisions.
-5.092503	decisions.)
-4.967565	decisive
-5.268594	decisive.
-5.569624	declare
-4.791473	declared.
-4.870654	decline.
-3.791473	declined
-4.528232	declined.
-5.092503	declining
-4.666534	deep
-5.569624	deeper
-3.870654	deeply
-5.268594	deeply.
-5.268594	default.
-5.268594	defeat
-4.967565	defeat,
-4.365504	defeated.
-5.569624	defeats.)
-4.393533	defence
-4.666534	defence.
-4.666534	defences
-4.314352	defend
-4.314352	defended
-4.615382	defender
-4.967565	defender,
-4.268594	defending
-4.967565	defensive
-5.268594	defensive.
-5.092503	deferred
-5.092503	defiance.
-5.092503	defiant.
-4.455681	deficit
-4.870654	defies
-5.268594	defined
-4.870654	defining
-4.569624	definite
-5.569624	deflect
-4.423496	degree.
-4.791473	degrees
-4.967565	deja
-5.569624	dejected.
-5.092503	delay
-4.967565	delay.
-5.569624	delay.)
-5.569624	delaying
-4.290871	delicate
-5.569624	delicious.
-4.393533	delight
-3.520406	delighted
-4.339175	delighted,
-4.078263	delighted.
-5.569624	delighted."
-5.569624	delighted.)
-4.615382	delightful
-4.314352	deliver
-4.666534	deliver.
-4.615382	delivered
-4.666534	delivered.
-4.528232	demand
-4.490443	demand.
-5.092503	demanded
-5.268594	demanding
-4.967565	demanding.
-5.268594	demands
-5.268594	demeaning.
-5.268594	demeanour.
-4.967565	demented,
-4.314352	demise
-5.569624	democrats?
-5.268594	demolished.
-5.268594	denial.
-3.862054	denied
-5.092503	denied.
-4.870654	denounced
-4.791473	deny
-5.268594	denying
-5.569624	department
-4.870654	department.
-4.870654	departments.
-4.393533	departure
-4.569624	departure.
-5.268594	departure.)
-4.490443	depend
-4.365504	dependent
-3.44252	depends
-5.268594	depleted.
-4.314352	deployed
-5.569624	deported
-5.569624	deported.
-5.092503	depressed.
-5.569624	depressing,
-5.092503	depressing.
-4.870654	depression
-4.870654	depth.
-3.967564	deputy
-4.666534	derailment.
-4.314352	derby
-5.268594	derided
-5.569624	descend
-5.569624	descent
-4.791473	describe
-5.569624	describe.
-3.683134	described
-4.870654	described.
-5.092503	describes
-5.092503	description.
-5.268594	desert?
-5.569624	deserted.
-4.290871	deserve
-5.569624	deserve.
-3.837231	deserved
-5.569624	deserved.
-4.268594	deserves
-5.268594	deserves.
-5.092503	design.
-5.268594	design?
-4.724526	designed
-5.268594	designed.
-4.365504	designers
-4.189413	desire
-5.268594	desire.
-5.268594	desired.
-4.078263	desperate
-4.314352	desperate.
-5.268594	desperate.)
-4.666534	desperately
-4.107226	despite
-4.791473	despondent.
-4.528232	destiny
-5.268594	destiny.
-5.268594	destroy
-4.455681	destroyed.
-4.870654	destroying
-4.870654	destruction
-5.092503	destruction.
-5.268594	destruction.)
-4.207897	detail
-4.791473	detail.
-5.268594	detail?
-5.268594	detailed
-3.916412	details
-4.455681	details.
-5.268594	details.)
-4.455681	detained
-5.569624	detect.
-5.268594	detectives.
-5.569624	deteriorated.
-4.791473	determine
-3.956841	determined
-5.569624	determined.
-5.569624	determined.)
-5.569624	deterred.
-5.092503	develop
-4.615382	develop.
-4.528232	developed
-4.528232	developed.
-4.724526	development.
-5.569624	device
-5.569624	device.
-4.967565	devices,
-4.967565	devices.
-5.092503	devil
-5.569624	devil,
-4.724526	devil.
-5.092503	devolved.
-5.569624	devolved."
-4.724526	devoted
-5.268594	devotion
-4.423496	diagnosed.
-5.569624	diagnosed.)
-5.569624	diagnosis
-4.967565	dialogue
-4.870654	dialogue.
-5.268594	dialogue.)
-4.967565	dictator
-2.942259	did
-4.870654	did,
-4.122466	did.
-5.569624	did.)
-3.163084	didn't
-5.569624	didn't,
-4.490443	didn't.
-4.189413	die.
-3.625142	died
-4.247405	died.
-5.268594	died.)
-4.967565	differ
-5.092503	differed.
-3.326586	difference
-3.956841	difference.
-4.666534	difference?
-5.092503	differences.
-3.490443	different
-3.436085	different.
-5.268594	different."
-5.092503	different.)
-5.569624	differently.
-3.423496	difficult
-4.967565	difficult,
-3.829262	difficult.
-5.569624	difficult.)
-5.092503	digital,
-4.791473	dignity
-4.791473	dilemma
-4.365504	dilemma.
-5.268594	diligent.
-4.967565	dimensions.
-5.268594	diminished
-5.268594	dining
-4.967565	dinner
-5.268594	dinner.
-4.724526	dip
-4.569624	direct
-5.569624	directed
-5.569624	directing
-5.268594	direction
-4.339175	direction.
-5.569624	direction.)
-4.666534	directions.
-5.268594	directions.)
-4.092503	director
-5.268594	director's
-4.207897	director.
-5.092503	directors
-5.092503	directors.
-5.268594	dirty
-4.724526	dirty.
-5.268594	disabled
-4.724526	disabled.
-5.092503	disagree
-4.615382	disagree.
-5.569624	disappear
-5.268594	disappeared
-4.791473	disappoint.
-5.092503	disappointed.
-4.967565	disappointing.
-5.569624	disarerry.
-4.967565	disarming.
-4.365504	disarray.
-5.268594	disarray.)
-4.528232	disaster
-4.13826	disaster.
-4.967565	disastrous.
-5.569624	disastrous.)
-5.569624	disband.
-5.268594	disbelief
-4.967565	disbelief.
-4.615382	discharged
-4.791473	discipline.
-5.569624	discipline.)
-5.569624	discipline?
-4.870654	disciplined.
-4.791473	disciplines.
-5.268594	disclosed.
-5.569624	disclosed.)
-4.967565	discontent
-5.569624	discontent.
-4.615382	discounting
-4.870654	discourage
-4.870654	discovered
-5.569624	discrimination.
-4.339175	discuss
-5.268594	discussed
-5.569624	discussed.
-4.207897	discussion
-5.092503	discussion.
-4.207897	discussions
-5.569624	discussions,
-4.870654	discussions.
-4.393533	disease
-5.569624	disgrace
-4.122466	disgrace.
-4.967565	disgrace.)
-4.314352	disgraceful
-5.268594	disgraceful.
-5.268594	disgusted.
-4.967565	disgusting.
-5.569624	dismal
-5.569624	dismayed.
-4.870654	dismissal.
-3.956841	dismissed
-4.791473	dismissed.
-5.569624	dismissed."
-5.268594	dismissed.)
-5.268594	dismissive.
-5.268594	dispersal
-4.666534	display.
-5.569624	displays.
-4.967565	disposal
-5.268594	disposals.
-5.569624	disposals.)
-4.455681	dispute
-5.569624	dispute.
-5.569624	dispute.)
-4.268594	disputed
-4.870654	disquiet
-4.967565	disrepute.
-5.092503	disruption
-5.268594	disruption.
-5.092503	disruption.)
-4.967565	dissent
-4.615382	dissent.
-5.092503	disservice.
-5.092503	dissolve
-5.092503	distance
-4.339175	distance.
-5.569624	distance."
-5.092503	distances.
-4.967565	distancing
-4.967565	distancing.
-4.724526	distinction
-4.967565	distinctive.
-5.092503	distorted
-5.569624	distortion
-5.569624	distressed.
-5.268594	distressing
-5.092503	distressing.
-5.268594	district.
-4.967565	districts.
-4.967565	disturbed
-5.569624	disturbed.
-5.092503	disturbing
-4.791473	disturbing.
-4.967565	dithering.
-5.268594	diva.
-5.268594	diverse
-5.569624	diverse.
-4.724526	divert.
-4.870654	divided
-5.569624	divided.
-5.569624	dividend
-4.967565	dividend.
-5.092503	dividend.)
-5.092503	dividends.
-3.501438	division
-4.666534	division.
-5.092503	divorce.
-4.791473	divorced.
-5.569624	divorced."
-5.268594	dizzy.
-2.603952	do
-4.666534	do,
-3.706301	do.
-5.092503	do.)
-4.393533	do?
-5.268594	do?)
-4.393533	doctor
-4.569624	doctor.
-4.314352	doctors
-4.724526	doctors.
-4.724526	document
-4.528232	document.
-5.569624	document.)
-3.277368	does
-5.569624	does!
-4.724526	does,
-4.05111	does.
-5.569624	does.)
-3.650546	doesn't
-4.207897	doesn't,
-4.171684	doesn't.
-5.569624	doesn't.)
-4.615382	dog.
-3.777233	doing
-5.569624	doing,
-4.967565	doing.
-5.268594	doing?
-5.092503	dollar.
-5.268594	dollars.
-5.268594	domain.
-5.268594	domestic
-5.268594	dominant.
-3.196712	don't
-4.724526	don't,
-4.528232	don't.
-4.870654	donation
-3.423496	done
-5.268594	done,
-3.879428	done.
-4.122466	door
-4.154651	door.
-4.092503	double
-5.092503	double,
-5.569624	double.
-5.268594	doubled
-4.393533	doubt
-5.268594	doubt,
-4.666534	doubt.
-5.268594	doubtful.
-3.655811	down
-4.870654	down,
-3.540241	down.
-5.569624	down.)
-5.268594	down?
-4.791473	downbeat,
-5.569624	downgrade
-5.569624	downgrading.
-5.569624	downside.
-4.870654	downturn
-4.870654	downward
-4.870654	drama
-5.268594	drama.
-4.569624	dramatic
-5.569624	dramatic.)
-4.791473	draw
-5.092503	draw.
-5.569624	drawback.
-4.569624	drawing
-5.569624	drawing.
-4.423496	drawn
-4.455681	drawn.
-5.569624	drawn.)
-5.569624	dreaded
-4.455681	dreadful
-4.724526	dream
-4.666534	dream.
-5.569624	dreams.
-4.870654	dress
-4.666534	dressing
-5.092503	drink.
-4.967565	drinking,
-5.092503	drive
-4.490443	drive.
-5.268594	drive.)
-4.967565	driven
-4.724526	driven.
-4.569624	driver
-4.339175	driver,
-5.268594	driver.
-5.268594	drivers
-4.666534	driving
-4.870654	drop
-4.791473	dropped
-4.268594	dropped.
-5.569624	dropped."
-3.552591	drops
-3.544318	drops,
-4.423496	drove
-4.314352	drug
-5.569624	drugs
-5.092503	drugs.
-5.268594	drugs?
-3.706301	due
-4.171684	during
-5.569624	dusted.
-5.569624	duties
-4.967565	duties.
-5.569624	duties."
-4.615382	duty
-4.870654	duty.
-4.791473	dying
-5.268594	dying.
-5.569624	dynamic.
-5.092503	dynamics
-4.423496	e-mail.
-3.730775	each
-3.516546	early
-5.268594	early,
-4.967565	early.
-5.268594	earned
-3.524301	earth
-4.791473	earth.
-5.268594	easier
-5.569624	easier.
-4.967565	easier?
-4.207897	easily
-4.569624	easily.
-3.479719	easy
-4.393533	easy,
-3.862054	easy.
-5.569624	easy.)
-5.092503	easy?
-5.268594	eat
-4.490443	eating
-5.268594	echo.
-4.724526	echoed
-5.268594	eclipsed.
-5.268594	economic
-4.870654	economy.
-5.569624	ecstatic.
-5.268594	edge
-4.666534	edge.
-5.569624	edges.
-5.569624	edit.
-5.092503	edited
-5.092503	editor
-5.569624	education
-3.436085	effect
-4.724526	effect,
-4.207897	effect.
-4.078263	effective
-4.268594	effective.
-4.870654	effects
-4.870654	effort
-4.528232	effort.
-5.268594	efforts.
-5.268594	ego
-3.97856	eight
-4.393533	eighties.
-3.916412	either
-4.967565	either,
-4.122466	either.
-5.092503	elan.
-4.314352	elderly
-4.393533	elected
-3.845348	election
-4.724526	election,
-4.290871	election.
-5.569624	election."
-4.393533	elections
-4.615382	elections.
-5.092503	electors
-5.569624	electric,
-5.268594	electric.
-5.569624	electricity
-3.926172	element
-4.791473	element.
-5.268594	elements
-4.870654	elements.
-3.791473	else
-5.569624	else's.
-4.967565	else,
-4.455681	else.
-5.092503	else?
-4.666534	elsewhere
-5.268594	elsewhere,
-5.268594	elsewhere.
-5.268594	eluded
-4.724526	elusive
-4.339175	embargo
-4.724526	embarrassed
-5.268594	embassy
-4.122466	emerge
-4.967565	emerged
-4.455681	emerged.
-5.569624	emerged."
-5.569624	emergency
-4.967565	emerges.
-5.092503	emerging
-4.569624	emerging.
-5.569624	emerging."
-5.569624	emotionally
-5.092503	emotions.
-5.268594	emotions?
-5.092503	emphasis
-5.569624	emphasis.
-5.268594	emphasise
-5.569624	emphasised
-4.967565	empire.
-4.791473	employed
-5.268594	employee
-5.268594	employees
-5.268594	employer?
-4.666534	employers
-4.870654	employers.
-4.870654	employment
-4.339175	employment.
-5.268594	employment.)
-4.967565	empowering
-4.724526	empty
-5.268594	emulate
-5.569624	enabled
-5.569624	enchanted
-5.092503	encore?
-5.092503	encounter
-4.615382	encourage
-4.724526	encouraged
-4.314352	encouraged.
-5.268594	encouraged.)
-3.213598	end
-4.314352	end,
-3.405272	end.
-5.569624	end."
-5.569624	end.)
-5.092503	endangered
-4.870654	endeavour,
-4.724526	ended
-4.967565	endemic
-5.569624	ending
-5.092503	ending.
-5.268594	endorse.
-4.666534	endorsed
-4.365504	endorsed.
-5.569624	endorsed."
-3.552591	ends
-5.268594	endurance
-4.615382	endure.
-5.268594	enduring
-4.423496	enemies.
-5.268594	enemy
-5.268594	enemy.
-5.569624	enemy.)
-4.967565	energies.
-5.569624	energised.
-4.339175	energy
-5.092503	energy.
-4.967565	enforce
-4.290871	enforced.
-5.268594	enforcement
-4.870654	engage
-4.615382	engage.
-5.092503	engaged
-4.393533	engaging
-4.393533	engineer.
-4.870654	enhanced.
-4.038146	enjoy
-5.092503	enjoy.
-4.092503	enjoyable
-4.967565	enjoyable.
-5.569624	enjoyable.)
-3.967564	enjoyed
-4.423496	enjoying
-5.569624	enjoyment
-5.092503	enormous
-4.207897	enormous.
-3.798772	enough
-4.423496	enough,
-3.81375	enough.
-4.870654	enough?
-4.528232	ensure
-4.967565	enter
-5.569624	entertain.
-5.092503	entertained.
-5.268594	enthralling.
-3.700393	entirely
-4.615382	entirely.
-5.569624	entirely.)
-4.171684	entitled
-5.569624	entrance.
-4.615382	entry.
-5.092503	envelope.
-5.092503	envious.
-4.870654	environment.
-5.268594	environment.)
-5.092503	environmental
-4.870654	epic.
-5.569624	epic.)
-4.615382	episode.
-5.569624	episode."
-4.423496	equal.
-4.247405	equally
-5.092503	equals.
-4.455681	equation.
-5.569624	equation.)
-4.393533	equipment
-4.569624	equipment.
-5.268594	equipment.)
-4.967565	equipment?
-4.724526	equipped
-4.569624	equity
-4.724526	era
-4.615382	era.
-4.967565	erased.
-5.569624	erotic
-5.092503	erotic,
-4.365504	error
-4.666534	error.
-4.870654	errors.
-5.569624	errors.)
-4.615382	escape.
-5.268594	escaped
-5.268594	escaping
-5.569624	escort.
-4.268594	essence,
-4.967565	essential
-4.13826	essential.
-4.290871	establish
-5.268594	establish.
-5.268594	established
-5.569624	established.
-4.791473	estate
-5.268594	estate.
-5.092503	ethic.
-4.724526	ethical
-4.528232	ethics.
-4.870654	ethos
-4.870654	euphoric.
-4.666534	euro
-4.455681	euro.
-5.569624	euros.
-3.346908	even
-5.092503	even.
-4.615382	evening
-4.227201	evening.
-5.268594	evening.)
-5.092503	evenly
-3.946375	event
-4.967565	event,
-4.107226	event.
-5.268594	event?
-5.268594	eventful
-4.615382	events
-5.092503	events.
-3.341738	ever
-5.268594	ever,
-5.092503	ever.
-3.540241	every
-4.001422	everyone
-4.791473	everyone,
-4.615382	everyone.
-3.520406	everything
-5.569624	everything!
-4.967565	everything,
-3.967564	everything.
-5.569624	everything."
-5.569624	everything.)
-5.569624	everything?
-4.724526	everywhere
-4.455681	everywhere.
-5.268594	evicted.
-4.423496	eviction
-3.916412	evidence
-5.569624	evidence,
-4.314352	evidence.
-5.569624	evidence.)
-5.569624	evidence?
-4.423496	evident
-4.791473	evil
-4.967565	evil.
-5.092503	evolving.
-4.967565	exacting,
-4.038146	exactly
-5.268594	exactly?
-5.569624	examined.
-4.227201	example
-4.490443	example,
-4.13826	example.
-5.569624	example.)
-5.569624	examples
-5.092503	examples.
-4.314352	exams.
-5.268594	exams.)
-5.268594	excel.
-4.013322	excellent
-4.13826	excellent.
-5.092503	excellent.)
-4.569624	exception.
-5.569624	exception.)
-5.268594	exceptions
-4.393533	excess
-5.569624	excessive?
-4.967565	exchange.
-4.666534	excited
-5.268594	excited.
-4.870654	excitement
-4.666534	excitement.
-5.092503	excitement.)
-4.528232	exciting
-4.870654	exciting!
-4.967565	exciting,
-4.365504	exciting.
-5.268594	exciting."
-5.569624	exciting.)
-5.268594	excluded
-5.569624	excluding
-5.268594	excuse
-4.314352	excuse.
-4.967565	excuses
-4.870654	excuses.
-4.967565	executive
-4.870654	exercise
-4.365504	exercise.
-5.569624	exercise.)
-4.247405	exhausted.
-5.268594	exhaustive
-4.967565	exist
-4.870654	exist.
-5.569624	existed.
-4.791473	existence
-4.171684	existing
-5.569624	exists.
-4.724526	expand.
-5.569624	expand.)
-4.967565	expanded
-5.569624	expanded,
-4.724526	expansion
-5.268594	expansion.
-5.569624	expansion.)
-5.569624	expansions
-3.75008	expect
-4.791473	expectations.
-5.092503	expectations.)
-3.191226	expected
-4.967565	expected,
-4.314352	expected.
-5.092503	expecting
-5.092503	expense.
-5.569624	expenses.
-4.791473	expensive
-4.724526	expensive.
-4.078263	experience
-4.339175	experience,
-3.700393	experience.
-5.569624	experience.)
-5.092503	experience?
-4.666534	experienced
-4.666534	expert
-5.268594	expertise.
-4.247405	experts
-3.469254	explain
-4.528232	explain.
-3.532198	explained
-4.791473	explains.
-3.524301	explanation.
-5.268594	explanation.)
-5.569624	explode.
-5.569624	exploded.
-5.092503	exploding.
-5.268594	exploited
-4.967565	explored.
-5.092503	explosion
-4.393533	explosion.
-5.569624	explosion.)
-5.268594	explosive
-4.870654	explosive.
-4.615382	export
-5.569624	exposure
-5.268594	express
-4.967565	expressed
-5.569624	expression
-5.092503	expressions
-5.569624	expressive
-5.092503	expulsion
-4.724526	extended
-4.791473	extension
-5.569624	extension.
-4.870654	extent
-5.569624	extent.
-5.268594	extinction
-5.092503	extinction,
-4.967565	extinction.
-4.615382	extra
-4.393533	extra.
-5.569624	extra."
-4.724526	extraordinary
-5.268594	extreme
-5.569624	extreme.
-3.712292	extremely
-4.339175	eye
-5.569624	eye.
-5.569624	eyeing
-5.569624	eyes
-5.569624	eyes,
-4.724526	eyes.
-5.569624	eyes.)
-5.092503	eyesight.
-4.001422	face
-4.290871	face.
-4.967565	face?
-5.268594	faceless
-4.569624	faces
-5.268594	faces.
-4.791473	facing
-4.455681	fact
-3.561024	fact,
-4.092503	fact.
-5.569624	fact.)
-5.569624	factor,
-4.724526	factor.
-5.092503	factor.)
-5.092503	factors
-4.870654	factors.
-4.791473	facts.
-4.615382	fail
-5.569624	fail.
-5.569624	fail?
-4.013322	failed
-4.339175	failed.
-5.569624	failed."
-5.569624	failing
-4.967565	failing.
-5.268594	failings
-4.791473	failure
-4.791473	failure.
-5.268594	failure.)
-4.791473	failures
-4.423496	fair
-4.171684	fair.
-5.569624	fair.)
-4.365504	fairly
-5.092503	fairly.
-5.569624	fairways.
-5.092503	fairy
-5.268594	faith
-4.490443	faith.
-4.967565	fake?
-4.171684	fall
-5.092503	fall.
-4.001422	fallen
-4.870654	falling
-3.548435	falls
-4.870654	familiar
-4.666534	families
-4.423496	families.
-5.569624	families.)
-3.479719	family
-5.569624	family,
-3.784295	family.
-5.268594	family.)
-5.569624	famous
-4.967565	fan
-5.569624	fan.
-5.092503	fancy.
-3.897527	fans
-4.268594	fans.
-4.13826	fantastic
-3.946375	fantastic.
-5.569624	fantastic."
-5.268594	fantastic.)
-4.791473	fantasy
-5.092503	fantasy.
-3.540241	far
-4.365504	far,
-4.290871	far.
-5.569624	far.)
-4.339175	farce.
-4.870654	farewell
-5.569624	farm
-5.092503	farm.
-4.528232	farmer
-4.870654	farmer.
-4.490443	farmers
-4.967565	farmers.
-5.569624	farmers.)
-4.393533	farming
-4.791473	farming.
-5.268594	fashion
-4.615382	fashion.
-5.268594	fast
-4.423496	fast.
-5.569624	fast.)
-5.569624	fastest
-4.870654	fatal
-4.967565	fatal.
-5.092503	fate
-4.13826	father
-4.078263	father,
-5.268594	father.
-4.967565	fathom.
-4.870654	fatigue.
-5.569624	fatigue."
-4.870654	fault
-4.455681	fault.
-4.666534	fault?
-4.290871	favour
-4.455681	favour.
-5.569624	favour.)
-4.05111	favourite
-4.666534	favourite,
-5.092503	favourite.
-5.569624	favourite?)
-5.092503	favourites
-5.569624	favourites,
-4.666534	favourites.
-4.490443	fear
-4.290871	fear.
-5.569624	fear.)
-4.365504	feared
-4.615382	feasible.
-5.268594	feasible.)
-4.314352	feature
-4.967565	feature.
-5.569624	fed
-5.092503	fee.
-4.569624	feed.
-4.967565	feedback
-3.249478	feel
-5.268594	feel.
-5.569624	feel?
-3.916412	feeling
-4.490443	feeling.
-5.092503	feeling?
-4.393533	feels
-5.569624	feels.
-5.092503	fees
-4.569624	feet
-4.724526	feet.
-5.569624	feet.)
-4.490443	fell
-5.268594	fellowship
-3.465821	felt
-4.791473	female
-5.569624	female,
-4.666534	festival
-5.569624	festival.
-5.268594	festivals
-4.791473	festivals.
-3.645345	few
-4.967565	few.
-5.569624	few."
-4.569624	fiasco.
-5.569624	fickle.
-4.423496	field
-4.189413	field.
-5.569624	fields
-5.092503	fiery
-5.569624	fifth
-5.092503	fifth.
-3.97856	fight
-4.870654	fight.
-5.569624	fight.)
-5.268594	fighter.
-4.207897	fighting
-4.666534	fighting.
-4.870654	figure
-4.967565	figure,
-4.569624	figure.
-3.791473	figures
-5.092503	figures,
-5.569624	figures.)
-3.989841	film
-4.455681	film,
-4.189413	film.
-5.092503	filmed
-5.569624	filming.
-5.268594	films
-4.791473	films.
-3.591901	final
-4.791473	final,
-4.13826	final.
-5.268594	final.)
-4.967565	finale
-4.189413	finalised
-5.569624	finalised.
-4.092503	finally
-5.569624	finally,
-5.569624	finals
-4.393533	finals,
-5.268594	finance
-5.268594	financed
-4.870654	finances
-5.569624	finances.
-3.879428	financial
-5.092503	financial.
-3.630105	find
-4.791473	finding
-4.314352	findings
-4.870654	findings.
-5.569624	findings.)
-3.544318	finds
-4.490443	fine
-4.393533	fine.
-5.569624	fine.)
-5.569624	finest
-5.268594	finger
-5.092503	finger.
-5.092503	fingers
-4.528232	finish
-4.490443	finish.
-5.268594	finish.)
-5.569624	finish?
-4.013322	finished
-4.107226	finished.
-5.569624	finished.)
-5.092503	finisher.
-5.092503	finishing
-3.784295	fire
-4.038146	fire.
-5.569624	fire.)
-5.092503	firearm.
-5.268594	fired.
-5.268594	firefighter
-5.569624	firemen.
-4.423496	firm
-5.268594	firm.
-4.870654	firmly
-3.128715	first
-3.536201	first,
-4.666534	first.
-5.569624	first.)
-5.268594	fishermen
-4.870654	fishing
-4.724526	fishing,
-5.092503	fishing.
-4.268594	fit
-5.092503	fit!
-4.791473	fit.
-5.569624	fit.)
-4.207897	fitness
-5.569624	fitness.
-4.490443	fitting
-3.270771	five
-4.967565	five-day
-5.569624	fiver
-4.490443	fix.
-5.569624	fix.)
-4.870654	fixed
-5.569624	fixed.
-5.268594	fixes.
-5.092503	fixture.
-5.092503	flames
-4.967565	flashpoint.
-5.268594	flashy
-4.490443	flat
-5.569624	flat.
-4.870654	flats.
-5.092503	flawed.
-5.092503	fled.
-5.268594	flexible
-5.268594	flexible.
-5.092503	flight
-5.268594	flight.
-5.569624	flight?
-5.268594	floating
-5.092503	flooded
-5.092503	flooded.
-3.536201	floods.
-4.455681	floor.
-5.569624	floor.)
-4.870654	flotation.
-4.967565	flourishing
-4.870654	flow.
-5.569624	flow.)
-4.666534	flowers.
-4.339175	flu.
-5.268594	flu.)
-4.724526	fly
-5.569624	fly.
-4.078263	focus
-4.393533	focus.
-4.528232	focused
-5.092503	focused.
-5.268594	focused.)
-5.092503	folk.
-4.13826	follow
-5.092503	follow,
-4.365504	follow.
-4.227201	followed
-4.791473	followed.
-5.569624	followed.)
-3.897527	following
-5.569624	following.
-4.268594	follows
-5.569624	folly.
-4.724526	food
-4.870654	food.
-4.528232	foods.
-5.569624	fool
-4.870654	fool.
-4.870654	foolhardy
-4.870654	foolish
-4.870654	foolishly
-5.268594	foot
-4.967565	foot-and-mouth
-3.770284	football
-5.092503	football,
-3.74355	football.
-5.268594	football."
-5.268594	football.)
-4.615382	footballer.
-5.268594	footballers
-2.054413	for
-5.268594	for,
-4.528232	for.
-5.569624	for.)
-4.967565	for?
-5.569624	for?)
-5.092503	forbidden
-3.837231	force
-5.092503	force.
-3.936156	forced
-4.724526	forces
-5.092503	forces.
-5.569624	fore.
-4.189413	forecast
-4.724526	foreign
-4.339175	foremost,
-3.556787	foretell
-4.423496	forever
-4.870654	forever,
-4.666534	forever.
-4.365504	forget
-4.666534	forget.
-5.268594	forgive.
-4.967565	forgiven
-5.569624	forgiven.
-5.092503	forgiveness
-4.967565	forgot
-5.569624	forgot.
-5.569624	forgotten.
-3.171684	form
-5.268594	form,
-4.092503	form.
-5.569624	form.)
-3.926172	formal
-4.791473	formal.
-4.455681	formally
-4.423496	format.
-5.569624	format."
-4.791473	formation
-3.532198	formed.
-4.666534	former
-5.092503	former.
-4.967565	forms
-5.092503	forms.
-4.967565	formula.
-5.268594	formula.)
-5.268594	formula?
-4.967565	forthcoming.
-5.268594	fortnight,
-5.268594	fortnight.
-4.490443	fortunate
-4.870654	fortunate.
-4.423496	fortune.
-5.092503	fortune.)
-3.916412	forward
-3.806196	forward.
-5.569624	forward.)
-4.314352	forward?
-5.092503	forwards.
-4.870654	fossil
-4.724526	foster
-5.092503	fought?
-5.092503	foul.
-5.268594	foul?
-3.275158	found
-4.13826	found.
-5.268594	found.)
-5.569624	foundation.
-4.615382	foundations
-3.683134	four
-4.569624	four-year
-5.268594	fourth
-4.967565	fourth.
-5.569624	frame.
-5.569624	franchise.
-5.569624	frank.
-5.569624	frankly,
-5.569624	freaks?
-3.74355	free
-5.268594	free-for-all.
-4.290871	free.
-4.791473	freedom
-4.791473	freedom.
-3.479719	fresh
-5.268594	fresh,
-4.528232	friend
-4.455681	friend.
-4.339175	friendly
-4.791473	friendly.
-3.505166	friends
-4.455681	friends.
-5.268594	friends.)
-4.615382	friendship
-4.870654	friendship.
-5.569624	friendship.)
-5.268594	fright.
-4.666534	frightened
-5.569624	frightened.
-4.666534	frightening
-4.967565	frightening,
-4.791473	frightening.
-3.552591	frog
-2.550508	from
-4.870654	from.
-4.791473	from?
-4.171684	front
-4.490443	front.
-5.569624	front.)
-5.569624	front?
-5.569624	frontline.
-5.092503	frosty
-4.870654	frustrated
-4.870654	frustrated.
-4.569624	frustrating
-4.666534	frustrating.
-5.569624	frustrating.)
-4.247405	frustration
-4.666534	frustration.
-5.268594	frustration.)
-5.092503	frustrations
-5.268594	fuel
-4.423496	fuel,
-5.268594	fulfilled
-4.870654	fulfilment.
-3.806196	full
-4.339175	full,
-5.092503	full-scale.
-4.569624	full-time
-4.365504	full.
-4.171684	fully
-5.569624	fully.
-4.967565	fun
-5.268594	fun,
-4.107226	fun.
-5.092503	fun?
-5.569624	function
-5.092503	fund
-4.365504	funded
-5.569624	funded.
-4.365504	funding
-5.268594	funding.
-5.569624	funding.)
-4.870654	funds
-5.268594	funds.
-5.268594	funeral
-4.038146	funny
-4.791473	funny!
-4.013322	funny.
-5.268594	furious
-4.724526	furious.
-5.569624	furious."
-5.268594	furniture.
-3.640205	further
-4.666534	further.
-5.268594	fuss.
-3.845348	future
-5.569624	future,
-3.897527	future.
-4.339175	futures
